=== Run information ===

Scheme:       weka.classifiers.trees.REPTree -M 2 -V 0.001 -N 3 -S 1 -L -1 -I 0.0
Relation:     Air Quality Data in India (2015 - 2020) - v3
Instances:    29531
Attributes:   13
              PM2.5
              PM10
              NO
              NO2
              NOx
              NH3
              CO
              SO2
              O3
              Benzene
              Toluene
              Xylene
              AQI
Test mode:    10-fold cross-validation

=== Classifier model (full training set) ===


REPTree
============

PM2.5 < 83.65
|   CO < 10.29
|   |   PM2.5 < 46.67
|   |   |   PM10 < 72.33
|   |   |   |   CO < 1.25
|   |   |   |   |   PM2.5 < 20.14
|   |   |   |   |   |   PM10 < 27
|   |   |   |   |   |   |   CO < 0.59
|   |   |   |   |   |   |   |   NO2 < 2.96
|   |   |   |   |   |   |   |   |   NO < 11.46
|   |   |   |   |   |   |   |   |   |   O3 < 19.62
|   |   |   |   |   |   |   |   |   |   |   NO2 < 2.19 : 29.38 (11/11.32) [5/392.06]
|   |   |   |   |   |   |   |   |   |   |   NO2 >= 2.19
|   |   |   |   |   |   |   |   |   |   |   |   PM2.5 < 15.43 : 21.53 (14/13.92) [5/80.12]
|   |   |   |   |   |   |   |   |   |   |   |   PM2.5 >= 15.43 : 33 (3/10.89) [1/87.11]
|   |   |   |   |   |   |   |   |   |   O3 >= 19.62 : 39.71 (11/74.2) [6/141.29]
|   |   |   |   |   |   |   |   |   NO >= 11.46 : 20.8 (42/8.54) [19/9.3]
|   |   |   |   |   |   |   |   NO2 >= 2.96
|   |   |   |   |   |   |   |   |   O3 < 33.86
|   |   |   |   |   |   |   |   |   |   Benzene < 0.03
|   |   |   |   |   |   |   |   |   |   |   NH3 < 3.17 : 32.85 (25/21.03) [8/28.82]
|   |   |   |   |   |   |   |   |   |   |   NH3 >= 3.17 : 42.17 (12/37.85) [11/193.43]
|   |   |   |   |   |   |   |   |   |   Benzene >= 0.03
|   |   |   |   |   |   |   |   |   |   |   NO2 < 24.13
|   |   |   |   |   |   |   |   |   |   |   |   NOx < 32.76
|   |   |   |   |   |   |   |   |   |   |   |   |   CO < 0.43 : 38.85 (97/141.79) [41/140.48]
|   |   |   |   |   |   |   |   |   |   |   |   |   CO >= 0.43 : 43.58 (41/80.25) [21/91.79]
|   |   |   |   |   |   |   |   |   |   |   |   NOx >= 32.76 : 53.88 (7/11.27) [1/66.31]
|   |   |   |   |   |   |   |   |   |   |   NO2 >= 24.13
|   |   |   |   |   |   |   |   |   |   |   |   NO < 5.64 : 39.5 (2/0.25) [0/0]
|   |   |   |   |   |   |   |   |   |   |   |   NO >= 5.64 : 57.82 (9/38.17) [2/100.05]
|   |   |   |   |   |   |   |   |   O3 >= 33.86
|   |   |   |   |   |   |   |   |   |   O3 < 44.49 : 53.19 (36/33.21) [21/136.85]
|   |   |   |   |   |   |   |   |   |   O3 >= 44.49 : 72.25 (7/110.98) [1/0.73]
|   |   |   |   |   |   |   CO >= 0.59
|   |   |   |   |   |   |   |   O3 < 45.3
|   |   |   |   |   |   |   |   |   NOx < 56.98
|   |   |   |   |   |   |   |   |   |   SO2 < 8.72
|   |   |   |   |   |   |   |   |   |   |   CO < 0.87
|   |   |   |   |   |   |   |   |   |   |   |   CO < 0.69 : 45.26 (16/33.23) [7/40.18]
|   |   |   |   |   |   |   |   |   |   |   |   CO >= 0.69
|   |   |   |   |   |   |   |   |   |   |   |   |   NO < 15.83 : 56.39 (23/42.95) [10/16.43]
|   |   |   |   |   |   |   |   |   |   |   |   |   NO >= 15.83 : 43.75 (4/4.69) [0/0]
|   |   |   |   |   |   |   |   |   |   |   CO >= 0.87 : 61.49 (38/111.62) [23/91.9]
|   |   |   |   |   |   |   |   |   |   SO2 >= 8.72
|   |   |   |   |   |   |   |   |   |   |   NO < 13.66 : 72.94 (10/55.44) [6/264.59]
|   |   |   |   |   |   |   |   |   |   |   NO >= 13.66 : 58.1 (5/35.44) [5/119.72]
|   |   |   |   |   |   |   |   |   NOx >= 56.98 : 84.63 (6/48.47) [2/97.69]
|   |   |   |   |   |   |   |   O3 >= 45.3 : 86.29 (5/253.84) [2/197.86]
|   |   |   |   |   |   PM10 >= 27
|   |   |   |   |   |   |   O3 < 88.38
|   |   |   |   |   |   |   |   O3 < 43.69
|   |   |   |   |   |   |   |   |   NOx < 44.64
|   |   |   |   |   |   |   |   |   |   CO < 0.72
|   |   |   |   |   |   |   |   |   |   |   PM10 < 46.67
|   |   |   |   |   |   |   |   |   |   |   |   O3 < 34.32
|   |   |   |   |   |   |   |   |   |   |   |   |   NO < 7.2
|   |   |   |   |   |   |   |   |   |   |   |   |   |   CO < 0.45
|   |   |   |   |   |   |   |   |   |   |   |   |   |   |   PM10 < 27.52 : 60.89 (6/1319.58) [3/569.58]
|   |   |   |   |   |   |   |   |   |   |   |   |   |   |   PM10 >= 27.52
|   |   |   |   |   |   |   |   |   |   |   |   |   |   |   |   PM10 < 33.17
|   |   |   |   |   |   |   |   |   |   |   |   |   |   |   |   |   NH3 < 3.17 : 33.42 (8/10) [4/165.75]
|   |   |   |   |   |   |   |   |   |   |   |   |   |   |   |   |   NH3 >= 3.17
|   |   |   |   |   |   |   |   |   |   |   |   |   |   |   |   |   |   Toluene < 3.41 : 39.38 (20/34.31) [12/71.36]
|   |   |   |   |   |   |   |   |   |   |   |   |   |   |   |   |   |   Toluene >= 3.41 : 43.76 (23/20.26) [11/146]
|   |   |   |   |   |   |   |   |   |   |   |   |   |   |   |   PM10 >= 33.17
|   |   |   |   |   |   |   |   |   |   |   |   |   |   |   |   |   NH3 < 6.87
|   |   |   |   |   |   |   |   |   |   |   |   |   |   |   |   |   |   NH3 < 6.47 : 47.92 (17/31.52) [9/265.44]
|   |   |   |   |   |   |   |   |   |   |   |   |   |   |   |   |   |   NH3 >= 6.47
|   |   |   |   |   |   |   |   |   |   |   |   |   |   |   |   |   |   |   PM2.5 < 12.81 : 28.5 (2/6.25) [0/0]
|   |   |   |   |   |   |   |   |   |   |   |   |   |   |   |   |   |   |   PM2.5 >= 12.81 : 41.5 (3/10.89) [1/11.11]
|   |   |   |   |   |   |   |   |   |   |   |   |   |   |   |   |   NH3 >= 6.87
|   |   |   |   |   |   |   |   |   |   |   |   |   |   |   |   |   |   Toluene < 2.87
|   |   |   |   |   |   |   |   |   |   |   |   |   |   |   |   |   |   |   O3 < 28.27
|   |   |   |   |   |   |   |   |   |   |   |   |   |   |   |   |   |   |   |   CO < 0.33 : 42.05 (17/22.44) [2/35.85]
|   |   |   |   |   |   |   |   |   |   |   |   |   |   |   |   |   |   |   |   CO >= 0.33 : 47.42 (17/15.66) [7/79.78]
|   |   |   |   |   |   |   |   |   |   |   |   |   |   |   |   |   |   |   O3 >= 28.27 : 59.2 (3/8.22) [2/137.44]
|   |   |   |   |   |   |   |   |   |   |   |   |   |   |   |   |   |   Toluene >= 2.87
|   |   |   |   |   |   |   |   |   |   |   |   |   |   |   |   |   |   |   Benzene < 0.67
|   |   |   |   |   |   |   |   |   |   |   |   |   |   |   |   |   |   |   |   PM2.5 < 13.91 : 71 (2/9) [0/0]
|   |   |   |   |   |   |   |   |   |   |   |   |   |   |   |   |   |   |   |   PM2.5 >= 13.91
|   |   |   |   |   |   |   |   |   |   |   |   |   |   |   |   |   |   |   |   |   Benzene < 0.38 : 46.4 (3/8.22) [2/10.28]
|   |   |   |   |   |   |   |   |   |   |   |   |   |   |   |   |   |   |   |   |   Benzene >= 0.38 : 56.08 (9/10.89) [3/29.67]
|   |   |   |   |   |   |   |   |   |   |   |   |   |   |   |   |   |   |   Benzene >= 0.67 : 46.55 (23/24.56) [21/35.38]
|   |   |   |   |   |   |   |   |   |   |   |   |   |   CO >= 0.45 : 50.65 (129/110.06) [63/175.75]
|   |   |   |   |   |   |   |   |   |   |   |   |   NO >= 7.2 : 54.48 (142/102.67) [96/136]
|   |   |   |   |   |   |   |   |   |   |   |   O3 >= 34.32 : 57.3 (72/154.1) [32/131.64]
|   |   |   |   |   |   |   |   |   |   |   PM10 >= 46.67
|   |   |   |   |   |   |   |   |   |   |   |   PM10 < 56.91
|   |   |   |   |   |   |   |   |   |   |   |   |   NO < 20.8
|   |   |   |   |   |   |   |   |   |   |   |   |   |   O3 < 26.61
|   |   |   |   |   |   |   |   |   |   |   |   |   |   |   Toluene < 0.65 : 42 (4/37.25) [2/281.25]
|   |   |   |   |   |   |   |   |   |   |   |   |   |   |   Toluene >= 0.65
|   |   |   |   |   |   |   |   |   |   |   |   |   |   |   |   Benzene < 3.38 : 54.75 (65/39.65) [37/70.72]
|   |   |   |   |   |   |   |   |   |   |   |   |   |   |   |   Benzene >= 3.38
|   |   |   |   |   |   |   |   |   |   |   |   |   |   |   |   |   NO < 9.68 : 74.25 (2/0.25) [2/164.25]
|   |   |   |   |   |   |   |   |   |   |   |   |   |   |   |   |   NO >= 9.68 : 61.67 (9/19.11) [6/105.83]
|   |   |   |   |   |   |   |   |   |   |   |   |   |   O3 >= 26.61
|   |   |   |   |   |   |   |   |   |   |   |   |   |   |   SO2 < 14.04 : 61.73 (42/54.55) [20/178.71]
|   |   |   |   |   |   |   |   |   |   |   |   |   |   |   SO2 >= 14.04 : 78 (2/1) [1/9]
|   |   |   |   |   |   |   |   |   |   |   |   |   NO >= 20.8 : 66.58 (19/43.09) [17/54.97]
|   |   |   |   |   |   |   |   |   |   |   |   PM10 >= 56.91
|   |   |   |   |   |   |   |   |   |   |   |   |   Toluene < 2.89 : 62.5 (32/162.7) [12/151.32]
|   |   |   |   |   |   |   |   |   |   |   |   |   Toluene >= 2.89 : 70.42 (46/79.72) [25/249.81]
|   |   |   |   |   |   |   |   |   |   CO >= 0.72
|   |   |   |   |   |   |   |   |   |   |   NO2 < 12.45
|   |   |   |   |   |   |   |   |   |   |   |   CO < 0.94
|   |   |   |   |   |   |   |   |   |   |   |   |   NO < 3.42 : 56.03 (81/24.49) [31/175.83]
|   |   |   |   |   |   |   |   |   |   |   |   |   NO >= 3.42 : 65.92 (16/61.4) [8/350.71]
|   |   |   |   |   |   |   |   |   |   |   |   CO >= 0.94 : 65.08 (65/67.31) [43/146.77]
|   |   |   |   |   |   |   |   |   |   |   NO2 >= 12.45
|   |   |   |   |   |   |   |   |   |   |   |   Xylene < 1.99
|   |   |   |   |   |   |   |   |   |   |   |   |   SO2 < 11.27
|   |   |   |   |   |   |   |   |   |   |   |   |   |   NO2 < 15.43 : 96.5 (2/132.25) [0/0]
|   |   |   |   |   |   |   |   |   |   |   |   |   |   NO2 >= 15.43 : 67.11 (14/84.92) [4/92.22]
|   |   |   |   |   |   |   |   |   |   |   |   |   SO2 >= 11.27 : 91 (5/260) [0/0]
|   |   |   |   |   |   |   |   |   |   |   |   Xylene >= 1.99
|   |   |   |   |   |   |   |   |   |   |   |   |   O3 < 24.32
|   |   |   |   |   |   |   |   |   |   |   |   |   |   NO2 < 22.38 : 61.46 (52/59.6) [35/52.59]
|   |   |   |   |   |   |   |   |   |   |   |   |   |   NO2 >= 22.38
|   |   |   |   |   |   |   |   |   |   |   |   |   |   |   NO2 < 35.51
|   |   |   |   |   |   |   |   |   |   |   |   |   |   |   |   NO < 11.25 : 66.33 (15/38.2) [6/126.5]
|   |   |   |   |   |   |   |   |   |   |   |   |   |   |   |   NO >= 11.25
|   |   |   |   |   |   |   |   |   |   |   |   |   |   |   |   |   NH3 < 18.54 : 74.38 (9/17.56) [4/59.5]
|   |   |   |   |   |   |   |   |   |   |   |   |   |   |   |   |   NH3 >= 18.54
|   |   |   |   |   |   |   |   |   |   |   |   |   |   |   |   |   |   Toluene < 2.55 : 61.83 (2/0.25) [4/47.75]
|   |   |   |   |   |   |   |   |   |   |   |   |   |   |   |   |   |   Toluene >= 2.55 : 70.33 (3/14.89) [0/0]
|   |   |   |   |   |   |   |   |   |   |   |   |   |   |   NO2 >= 35.51 : 58.2 (5/11.36) [0/0]
|   |   |   |   |   |   |   |   |   |   |   |   |   O3 >= 24.32 : 70.04 (55/68.65) [38/156.33]
|   |   |   |   |   |   |   |   |   NOx >= 44.64
|   |   |   |   |   |   |   |   |   |   Xylene < 0.36 : 112.2 (5/211.36) [0/0]
|   |   |   |   |   |   |   |   |   |   Xylene >= 0.36
|   |   |   |   |   |   |   |   |   |   |   NO < 93.03
|   |   |   |   |   |   |   |   |   |   |   |   SO2 < 2.69 : 60.71 (6/41.47) [1/10.03]
|   |   |   |   |   |   |   |   |   |   |   |   SO2 >= 2.69
|   |   |   |   |   |   |   |   |   |   |   |   |   SO2 < 9.41 : 90.8 (6/38.22) [4/242.94]
|   |   |   |   |   |   |   |   |   |   |   |   |   SO2 >= 9.41 : 76.12 (17/64.76) [8/156.55]
|   |   |   |   |   |   |   |   |   |   |   NO >= 93.03 : 106.33 (2/100) [1/289]
|   |   |   |   |   |   |   |   O3 >= 43.69 : 78.03 (78/392.04) [42/200.73]
|   |   |   |   |   |   |   O3 >= 88.38 : 175.5 (2/1369) [2/11474]
|   |   |   |   |   PM2.5 >= 20.14
|   |   |   |   |   |   O3 < 47.01
|   |   |   |   |   |   |   NOx < 88.64
|   |   |   |   |   |   |   |   PM10 < 56.91
|   |   |   |   |   |   |   |   |   CO < 0.56
|   |   |   |   |   |   |   |   |   |   PM2.5 < 28.45
|   |   |   |   |   |   |   |   |   |   |   O3 < 38.32
|   |   |   |   |   |   |   |   |   |   |   |   O3 < 17.41
|   |   |   |   |   |   |   |   |   |   |   |   |   NO2 < 34.59
|   |   |   |   |   |   |   |   |   |   |   |   |   |   NH3 < 4.18 : 40.25 (8/60.94) [8/135.19]
|   |   |   |   |   |   |   |   |   |   |   |   |   |   NH3 >= 4.18
|   |   |   |   |   |   |   |   |   |   |   |   |   |   |   NH3 < 4.77 : 62 (2/64) [0/0]
|   |   |   |   |   |   |   |   |   |   |   |   |   |   |   NH3 >= 4.77
|   |   |   |   |   |   |   |   |   |   |   |   |   |   |   |   O3 < 8.25
|   |   |   |   |   |   |   |   |   |   |   |   |   |   |   |   |   O3 < 2.58 : 56.8 (3/1.56) [2/1185.11]
|   |   |   |   |   |   |   |   |   |   |   |   |   |   |   |   |   O3 >= 2.58 : 43.33 (9/13.78) [3/320.67]
|   |   |   |   |   |   |   |   |   |   |   |   |   |   |   |   O3 >= 8.25
|   |   |   |   |   |   |   |   |   |   |   |   |   |   |   |   |   Benzene < 3.58
|   |   |   |   |   |   |   |   |   |   |   |   |   |   |   |   |   |   Benzene < 0.1 : 48.17 (4/4.69) [2/88.56]
|   |   |   |   |   |   |   |   |   |   |   |   |   |   |   |   |   |   Benzene >= 0.1 : 56.1 (14/19.63) [16/411.47]
|   |   |   |   |   |   |   |   |   |   |   |   |   |   |   |   |   Benzene >= 3.58 : 46.13 (10/10.61) [6/52.42]
|   |   |   |   |   |   |   |   |   |   |   |   |   NO2 >= 34.59 : 79.33 (2/16) [1/484]
|   |   |   |   |   |   |   |   |   |   |   |   O3 >= 17.41
|   |   |   |   |   |   |   |   |   |   |   |   |   NH3 < 9.83
|   |   |   |   |   |   |   |   |   |   |   |   |   |   SO2 < 11.91 : 54.42 (51/47.8) [26/115.8]
|   |   |   |   |   |   |   |   |   |   |   |   |   |   SO2 >= 11.91 : 46.77 (16/40.87) [14/71.33]
|   |   |   |   |   |   |   |   |   |   |   |   |   NH3 >= 9.83
|   |   |   |   |   |   |   |   |   |   |   |   |   |   NO < 22.02
|   |   |   |   |   |   |   |   |   |   |   |   |   |   |   CO < 0.34
|   |   |   |   |   |   |   |   |   |   |   |   |   |   |   |   NO < 15.93 : 61.89 (15/53.58) [4/134.77]
|   |   |   |   |   |   |   |   |   |   |   |   |   |   |   |   NO >= 15.93 : 48.8 (4/41.19) [1/297.56]
|   |   |   |   |   |   |   |   |   |   |   |   |   |   |   CO >= 0.34
|   |   |   |   |   |   |   |   |   |   |   |   |   |   |   |   NO2 < 15.23
|   |   |   |   |   |   |   |   |   |   |   |   |   |   |   |   |   PM10 < 37.7 : 60.5 (2/6.25) [2/160.25]
|   |   |   |   |   |   |   |   |   |   |   |   |   |   |   |   |   PM10 >= 37.7 : 51.52 (16/19.12) [15/54.79]
|   |   |   |   |   |   |   |   |   |   |   |   |   |   |   |   NO2 >= 15.23
|   |   |   |   |   |   |   |   |   |   |   |   |   |   |   |   |   NOx < 18.33 : 60.13 (18/16.58) [6/97.1]
|   |   |   |   |   |   |   |   |   |   |   |   |   |   |   |   |   NOx >= 18.33
|   |   |   |   |   |   |   |   |   |   |   |   |   |   |   |   |   |   CO < 0.49 : 50.67 (4/3.19) [2/13.81]
|   |   |   |   |   |   |   |   |   |   |   |   |   |   |   |   |   |   CO >= 0.49 : 56.83 (8/16.5) [4/40.5]
|   |   |   |   |   |   |   |   |   |   |   |   |   |   NO >= 22.02 : 70.2 (4/190.19) [1/52.56]
|   |   |   |   |   |   |   |   |   |   |   O3 >= 38.32
|   |   |   |   |   |   |   |   |   |   |   |   NO2 < 17.59 : 62.77 (36/72.13) [11/46.64]
|   |   |   |   |   |   |   |   |   |   |   |   NO2 >= 17.59 : 94.5 (4/307.25) [0/0]
|   |   |   |   |   |   |   |   |   |   PM2.5 >= 28.45 : 66.35 (107/200.96) [58/288.88]
|   |   |   |   |   |   |   |   |   CO >= 0.56
|   |   |   |   |   |   |   |   |   |   NOx < 53.86
|   |   |   |   |   |   |   |   |   |   |   O3 < 37.33
|   |   |   |   |   |   |   |   |   |   |   |   NO2 < 11.81
|   |   |   |   |   |   |   |   |   |   |   |   |   CO < 0.77 : 58.51 (63/135.83) [21/91.94]
|   |   |   |   |   |   |   |   |   |   |   |   |   CO >= 0.77 : 66.73 (80/81.37) [39/369.24]
|   |   |   |   |   |   |   |   |   |   |   |   NO2 >= 11.81
|   |   |   |   |   |   |   |   |   |   |   |   |   PM2.5 < 28.27
|   |   |   |   |   |   |   |   |   |   |   |   |   |   Benzene < 0.95
|   |   |   |   |   |   |   |   |   |   |   |   |   |   |   NOx < 12.48 : 53 (4/32.5) [5/172.2]
|   |   |   |   |   |   |   |   |   |   |   |   |   |   |   NOx >= 12.48
|   |   |   |   |   |   |   |   |   |   |   |   |   |   |   |   Benzene < 0.06
|   |   |   |   |   |   |   |   |   |   |   |   |   |   |   |   |   PM2.5 < 22.14 : 53.73 (8/11.61) [3/319.35]
|   |   |   |   |   |   |   |   |   |   |   |   |   |   |   |   |   PM2.5 >= 22.14
|   |   |   |   |   |   |   |   |   |   |   |   |   |   |   |   |   |   PM10 < 27.57 : 76.4 (2/0.25) [3/68.25]
|   |   |   |   |   |   |   |   |   |   |   |   |   |   |   |   |   |   PM10 >= 27.57 : 57.3 (12/13.52) [8/81]
|   |   |   |   |   |   |   |   |   |   |   |   |   |   |   |   Benzene >= 0.06
|   |   |   |   |   |   |   |   |   |   |   |   |   |   |   |   |   CO < 0.81
|   |   |   |   |   |   |   |   |   |   |   |   |   |   |   |   |   |   PM10 < 34.83 : 48 (2/9) [0/0]
|   |   |   |   |   |   |   |   |   |   |   |   |   |   |   |   |   |   PM10 >= 34.83 : 63.57 (31/37.42) [15/75.45]
|   |   |   |   |   |   |   |   |   |   |   |   |   |   |   |   |   CO >= 0.81
|   |   |   |   |   |   |   |   |   |   |   |   |   |   |   |   |   |   NOx < 34.2
|   |   |   |   |   |   |   |   |   |   |   |   |   |   |   |   |   |   |   O3 < 18.89 : 65.47 (12/23.85) [3/2.73]
|   |   |   |   |   |   |   |   |   |   |   |   |   |   |   |   |   |   |   O3 >= 18.89 : 72.8 (12/14.08) [8/20.74]
|   |   |   |   |   |   |   |   |   |   |   |   |   |   |   |   |   |   NOx >= 34.2 : 81 (4/18.75) [1/156.25]
|   |   |   |   |   |   |   |   |   |   |   |   |   |   Benzene >= 0.95
|   |   |   |   |   |   |   |   |   |   |   |   |   |   |   NH3 < 23.53
|   |   |   |   |   |   |   |   |   |   |   |   |   |   |   |   PM10 < 48.45
|   |   |   |   |   |   |   |   |   |   |   |   |   |   |   |   |   O3 < 18.23 : 56.55 (14/113.11) [6/139.58]
|   |   |   |   |   |   |   |   |   |   |   |   |   |   |   |   |   O3 >= 18.23 : 66.58 (17/72.48) [9/177.87]
|   |   |   |   |   |   |   |   |   |   |   |   |   |   |   |   PM10 >= 48.45 : 75.77 (16/109.62) [14/305.74]
|   |   |   |   |   |   |   |   |   |   |   |   |   |   |   NH3 >= 23.53 : 80.15 (20/245.91) [7/267.58]
|   |   |   |   |   |   |   |   |   |   |   |   |   PM2.5 >= 28.27
|   |   |   |   |   |   |   |   |   |   |   |   |   |   Xylene < 1.96
|   |   |   |   |   |   |   |   |   |   |   |   |   |   |   PM10 < 44.6 : 174 (2/144) [0/0]
|   |   |   |   |   |   |   |   |   |   |   |   |   |   |   PM10 >= 44.6 : 75.11 (5/104.24) [4/548.41]
|   |   |   |   |   |   |   |   |   |   |   |   |   |   Xylene >= 1.96 : 71.38 (74/194.3) [34/243.75]
|   |   |   |   |   |   |   |   |   |   |   O3 >= 37.33 : 73.02 (86/252.16) [49/224.69]
|   |   |   |   |   |   |   |   |   |   NOx >= 53.86 : 88.37 (16/123.13) [11/87.89]
|   |   |   |   |   |   |   |   PM10 >= 56.91
|   |   |   |   |   |   |   |   |   NO < 57.37
|   |   |   |   |   |   |   |   |   |   PM2.5 < 33.78
|   |   |   |   |   |   |   |   |   |   |   CO < 0.8
|   |   |   |   |   |   |   |   |   |   |   |   O3 < 37.28
|   |   |   |   |   |   |   |   |   |   |   |   |   PM10 < 69.09
|   |   |   |   |   |   |   |   |   |   |   |   |   |   CO < 0.56 : 64.9 (111/104.41) [49/66.47]
|   |   |   |   |   |   |   |   |   |   |   |   |   |   CO >= 0.56 : 69.34 (103/100.39) [38/120.18]
|   |   |   |   |   |   |   |   |   |   |   |   |   PM10 >= 69.09
|   |   |   |   |   |   |   |   |   |   |   |   |   |   Xylene < 7.01
|   |   |   |   |   |   |   |   |   |   |   |   |   |   |   PM2.5 < 22.44 : 60.64 (9/89.51) [2/59.38]
|   |   |   |   |   |   |   |   |   |   |   |   |   |   |   PM2.5 >= 22.44
|   |   |   |   |   |   |   |   |   |   |   |   |   |   |   |   PM2.5 < 23.25 : 99 (2/4) [0/0]
|   |   |   |   |   |   |   |   |   |   |   |   |   |   |   |   PM2.5 >= 23.25 : 74.55 (27/112.25) [22/154.86]
|   |   |   |   |   |   |   |   |   |   |   |   |   |   Xylene >= 7.01 : 96.29 (7/933.35) [0/0]
|   |   |   |   |   |   |   |   |   |   |   |   O3 >= 37.28 : 77.79 (41/149.9) [21/120.14]
|   |   |   |   |   |   |   |   |   |   |   CO >= 0.8
|   |   |   |   |   |   |   |   |   |   |   |   Toluene < 10.13
|   |   |   |   |   |   |   |   |   |   |   |   |   PM10 < 62.97
|   |   |   |   |   |   |   |   |   |   |   |   |   |   PM2.5 < 33.05
|   |   |   |   |   |   |   |   |   |   |   |   |   |   |   Benzene < 0.31 : 66.4 (6/12.58) [4/100.75]
|   |   |   |   |   |   |   |   |   |   |   |   |   |   |   Benzene >= 0.31
|   |   |   |   |   |   |   |   |   |   |   |   |   |   |   |   NO2 < 23.95
|   |   |   |   |   |   |   |   |   |   |   |   |   |   |   |   |   SO2 < 8.42
|   |   |   |   |   |   |   |   |   |   |   |   |   |   |   |   |   |   PM2.5 < 22.64 : 62.4 (4/3.69) [1/85.56]
|   |   |   |   |   |   |   |   |   |   |   |   |   |   |   |   |   |   PM2.5 >= 22.64 : 71.2 (18/27.88) [7/128.95]
|   |   |   |   |   |   |   |   |   |   |   |   |   |   |   |   |   SO2 >= 8.42 : 77.67 (5/26.64) [4/576.86]
|   |   |   |   |   |   |   |   |   |   |   |   |   |   |   |   NO2 >= 23.95 : 77.29 (9/36.1) [8/81.23]
|   |   |   |   |   |   |   |   |   |   |   |   |   |   PM2.5 >= 33.05 : 64.33 (2/72.25) [1/306.25]
|   |   |   |   |   |   |   |   |   |   |   |   |   PM10 >= 62.97 : 77.64 (56/97.71) [29/127.88]
|   |   |   |   |   |   |   |   |   |   |   |   Toluene >= 10.13 : 85.75 (39/259.53) [13/155.35]
|   |   |   |   |   |   |   |   |   |   PM2.5 >= 33.78 : 78.59 (211/467.68) [103/147.64]
|   |   |   |   |   |   |   |   |   NO >= 57.37 : 108.8 (7/628.53) [3/465.47]
|   |   |   |   |   |   |   NOx >= 88.64 : 142.44 (14/1254.82) [2/858.54]
|   |   |   |   |   |   O3 >= 47.01
|   |   |   |   |   |   |   O3 < 55.72
|   |   |   |   |   |   |   |   NH3 < 4.56
|   |   |   |   |   |   |   |   |   NOx < 3.5 : 68.27 (16/18.81) [6/8.98]
|   |   |   |   |   |   |   |   |   NOx >= 3.5 : 74.94 (13/19.67) [4/75.85]
|   |   |   |   |   |   |   |   NH3 >= 4.56
|   |   |   |   |   |   |   |   |   Toluene < 10.23
|   |   |   |   |   |   |   |   |   |   NOx < 39.55
|   |   |   |   |   |   |   |   |   |   |   PM10 < 41.03
|   |   |   |   |   |   |   |   |   |   |   |   Benzene < 1.89
|   |   |   |   |   |   |   |   |   |   |   |   |   NO < 4.01 : 70.8 (4/10.69) [1/52.56]
|   |   |   |   |   |   |   |   |   |   |   |   |   NO >= 4.01 : 97.17 (6/14.81) [6/154.03]
|   |   |   |   |   |   |   |   |   |   |   |   Benzene >= 1.89 : 136 (2/100) [0/0]
|   |   |   |   |   |   |   |   |   |   |   PM10 >= 41.03 : 82.58 (90/134.42) [49/127.45]
|   |   |   |   |   |   |   |   |   |   NOx >= 39.55 : 103 (7/509.55) [6/914.47]
|   |   |   |   |   |   |   |   |   Toluene >= 10.23 : 106.5 (9/479.11) [5/446.11]
|   |   |   |   |   |   |   O3 >= 55.72 : 97.37 (145/328.23) [75/414.72]
|   |   |   |   CO >= 1.25
|   |   |   |   |   CO < 3.91
|   |   |   |   |   |   CO < 2.25
|   |   |   |   |   |   |   CO < 2.23
|   |   |   |   |   |   |   |   CO < 1.54
|   |   |   |   |   |   |   |   |   NOx < 101.22
|   |   |   |   |   |   |   |   |   |   O3 < 55.75
|   |   |   |   |   |   |   |   |   |   |   NO < 61.03 : 82.63 (206/116) [75/170.06]
|   |   |   |   |   |   |   |   |   |   |   NO >= 61.03 : 95.91 (14/81.39) [9/84.14]
|   |   |   |   |   |   |   |   |   |   O3 >= 55.75
|   |   |   |   |   |   |   |   |   |   |   PM2.5 < 40.77 : 111 (2/56.25) [1/20.25]
|   |   |   |   |   |   |   |   |   |   |   PM2.5 >= 40.77 : 142 (2/64) [0/0]
|   |   |   |   |   |   |   |   |   NOx >= 101.22 : 146.83 (3/1897.56) [3/1116.56]
|   |   |   |   |   |   |   |   CO >= 1.54
|   |   |   |   |   |   |   |   |   CO < 1.92
|   |   |   |   |   |   |   |   |   |   O3 < 43.12
|   |   |   |   |   |   |   |   |   |   |   NO < 78.11
|   |   |   |   |   |   |   |   |   |   |   |   CO < 1.75
|   |   |   |   |   |   |   |   |   |   |   |   |   NO2 < 7.95
|   |   |   |   |   |   |   |   |   |   |   |   |   |   SO2 < 8.36 : 95.44 (5/18.16) [4/125.99]
|   |   |   |   |   |   |   |   |   |   |   |   |   |   SO2 >= 8.36
|   |   |   |   |   |   |   |   |   |   |   |   |   |   |   PM10 < 63.4 : 88.83 (31/14.17) [10/20.84]
|   |   |   |   |   |   |   |   |   |   |   |   |   |   |   PM10 >= 63.4 : 77.5 (3/48.67) [1/196]
|   |   |   |   |   |   |   |   |   |   |   |   |   NO2 >= 7.95
|   |   |   |   |   |   |   |   |   |   |   |   |   |   Benzene < 1.26 : 91.11 (37/19.03) [20/81.99]
|   |   |   |   |   |   |   |   |   |   |   |   |   |   Benzene >= 1.26
|   |   |   |   |   |   |   |   |   |   |   |   |   |   |   PM2.5 < 24.85 : 102.38 (7/11.67) [1/0.18]
|   |   |   |   |   |   |   |   |   |   |   |   |   |   |   PM2.5 >= 24.85 : 95 (6/21.58) [3/6.92]
|   |   |   |   |   |   |   |   |   |   |   |   CO >= 1.75
|   |   |   |   |   |   |   |   |   |   |   |   |   NO < 10.79
|   |   |   |   |   |   |   |   |   |   |   |   |   |   NOx < 32.02 : 99.42 (35/12.31) [24/4.94]
|   |   |   |   |   |   |   |   |   |   |   |   |   |   NOx >= 32.02 : 110 (4/12.25) [2/3.25]
|   |   |   |   |   |   |   |   |   |   |   |   |   NO >= 10.79 : 94.68 (25/22.55) [13/34.5]
|   |   |   |   |   |   |   |   |   |   |   NO >= 78.11
|   |   |   |   |   |   |   |   |   |   |   |   NO2 < 24.48 : 103.25 (3/4.67) [1/121]
|   |   |   |   |   |   |   |   |   |   |   |   NO2 >= 24.48 : 117.25 (4/20.19) [0/0]
|   |   |   |   |   |   |   |   |   |   O3 >= 43.12 : 110.35 (12/357.19) [5/280.66]
|   |   |   |   |   |   |   |   |   CO >= 1.92
|   |   |   |   |   |   |   |   |   |   O3 < 68.94
|   |   |   |   |   |   |   |   |   |   |   Benzene < 3.1 : 104.65 (58/20.02) [23/92.65]
|   |   |   |   |   |   |   |   |   |   |   Benzene >= 3.1 : 116 (9/180.02) [4/87.73]
|   |   |   |   |   |   |   |   |   |   O3 >= 68.94 : 137.5 (2/2.25) [0/0]
|   |   |   |   |   |   |   CO >= 2.23 : 57.9 (39/637.14) [21/568.41]
|   |   |   |   |   |   CO >= 2.25 : 112.91 (53/463.16) [23/104.21]
|   |   |   |   |   CO >= 3.91 : 207.09 (8/1162.5) [3/1265.58]
|   |   |   PM10 >= 72.33
|   |   |   |   CO < 2.33
|   |   |   |   |   PM10 < 118.91
|   |   |   |   |   |   O3 < 50.14
|   |   |   |   |   |   |   CO < 1.02
|   |   |   |   |   |   |   |   PM2.5 < 30.07
|   |   |   |   |   |   |   |   |   NH3 < 23.55
|   |   |   |   |   |   |   |   |   |   CO < 0.33
|   |   |   |   |   |   |   |   |   |   |   PM10 < 114.53
|   |   |   |   |   |   |   |   |   |   |   |   PM10 < 90.6
|   |   |   |   |   |   |   |   |   |   |   |   |   NO < 4.66 : 67.08 (7/76.12) [5/563.56]
|   |   |   |   |   |   |   |   |   |   |   |   |   NO >= 4.66 : 78.25 (14/64.23) [6/115.56]
|   |   |   |   |   |   |   |   |   |   |   |   PM10 >= 90.6
|   |   |   |   |   |   |   |   |   |   |   |   |   NOx < 30.17 : 118 (4/4.75) [1/56.25]
|   |   |   |   |   |   |   |   |   |   |   |   |   NOx >= 30.17 : 100.2 (5/58.96) [0/0]
|   |   |   |   |   |   |   |   |   |   |   PM10 >= 114.53
|   |   |   |   |   |   |   |   |   |   |   |   NO2 < 8.34 : 42.16 (12/98.14) [7/9.27]
|   |   |   |   |   |   |   |   |   |   |   |   NO2 >= 8.34
|   |   |   |   |   |   |   |   |   |   |   |   |   NOx < 4.7 : 37.25 (2/36) [2/78.5]
|   |   |   |   |   |   |   |   |   |   |   |   |   NOx >= 4.7 : 83.97 (22/290.33) [8/29332.46]
|   |   |   |   |   |   |   |   |   |   CO >= 0.33 : 85.51 (336/798.08) [138/276.74]
|   |   |   |   |   |   |   |   |   NH3 >= 23.55
|   |   |   |   |   |   |   |   |   |   CO < 0.19
|   |   |   |   |   |   |   |   |   |   |   NO2 < 37.98
|   |   |   |   |   |   |   |   |   |   |   |   PM2.5 < 21.3 : 33.57 (3/4.22) [4/51.61]
|   |   |   |   |   |   |   |   |   |   |   |   PM2.5 >= 21.3 : 44.23 (14/15.03) [8/42.69]
|   |   |   |   |   |   |   |   |   |   |   NO2 >= 37.98 : 88.33 (3/384.22) [0/0]
|   |   |   |   |   |   |   |   |   |   CO >= 0.19
|   |   |   |   |   |   |   |   |   |   |   Xylene < 2.85
|   |   |   |   |   |   |   |   |   |   |   |   PM10 < 79.95
|   |   |   |   |   |   |   |   |   |   |   |   |   NH3 < 35.59 : 87.57 (5/11.44) [2/9.36]
|   |   |   |   |   |   |   |   |   |   |   |   |   NH3 >= 35.59 : 75.83 (4/20.75) [2/6.25]
|   |   |   |   |   |   |   |   |   |   |   |   PM10 >= 79.95 : 97 (8/91.94) [9/293.73]
|   |   |   |   |   |   |   |   |   |   |   Xylene >= 2.85
|   |   |   |   |   |   |   |   |   |   |   |   NH3 < 24.1 : 56.38 (14/193.66) [7/204.17]
|   |   |   |   |   |   |   |   |   |   |   |   NH3 >= 24.1
|   |   |   |   |   |   |   |   |   |   |   |   |   PM2.5 < 20.83
|   |   |   |   |   |   |   |   |   |   |   |   |   |   NO < 6.22 : 70.21 (21/46.31) [7/37.76]
|   |   |   |   |   |   |   |   |   |   |   |   |   |   NO >= 6.22 : 62.4 (31/72.96) [14/88.87]
|   |   |   |   |   |   |   |   |   |   |   |   |   PM2.5 >= 20.83
|   |   |   |   |   |   |   |   |   |   |   |   |   |   NOx < 36.37 : 73.89 (66/227.94) [35/187.67]
|   |   |   |   |   |   |   |   |   |   |   |   |   |   NOx >= 36.37 : 106.6 (3/9.56) [2/1388.11]
|   |   |   |   |   |   |   |   PM2.5 >= 30.07
|   |   |   |   |   |   |   |   |   PM10 < 117.52
|   |   |   |   |   |   |   |   |   |   PM10 < 87.37 : 85.92 (360/162.98) [159/217.55]
|   |   |   |   |   |   |   |   |   |   PM10 >= 87.37
|   |   |   |   |   |   |   |   |   |   |   NOx < 72.64
|   |   |   |   |   |   |   |   |   |   |   |   PM10 < 104.27
|   |   |   |   |   |   |   |   |   |   |   |   |   NOx < 1.23 : 84.14 (15/245.98) [6/62.17]
|   |   |   |   |   |   |   |   |   |   |   |   |   NOx >= 1.23
|   |   |   |   |   |   |   |   |   |   |   |   |   |   PM10 < 95.44 : 95.6 (126/183.22) [63/166.56]
|   |   |   |   |   |   |   |   |   |   |   |   |   |   PM10 >= 95.44
|   |   |   |   |   |   |   |   |   |   |   |   |   |   |   NOx < 46.34 : 99.11 (108/97.22) [66/74.77]
|   |   |   |   |   |   |   |   |   |   |   |   |   |   |   NOx >= 46.34 : 111.12 (12/169.41) [5/170.44]
|   |   |   |   |   |   |   |   |   |   |   |   PM10 >= 104.27
|   |   |   |   |   |   |   |   |   |   |   |   |   Toluene < 5.88
|   |   |   |   |   |   |   |   |   |   |   |   |   |   Xylene < 2.08
|   |   |   |   |   |   |   |   |   |   |   |   |   |   |   PM10 < 112.11 : 101.76 (23/48.73) [10/101.42]
|   |   |   |   |   |   |   |   |   |   |   |   |   |   |   PM10 >= 112.11 : 111.69 (10/89.21) [6/300.62]
|   |   |   |   |   |   |   |   |   |   |   |   |   |   Xylene >= 2.08 : 96.35 (33/127.22) [13/244.3]
|   |   |   |   |   |   |   |   |   |   |   |   |   Toluene >= 5.88 : 108.68 (59/226.38) [36/183.74]
|   |   |   |   |   |   |   |   |   |   |   NOx >= 72.64 : 140.38 (5/641.36) [3/859.37]
|   |   |   |   |   |   |   |   |   PM10 >= 117.52
|   |   |   |   |   |   |   |   |   |   NOx < 15.12 : 78.25 (154/350.51) [71/556.44]
|   |   |   |   |   |   |   |   |   |   NOx >= 15.12
|   |   |   |   |   |   |   |   |   |   |   NO2 < 19
|   |   |   |   |   |   |   |   |   |   |   |   Benzene < 6.35
|   |   |   |   |   |   |   |   |   |   |   |   |   Xylene < 0.11
|   |   |   |   |   |   |   |   |   |   |   |   |   |   CO < 0.67 : 205.5 (2/90.25) [2/6720.25]
|   |   |   |   |   |   |   |   |   |   |   |   |   |   CO >= 0.67 : 105.11 (5/33.2) [4/30.75]
|   |   |   |   |   |   |   |   |   |   |   |   |   Xylene >= 0.11
|   |   |   |   |   |   |   |   |   |   |   |   |   |   Benzene < 0.76
|   |   |   |   |   |   |   |   |   |   |   |   |   |   |   NO2 < 18.52 : 87.81 (60/262.96) [36/454.94]
|   |   |   |   |   |   |   |   |   |   |   |   |   |   |   NO2 >= 18.52 : 125.2 (3/1734) [2/2650]
|   |   |   |   |   |   |   |   |   |   |   |   |   |   Benzene >= 0.76
|   |   |   |   |   |   |   |   |   |   |   |   |   |   |   CO < 0.52
|   |   |   |   |   |   |   |   |   |   |   |   |   |   |   |   PM2.5 < 39.98 : 55.8 (2/0) [3/39.33]
|   |   |   |   |   |   |   |   |   |   |   |   |   |   |   |   PM2.5 >= 39.98 : 85.5 (4/12.75) [0/0]
|   |   |   |   |   |   |   |   |   |   |   |   |   |   |   CO >= 0.52 : 112.67 (26/579.64) [23/955.15]
|   |   |   |   |   |   |   |   |   |   |   |   Benzene >= 6.35 : 159 (2/4096) [1/19881]
|   |   |   |   |   |   |   |   |   |   |   NO2 >= 19 : 81.08 (147/374.86) [66/434.5]
|   |   |   |   |   |   |   CO >= 1.02
|   |   |   |   |   |   |   |   Xylene < 0.57
|   |   |   |   |   |   |   |   |   Toluene < 0.01 : 335.5 (2/49062.25) [0/0]
|   |   |   |   |   |   |   |   |   Toluene >= 0.01
|   |   |   |   |   |   |   |   |   |   PM10 < 108.31
|   |   |   |   |   |   |   |   |   |   |   NO < 61.93
|   |   |   |   |   |   |   |   |   |   |   |   Toluene < 2.95
|   |   |   |   |   |   |   |   |   |   |   |   |   CO < 1.52 : 88.67 (4/2.19) [2/7.81]
|   |   |   |   |   |   |   |   |   |   |   |   |   CO >= 1.52 : 98.78 (6/14.67) [3/20.67]
|   |   |   |   |   |   |   |   |   |   |   |   Toluene >= 2.95 : 112 (10/111.56) [4/1185.94]
|   |   |   |   |   |   |   |   |   |   |   NO >= 61.93 : 131.67 (3/2.89) [0/0]
|   |   |   |   |   |   |   |   |   |   PM10 >= 108.31
|   |   |   |   |   |   |   |   |   |   |   NOx < 15.04 : 158.86 (4/1111.19) [3/6431.23]
|   |   |   |   |   |   |   |   |   |   |   NOx >= 15.04
|   |   |   |   |   |   |   |   |   |   |   |   CO < 1.25 : 118.42 (24/159.33) [7/168.54]
|   |   |   |   |   |   |   |   |   |   |   |   CO >= 1.25
|   |   |   |   |   |   |   |   |   |   |   |   |   NO < 25.38 : 122.07 (7/135.1) [8/372.15]
|   |   |   |   |   |   |   |   |   |   |   |   |   NO >= 25.38 : 153.87 (11/270.6) [4/5813]
|   |   |   |   |   |   |   |   Xylene >= 0.57
|   |   |   |   |   |   |   |   |   PM2.5 < 27.13
|   |   |   |   |   |   |   |   |   |   PM10 < 117.97
|   |   |   |   |   |   |   |   |   |   |   CO < 1.52 : 87.01 (39/200.37) [29/426.31]
|   |   |   |   |   |   |   |   |   |   |   CO >= 1.52
|   |   |   |   |   |   |   |   |   |   |   |   NOx < 8.3 : 129 (2/9) [2/160]
|   |   |   |   |   |   |   |   |   |   |   |   NOx >= 8.3
|   |   |   |   |   |   |   |   |   |   |   |   |   CO < 2.29
|   |   |   |   |   |   |   |   |   |   |   |   |   |   PM10 < 94.49
|   |   |   |   |   |   |   |   |   |   |   |   |   |   |   CO < 1.79 : 92.75 (13/23.02) [3/45.5]
|   |   |   |   |   |   |   |   |   |   |   |   |   |   |   CO >= 1.79 : 99.89 (11/13.32) [7/38.76]
|   |   |   |   |   |   |   |   |   |   |   |   |   |   PM10 >= 94.49 : 103.36 (8/16.94) [6/10.81]
|   |   |   |   |   |   |   |   |   |   |   |   |   CO >= 2.29 : 127 (2/196) [0/0]
|   |   |   |   |   |   |   |   |   |   PM10 >= 117.97
|   |   |   |   |   |   |   |   |   |   |   Xylene < 4.92
|   |   |   |   |   |   |   |   |   |   |   |   PM2.5 < 26.2 : 73.23 (85/313.57) [46/614.44]
|   |   |   |   |   |   |   |   |   |   |   |   PM2.5 >= 26.2
|   |   |   |   |   |   |   |   |   |   |   |   |   O3 < 20.74
|   |   |   |   |   |   |   |   |   |   |   |   |   |   PM2.5 < 26.69
|   |   |   |   |   |   |   |   |   |   |   |   |   |   |   SO2 < 5.21 : 105.33 (2/0) [1/2116]
|   |   |   |   |   |   |   |   |   |   |   |   |   |   |   SO2 >= 5.21 : 79 (3/8.67) [0/0]
|   |   |   |   |   |   |   |   |   |   |   |   |   |   PM2.5 >= 26.69 : 65 (4/68) [0/0]
|   |   |   |   |   |   |   |   |   |   |   |   |   O3 >= 20.74 : 96.67 (7/461.67) [5/546.78]
|   |   |   |   |   |   |   |   |   |   |   Xylene >= 4.92 : 105.5 (3/140.22) [1/11.11]
|   |   |   |   |   |   |   |   |   PM2.5 >= 27.13
|   |   |   |   |   |   |   |   |   |   CO < 1.58
|   |   |   |   |   |   |   |   |   |   |   NOx < 35.31 : 92.21 (290/531.51) [142/403.75]
|   |   |   |   |   |   |   |   |   |   |   NOx >= 35.31 : 108.39 (66/604.17) [40/523.68]
|   |   |   |   |   |   |   |   |   |   CO >= 1.58
|   |   |   |   |   |   |   |   |   |   |   Benzene < 2.99
|   |   |   |   |   |   |   |   |   |   |   |   SO2 < 3.77 : 85.9 (11/400.08) [9/523.35]
|   |   |   |   |   |   |   |   |   |   |   |   SO2 >= 3.77 : 108.61 (76/570.33) [56/303.05]
|   |   |   |   |   |   |   |   |   |   |   Benzene >= 2.99
|   |   |   |   |   |   |   |   |   |   |   |   CO < 1.85 : 130.32 (15/940.6) [10/1099.39]
|   |   |   |   |   |   |   |   |   |   |   |   CO >= 1.85 : 113.49 (32/430.81) [15/1125.12]
|   |   |   |   |   |   O3 >= 50.14
|   |   |   |   |   |   |   O3 < 111.06
|   |   |   |   |   |   |   |   O3 < 71.99
|   |   |   |   |   |   |   |   |   PM2.5 < 41.76
|   |   |   |   |   |   |   |   |   |   Xylene < 2.77
|   |   |   |   |   |   |   |   |   |   |   Toluene < 17.14 : 107.19 (40/202.1) [22/179.34]
|   |   |   |   |   |   |   |   |   |   |   Toluene >= 17.14 : 126.75 (13/215.67) [3/17.82]
|   |   |   |   |   |   |   |   |   |   Xylene >= 2.77
|   |   |   |   |   |   |   |   |   |   |   CO < 1.25 : 99.01 (161/261.65) [85/420.28]
|   |   |   |   |   |   |   |   |   |   |   CO >= 1.25 : 110.88 (42/304.48) [17/360.27]
|   |   |   |   |   |   |   |   |   PM2.5 >= 41.76 : 113.06 (116/1229.88) [56/200.29]
|   |   |   |   |   |   |   |   O3 >= 71.99
|   |   |   |   |   |   |   |   |   NO < 6.28 : 118.69 (45/299.16) [27/737.65]
|   |   |   |   |   |   |   |   |   NO >= 6.28
|   |   |   |   |   |   |   |   |   |   O3 < 86.19 : 127.56 (22/400.66) [14/478.2]
|   |   |   |   |   |   |   |   |   |   O3 >= 86.19
|   |   |   |   |   |   |   |   |   |   |   PM10 < 116.43 : 140 (3/50) [1/1024]
|   |   |   |   |   |   |   |   |   |   |   PM10 >= 116.43
|   |   |   |   |   |   |   |   |   |   |   |   PM2.5 < 43.41
|   |   |   |   |   |   |   |   |   |   |   |   |   NO < 10.57 : 169.5 (3/570.89) [1/235.11]
|   |   |   |   |   |   |   |   |   |   |   |   |   NO >= 10.57 : 136.2 (3/72.22) [2/374.28]
|   |   |   |   |   |   |   |   |   |   |   |   PM2.5 >= 43.41 : 176.25 (3/20.67) [1/49]
|   |   |   |   |   |   |   O3 >= 111.06 : 203.36 (7/417.92) [4/487.19]
|   |   |   |   |   PM10 >= 118.91
|   |   |   |   |   |   PM10 < 450.44
|   |   |   |   |   |   |   PM10 < 183.93
|   |   |   |   |   |   |   |   NOx < 28.55
|   |   |   |   |   |   |   |   |   NH3 < 36.24 : 118.55 (144/521.52) [86/804.55]
|   |   |   |   |   |   |   |   |   NH3 >= 36.24
|   |   |   |   |   |   |   |   |   |   Toluene < 0.01
|   |   |   |   |   |   |   |   |   |   |   NO2 < 9.47 : 71.8 (3/16.89) [2/241.61]
|   |   |   |   |   |   |   |   |   |   |   NO2 >= 9.47 : 54.5 (3/10.89) [1/0.44]
|   |   |   |   |   |   |   |   |   |   Toluene >= 0.01
|   |   |   |   |   |   |   |   |   |   |   SO2 < 5.16 : 92.56 (6/293.47) [3/164.25]
|   |   |   |   |   |   |   |   |   |   |   SO2 >= 5.16 : 128.2 (4/172.75) [1/12.25]
|   |   |   |   |   |   |   |   NOx >= 28.55 : 127.68 (147/446.11) [72/584.37]
|   |   |   |   |   |   |   PM10 >= 183.93 : 152.11 (40/2498.7) [13/6151.9]
|   |   |   |   |   |   PM10 >= 450.44 : 594 (2/17956) [3/213105.33]
|   |   |   |   CO >= 2.33 : 165.05 (297/5257.46) [124/3844.4]
|   |   PM2.5 >= 46.67
|   |   |   PM10 < 233.17
|   |   |   |   PM2.5 < 67.82
|   |   |   |   |   CO < 4.73
|   |   |   |   |   |   PM10 < 126.19
|   |   |   |   |   |   |   PM10 < 64.42
|   |   |   |   |   |   |   |   SO2 < 3.59
|   |   |   |   |   |   |   |   |   PM2.5 < 65.38 : 89.9 (7/1076.12) [3/410.97]
|   |   |   |   |   |   |   |   |   PM2.5 >= 65.38
|   |   |   |   |   |   |   |   |   |   Benzene < 0.21 : 85 (2/49) [1/900]
|   |   |   |   |   |   |   |   |   |   Benzene >= 0.21
|   |   |   |   |   |   |   |   |   |   |   PM10 < 32.62 : 29.07 (19/86.55) [11/1116.5]
|   |   |   |   |   |   |   |   |   |   |   PM10 >= 32.62
|   |   |   |   |   |   |   |   |   |   |   |   NO < 3.12 : 27.5 (2/2.25) [0/0]
|   |   |   |   |   |   |   |   |   |   |   |   NO >= 3.12 : 53.64 (11/97.29) [14/307.55]
|   |   |   |   |   |   |   |   SO2 >= 3.59
|   |   |   |   |   |   |   |   |   CO < 0.54 : 68.75 (36/825.64) [25/1184.11]
|   |   |   |   |   |   |   |   |   CO >= 0.54
|   |   |   |   |   |   |   |   |   |   PM10 < 0.18 : 15.5 (2/0.25) [0/0]
|   |   |   |   |   |   |   |   |   |   PM10 >= 0.18
|   |   |   |   |   |   |   |   |   |   |   Toluene < 2.13
|   |   |   |   |   |   |   |   |   |   |   |   PM2.5 < 64.47 : 91.84 (12/304.58) [13/396.52]
|   |   |   |   |   |   |   |   |   |   |   |   PM2.5 >= 64.47 : 50.82 (10/149) [7/173.86]
|   |   |   |   |   |   |   |   |   |   |   Toluene >= 2.13
|   |   |   |   |   |   |   |   |   |   |   |   CO < 1.41 : 100.33 (24/454.29) [15/1326.95]
|   |   |   |   |   |   |   |   |   |   |   |   CO >= 1.41
|   |   |   |   |   |   |   |   |   |   |   |   |   O3 < 60.45
|   |   |   |   |   |   |   |   |   |   |   |   |   |   CO < 2.7
|   |   |   |   |   |   |   |   |   |   |   |   |   |   |   CO < 2.04 : 103.63 (18/54.94) [9/91.36]
|   |   |   |   |   |   |   |   |   |   |   |   |   |   |   CO >= 2.04 : 114.5 (7/27.06) [3/38.32]
|   |   |   |   |   |   |   |   |   |   |   |   |   |   CO >= 2.7 : 131.8 (3/86) [2/128]
|   |   |   |   |   |   |   |   |   |   |   |   |   O3 >= 60.45 : 138.78 (8/133.98) [1/937.89]
|   |   |   |   |   |   |   PM10 >= 64.42
|   |   |   |   |   |   |   |   O3 < 82.72
|   |   |   |   |   |   |   |   |   NOx < 136.01
|   |   |   |   |   |   |   |   |   |   PM10 < 98.51
|   |   |   |   |   |   |   |   |   |   |   CO < 0.82
|   |   |   |   |   |   |   |   |   |   |   |   O3 < 41.24
|   |   |   |   |   |   |   |   |   |   |   |   |   NO2 < 8.9
|   |   |   |   |   |   |   |   |   |   |   |   |   |   PM10 < 91.6
|   |   |   |   |   |   |   |   |   |   |   |   |   |   |   NO < 0.89 : 103 (5/97.36) [2/3437.84]
|   |   |   |   |   |   |   |   |   |   |   |   |   |   |   NO >= 0.89 : 80.11 (32/130.76) [13/242.79]
|   |   |   |   |   |   |   |   |   |   |   |   |   |   PM10 >= 91.6 : 108.9 (6/282.89) [4/344.03]
|   |   |   |   |   |   |   |   |   |   |   |   |   NO2 >= 8.9
|   |   |   |   |   |   |   |   |   |   |   |   |   |   NOx < 37.11
|   |   |   |   |   |   |   |   |   |   |   |   |   |   |   CO < 0.01
|   |   |   |   |   |   |   |   |   |   |   |   |   |   |   |   O3 < 20.21
|   |   |   |   |   |   |   |   |   |   |   |   |   |   |   |   |   NOx < 30.22 : 82.11 (4/28.69) [5/414.36]
|   |   |   |   |   |   |   |   |   |   |   |   |   |   |   |   |   NOx >= 30.22 : 101.71 (10/35.29) [7/295.84]
|   |   |   |   |   |   |   |   |   |   |   |   |   |   |   |   O3 >= 20.21 : 85.67 (12/119.97) [6/270.14]
|   |   |   |   |   |   |   |   |   |   |   |   |   |   |   CO >= 0.01 : 99.02 (102/293.64) [47/603.4]
|   |   |   |   |   |   |   |   |   |   |   |   |   |   NOx >= 37.11
|   |   |   |   |   |   |   |   |   |   |   |   |   |   |   PM2.5 < 47.84 : 77 (3/226.89) [1/177.78]
|   |   |   |   |   |   |   |   |   |   |   |   |   |   |   PM2.5 >= 47.84 : 122.75 (12/585.83) [4/1336.5]
|   |   |   |   |   |   |   |   |   |   |   |   O3 >= 41.24 : 110.22 (81/512.59) [48/389.23]
|   |   |   |   |   |   |   |   |   |   |   CO >= 0.82
|   |   |   |   |   |   |   |   |   |   |   |   NH3 < 23.33
|   |   |   |   |   |   |   |   |   |   |   |   |   O3 < 64.78
|   |   |   |   |   |   |   |   |   |   |   |   |   |   PM10 < 65.19 : 64.5 (2/462.25) [0/0]
|   |   |   |   |   |   |   |   |   |   |   |   |   |   PM10 >= 65.19
|   |   |   |   |   |   |   |   |   |   |   |   |   |   |   PM2.5 < 63.27
|   |   |   |   |   |   |   |   |   |   |   |   |   |   |   |   CO < 1.4
|   |   |   |   |   |   |   |   |   |   |   |   |   |   |   |   |   NH3 < 8.82 : 96.36 (30/131.33) [15/353.39]
|   |   |   |   |   |   |   |   |   |   |   |   |   |   |   |   |   NH3 >= 8.82
|   |   |   |   |   |   |   |   |   |   |   |   |   |   |   |   |   |   PM10 < 90.33
|   |   |   |   |   |   |   |   |   |   |   |   |   |   |   |   |   |   |   PM10 < 82.03 : 93.59 (9/19.73) [8/98.29]
|   |   |   |   |   |   |   |   |   |   |   |   |   |   |   |   |   |   |   PM10 >= 82.03
|   |   |   |   |   |   |   |   |   |   |   |   |   |   |   |   |   |   |   |   NH3 < 11.09 : 109.81 (8/57.36) [8/231.95]
|   |   |   |   |   |   |   |   |   |   |   |   |   |   |   |   |   |   |   |   NH3 >= 11.09 : 95.79 (12/52.41) [7/142.58]
|   |   |   |   |   |   |   |   |   |   |   |   |   |   |   |   |   |   PM10 >= 90.33 : 108.16 (28/126.75) [22/248.86]
|   |   |   |   |   |   |   |   |   |   |   |   |   |   |   |   CO >= 1.4
|   |   |   |   |   |   |   |   |   |   |   |   |   |   |   |   |   Benzene < 3.18 : 114.32 (18/284.61) [7/458.35]
|   |   |   |   |   |   |   |   |   |   |   |   |   |   |   |   |   Benzene >= 3.18
|   |   |   |   |   |   |   |   |   |   |   |   |   |   |   |   |   |   NO < 2.93 : 122.86 (3/44.22) [4/580.94]
|   |   |   |   |   |   |   |   |   |   |   |   |   |   |   |   |   |   NO >= 2.93 : 101.35 (23/85.36) [11/96.23]
|   |   |   |   |   |   |   |   |   |   |   |   |   |   |   PM2.5 >= 63.27 : 114.16 (30/250.65) [14/168.25]
|   |   |   |   |   |   |   |   |   |   |   |   |   O3 >= 64.78 : 127.35 (25/369.37) [6/302.43]
|   |   |   |   |   |   |   |   |   |   |   |   NH3 >= 23.33
|   |   |   |   |   |   |   |   |   |   |   |   |   Toluene < 1.74 : 99.48 (21/155.01) [10/301.96]
|   |   |   |   |   |   |   |   |   |   |   |   |   Toluene >= 1.74 : 138.32 (45/1292.02) [21/1334.24]
|   |   |   |   |   |   |   |   |   |   PM10 >= 98.51
|   |   |   |   |   |   |   |   |   |   |   PM2.5 < 58.97
|   |   |   |   |   |   |   |   |   |   |   |   CO < 1.87
|   |   |   |   |   |   |   |   |   |   |   |   |   O3 < 36.31
|   |   |   |   |   |   |   |   |   |   |   |   |   |   CO < 1.1
|   |   |   |   |   |   |   |   |   |   |   |   |   |   |   Xylene < 0.06 : 136.83 (4/1806.75) [2/2551.25]
|   |   |   |   |   |   |   |   |   |   |   |   |   |   |   Xylene >= 0.06
|   |   |   |   |   |   |   |   |   |   |   |   |   |   |   |   PM2.5 < 48.98
|   |   |   |   |   |   |   |   |   |   |   |   |   |   |   |   |   PM10 < 118.04 : 106.06 (25/98.08) [11/170.46]
|   |   |   |   |   |   |   |   |   |   |   |   |   |   |   |   |   PM10 >= 118.04
|   |   |   |   |   |   |   |   |   |   |   |   |   |   |   |   |   |   NOx < 7.74 : 67.33 (3/38) [3/486.67]
|   |   |   |   |   |   |   |   |   |   |   |   |   |   |   |   |   |   NOx >= 7.74
|   |   |   |   |   |   |   |   |   |   |   |   |   |   |   |   |   |   |   NH3 < 10.32 : 117.6 (4/66.69) [1/45.56]
|   |   |   |   |   |   |   |   |   |   |   |   |   |   |   |   |   |   |   NH3 >= 10.32 : 91 (37/193.89) [20/454.39]
|   |   |   |   |   |   |   |   |   |   |   |   |   |   |   |   PM2.5 >= 48.98
|   |   |   |   |   |   |   |   |   |   |   |   |   |   |   |   |   NOx < 43.4 : 106 (261/435.74) [119/320.05]
|   |   |   |   |   |   |   |   |   |   |   |   |   |   |   |   |   NOx >= 43.4
|   |   |   |   |   |   |   |   |   |   |   |   |   |   |   |   |   |   Benzene < 24.99
|   |   |   |   |   |   |   |   |   |   |   |   |   |   |   |   |   |   |   NH3 < 20.78 : 108.29 (12/86.35) [12/128.31]
|   |   |   |   |   |   |   |   |   |   |   |   |   |   |   |   |   |   |   NH3 >= 20.78
|   |   |   |   |   |   |   |   |   |   |   |   |   |   |   |   |   |   |   |   Toluene < 23.29
|   |   |   |   |   |   |   |   |   |   |   |   |   |   |   |   |   |   |   |   |   Xylene < 2.98 : 157.33 (3/54.89) [0/0]
|   |   |   |   |   |   |   |   |   |   |   |   |   |   |   |   |   |   |   |   |   Xylene >= 2.98 : 128.17 (6/95.56) [6/896.11]
|   |   |   |   |   |   |   |   |   |   |   |   |   |   |   |   |   |   |   |   Toluene >= 23.29 : 95.5 (2/42.25) [0/0]
|   |   |   |   |   |   |   |   |   |   |   |   |   |   |   |   |   |   Benzene >= 24.99 : 191 (2/100) [0/0]
|   |   |   |   |   |   |   |   |   |   |   |   |   |   CO >= 1.1 : 118.1 (117/1207.32) [65/671.66]
|   |   |   |   |   |   |   |   |   |   |   |   |   O3 >= 36.31
|   |   |   |   |   |   |   |   |   |   |   |   |   |   PM10 < 120.69
|   |   |   |   |   |   |   |   |   |   |   |   |   |   |   O3 < 60.43
|   |   |   |   |   |   |   |   |   |   |   |   |   |   |   |   Xylene < 3.45
|   |   |   |   |   |   |   |   |   |   |   |   |   |   |   |   |   SO2 < 8.34 : 113.27 (142/416.89) [63/688.45]
|   |   |   |   |   |   |   |   |   |   |   |   |   |   |   |   |   SO2 >= 8.34 : 121.97 (104/366.46) [55/1091.28]
|   |   |   |   |   |   |   |   |   |   |   |   |   |   |   |   Xylene >= 3.45 : 104.73 (37/156.61) [14/178]
|   |   |   |   |   |   |   |   |   |   |   |   |   |   |   O3 >= 60.43
|   |   |   |   |   |   |   |   |   |   |   |   |   |   |   |   PM2.5 < 52.44 : 118.28 (43/243.28) [21/221.71]
|   |   |   |   |   |   |   |   |   |   |   |   |   |   |   |   PM2.5 >= 52.44
|   |   |   |   |   |   |   |   |   |   |   |   |   |   |   |   |   NOx < 45.72
|   |   |   |   |   |   |   |   |   |   |   |   |   |   |   |   |   |   NO2 < 16.76 : 140.62 (16/453.06) [5/278.35]
|   |   |   |   |   |   |   |   |   |   |   |   |   |   |   |   |   |   NO2 >= 16.76
|   |   |   |   |   |   |   |   |   |   |   |   |   |   |   |   |   |   |   Toluene < 5.82 : 123.72 (11/157.42) [7/228.51]
|   |   |   |   |   |   |   |   |   |   |   |   |   |   |   |   |   |   |   Toluene >= 5.82 : 107.57 (7/137.67) [7/119.14]
|   |   |   |   |   |   |   |   |   |   |   |   |   |   |   |   |   NOx >= 45.72 : 170.17 (3/24.22) [3/2420.56]
|   |   |   |   |   |   |   |   |   |   |   |   |   |   PM10 >= 120.69
|   |   |   |   |   |   |   |   |   |   |   |   |   |   |   NO < 7.04 : 119.39 (11/56.6) [7/81.68]
|   |   |   |   |   |   |   |   |   |   |   |   |   |   |   NO >= 7.04
|   |   |   |   |   |   |   |   |   |   |   |   |   |   |   |   NO2 < 37.42 : 147.93 (11/340.45) [4/730.96]
|   |   |   |   |   |   |   |   |   |   |   |   |   |   |   |   NO2 >= 37.42
|   |   |   |   |   |   |   |   |   |   |   |   |   |   |   |   |   Xylene < 3.96
|   |   |   |   |   |   |   |   |   |   |   |   |   |   |   |   |   |   CO < 1.02 : 129.2 (3/10.67) [2/404]
|   |   |   |   |   |   |   |   |   |   |   |   |   |   |   |   |   |   CO >= 1.02 : 137.92 (7/16.78) [6/1269.75]
|   |   |   |   |   |   |   |   |   |   |   |   |   |   |   |   |   Xylene >= 3.96 : 113.5 (2/6.25) [0/0]
|   |   |   |   |   |   |   |   |   |   |   |   CO >= 1.87 : 135.53 (81/1934.15) [47/772.97]
|   |   |   |   |   |   |   |   |   |   |   PM2.5 >= 58.97
|   |   |   |   |   |   |   |   |   |   |   |   PM2.5 < 67.45
|   |   |   |   |   |   |   |   |   |   |   |   |   PM2.5 < 62.89 : 126.22 (255/982.43) [139/757.39]
|   |   |   |   |   |   |   |   |   |   |   |   |   PM2.5 >= 62.89 : 137.33 (275/1288.94) [142/1036.71]
|   |   |   |   |   |   |   |   |   |   |   |   PM2.5 >= 67.45 : 116.06 (115/1943.84) [61/3515.01]
|   |   |   |   |   |   |   |   |   NOx >= 136.01
|   |   |   |   |   |   |   |   |   |   PM2.5 < 61.71
|   |   |   |   |   |   |   |   |   |   |   O3 < 45.16 : 183.5 (5/90.56) [3/1007.04]
|   |   |   |   |   |   |   |   |   |   |   O3 >= 45.16 : 222.67 (6/148.22) [0/0]
|   |   |   |   |   |   |   |   |   |   PM2.5 >= 61.71 : 153 (4/982.5) [0/0]
|   |   |   |   |   |   |   |   O3 >= 82.72
|   |   |   |   |   |   |   |   |   O3 < 115
|   |   |   |   |   |   |   |   |   |   PM2.5 < 65.28
|   |   |   |   |   |   |   |   |   |   |   NO < 4.9 : 128.07 (16/221.63) [12/994]
|   |   |   |   |   |   |   |   |   |   |   NO >= 4.9
|   |   |   |   |   |   |   |   |   |   |   |   PM2.5 < 53.94
|   |   |   |   |   |   |   |   |   |   |   |   |   Toluene < 12.13 : 123.67 (6/95.56) [0/0]
|   |   |   |   |   |   |   |   |   |   |   |   |   Toluene >= 12.13 : 156 (8/294.25) [3/342.25]
|   |   |   |   |   |   |   |   |   |   |   |   PM2.5 >= 53.94 : 159.4 (26/284.16) [9/795.81]
|   |   |   |   |   |   |   |   |   |   PM2.5 >= 65.28 : 181.19 (11/1355.54) [5/822.66]
|   |   |   |   |   |   |   |   |   O3 >= 115 : 215.8 (14/1011.24) [1/706.04]
|   |   |   |   |   |   PM10 >= 126.19
|   |   |   |   |   |   |   PM10 < 166.28
|   |   |   |   |   |   |   |   O3 < 52.3
|   |   |   |   |   |   |   |   |   NOx < 109.67
|   |   |   |   |   |   |   |   |   |   CO < 3.85
|   |   |   |   |   |   |   |   |   |   |   NOx < 42.43
|   |   |   |   |   |   |   |   |   |   |   |   PM2.5 < 62.77
|   |   |   |   |   |   |   |   |   |   |   |   |   PM10 < 152.32
|   |   |   |   |   |   |   |   |   |   |   |   |   |   Xylene < 0.49 : 132.14 (19/207.88) [9/160.4]
|   |   |   |   |   |   |   |   |   |   |   |   |   |   Xylene >= 0.49
|   |   |   |   |   |   |   |   |   |   |   |   |   |   |   SO2 < 12.26
|   |   |   |   |   |   |   |   |   |   |   |   |   |   |   |   PM10 < 137.69
|   |   |   |   |   |   |   |   |   |   |   |   |   |   |   |   |   Benzene < 1.98 : 124.1 (17/171.91) [13/696.59]
|   |   |   |   |   |   |   |   |   |   |   |   |   |   |   |   |   Benzene >= 1.98 : 111.93 (33/101.94) [13/221]
|   |   |   |   |   |   |   |   |   |   |   |   |   |   |   |   PM10 >= 137.69
|   |   |   |   |   |   |   |   |   |   |   |   |   |   |   |   |   NO2 < 18.11 : 130.79 (14/71.31) [0/0]
|   |   |   |   |   |   |   |   |   |   |   |   |   |   |   |   |   NO2 >= 18.11
|   |   |   |   |   |   |   |   |   |   |   |   |   |   |   |   |   |   CO < 0.76 : 115.38 (10/35.69) [3/48.54]
|   |   |   |   |   |   |   |   |   |   |   |   |   |   |   |   |   |   CO >= 0.76
|   |   |   |   |   |   |   |   |   |   |   |   |   |   |   |   |   |   |   NOx < 24.31 : 112 (2/6.25) [3/190.25]
|   |   |   |   |   |   |   |   |   |   |   |   |   |   |   |   |   |   |   NOx >= 24.31 : 128.32 (12/20.02) [7/91.42]
|   |   |   |   |   |   |   |   |   |   |   |   |   |   |   SO2 >= 12.26
|   |   |   |   |   |   |   |   |   |   |   |   |   |   |   |   NO < 27.59 : 125.4 (53/144.54) [28/118.99]
|   |   |   |   |   |   |   |   |   |   |   |   |   |   |   |   NO >= 27.59 : 146.6 (4/367.19) [1/3.06]
|   |   |   |   |   |   |   |   |   |   |   |   |   PM10 >= 152.32 : 133.67 (43/229.01) [29/376.69]
|   |   |   |   |   |   |   |   |   |   |   |   PM2.5 >= 62.77
|   |   |   |   |   |   |   |   |   |   |   |   |   NH3 < 6.65 : 122 (16/110.44) [7/42.13]
|   |   |   |   |   |   |   |   |   |   |   |   |   NH3 >= 6.65 : 136.22 (117/393.82) [49/347.27]
|   |   |   |   |   |   |   |   |   |   |   NOx >= 42.43 : 138.86 (136/516.02) [81/451.95]
|   |   |   |   |   |   |   |   |   |   CO >= 3.85 : 195 (3/216.67) [0/0]
|   |   |   |   |   |   |   |   |   NOx >= 109.67 : 169.41 (12/742.97) [5/219.63]
|   |   |   |   |   |   |   |   O3 >= 52.3
|   |   |   |   |   |   |   |   |   NOx < 149.13
|   |   |   |   |   |   |   |   |   |   O3 < 101.63
|   |   |   |   |   |   |   |   |   |   |   NO < 7.96
|   |   |   |   |   |   |   |   |   |   |   |   PM2.5 < 63.83 : 134 (32/248.31) [17/250.49]
|   |   |   |   |   |   |   |   |   |   |   |   PM2.5 >= 63.83
|   |   |   |   |   |   |   |   |   |   |   |   |   Benzene < 1.27 : 168.25 (2/42.25) [2/393.25]
|   |   |   |   |   |   |   |   |   |   |   |   |   Benzene >= 1.27 : 146.29 (8/94.11) [6/819.97]
|   |   |   |   |   |   |   |   |   |   |   NO >= 7.96 : 156.91 (95/784.06) [54/870.6]
|   |   |   |   |   |   |   |   |   |   O3 >= 101.63
|   |   |   |   |   |   |   |   |   |   |   SO2 < 14.92 : 173.75 (2/20.25) [2/871.25]
|   |   |   |   |   |   |   |   |   |   |   SO2 >= 14.92 : 214 (2/16) [0/0]
|   |   |   |   |   |   |   |   |   NOx >= 149.13 : 223.8 (3/242.67) [2/2376.5]
|   |   |   |   |   |   |   PM10 >= 166.28
|   |   |   |   |   |   |   |   O3 < 56.83 : 156.25 (179/806.18) [83/626.87]
|   |   |   |   |   |   |   |   O3 >= 56.83
|   |   |   |   |   |   |   |   |   NH3 < 26.97 : 168.85 (46/1104.89) [22/1019.57]
|   |   |   |   |   |   |   |   |   NH3 >= 26.97 : 227.62 (13/2207.14) [8/2335.4]
|   |   |   |   |   CO >= 4.73 : 224.44 (83/3405.49) [41/2726.98]
|   |   |   |   PM2.5 >= 67.82
|   |   |   |   |   CO < 5.86
|   |   |   |   |   |   PM2.5 < 75.81
|   |   |   |   |   |   |   PM10 < 187.57
|   |   |   |   |   |   |   |   NOx < 109.41
|   |   |   |   |   |   |   |   |   NH3 < 22.41
|   |   |   |   |   |   |   |   |   |   PM10 < 105.95 : 136.57 (45/502.96) [23/1193.78]
|   |   |   |   |   |   |   |   |   |   PM10 >= 105.95
|   |   |   |   |   |   |   |   |   |   |   CO < 3.69
|   |   |   |   |   |   |   |   |   |   |   |   Xylene < 6.75
|   |   |   |   |   |   |   |   |   |   |   |   |   O3 < 17.84
|   |   |   |   |   |   |   |   |   |   |   |   |   |   Benzene < 0.65
|   |   |   |   |   |   |   |   |   |   |   |   |   |   |   PM2.5 < 69.1 : 172.75 (3/91.56) [1/152.11]
|   |   |   |   |   |   |   |   |   |   |   |   |   |   |   PM2.5 >= 69.1 : 123.8 (3/141.56) [2/1574.44]
|   |   |   |   |   |   |   |   |   |   |   |   |   |   Benzene >= 0.65 : 126.58 (14/108.86) [12/287.58]
|   |   |   |   |   |   |   |   |   |   |   |   |   O3 >= 17.84
|   |   |   |   |   |   |   |   |   |   |   |   |   |   O3 < 23.29 : 157.91 (14/1325.06) [9/1458.73]
|   |   |   |   |   |   |   |   |   |   |   |   |   |   O3 >= 23.29
|   |   |   |   |   |   |   |   |   |   |   |   |   |   |   Toluene < 2.29 : 141.81 (30/353.03) [18/662.9]
|   |   |   |   |   |   |   |   |   |   |   |   |   |   |   Toluene >= 2.29
|   |   |   |   |   |   |   |   |   |   |   |   |   |   |   |   Toluene < 2.33 : 181.67 (2/7396) [1/1369]
|   |   |   |   |   |   |   |   |   |   |   |   |   |   |   |   Toluene >= 2.33
|   |   |   |   |   |   |   |   |   |   |   |   |   |   |   |   |   Benzene < 6.01
|   |   |   |   |   |   |   |   |   |   |   |   |   |   |   |   |   |   CO < 0.42 : 164.5 (16/754.11) [6/542.27]
|   |   |   |   |   |   |   |   |   |   |   |   |   |   |   |   |   |   CO >= 0.42
|   |   |   |   |   |   |   |   |   |   |   |   |   |   |   |   |   |   |   O3 < 93.64
|   |   |   |   |   |   |   |   |   |   |   |   |   |   |   |   |   |   |   |   PM10 < 157.66 : 144.46 (106/252.27) [69/476.29]
|   |   |   |   |   |   |   |   |   |   |   |   |   |   |   |   |   |   |   |   PM10 >= 157.66
|   |   |   |   |   |   |   |   |   |   |   |   |   |   |   |   |   |   |   |   |   NO2 < 11.14 : 145.8 (6/107.89) [4/43.28]
|   |   |   |   |   |   |   |   |   |   |   |   |   |   |   |   |   |   |   |   |   NO2 >= 11.14
|   |   |   |   |   |   |   |   |   |   |   |   |   |   |   |   |   |   |   |   |   |   NO < 9.69
|   |   |   |   |   |   |   |   |   |   |   |   |   |   |   |   |   |   |   |   |   |   |   SO2 < 12.8 : 163.8 (4/18.25) [1/702.25]
|   |   |   |   |   |   |   |   |   |   |   |   |   |   |   |   |   |   |   |   |   |   |   SO2 >= 12.8 : 153 (3/3.56) [1/513.78]
|   |   |   |   |   |   |   |   |   |   |   |   |   |   |   |   |   |   |   |   |   |   NO >= 9.69 : 169.39 (10/67.24) [8/428.88]
|   |   |   |   |   |   |   |   |   |   |   |   |   |   |   |   |   |   |   O3 >= 93.64 : 170.27 (5/49.04) [6/824.53]
|   |   |   |   |   |   |   |   |   |   |   |   |   |   |   |   |   Benzene >= 6.01 : 159.45 (22/502.42) [11/915.75]
|   |   |   |   |   |   |   |   |   |   |   |   Xylene >= 6.75
|   |   |   |   |   |   |   |   |   |   |   |   |   Toluene < 31.79
|   |   |   |   |   |   |   |   |   |   |   |   |   |   SO2 < 3.21 : 149 (3/16.67) [0/0]
|   |   |   |   |   |   |   |   |   |   |   |   |   |   SO2 >= 3.21 : 127.8 (21/96.09) [9/173.64]
|   |   |   |   |   |   |   |   |   |   |   |   |   Toluene >= 31.79 : 146.4 (3/8.22) [2/201.11]
|   |   |   |   |   |   |   |   |   |   |   CO >= 3.69 : 201.4 (4/834.75) [1/2970.25]
|   |   |   |   |   |   |   |   |   NH3 >= 22.41
|   |   |   |   |   |   |   |   |   |   O3 < 52.3
|   |   |   |   |   |   |   |   |   |   |   CO < 2.4
|   |   |   |   |   |   |   |   |   |   |   |   PM10 < 153.04 : 147.07 (186/1047.25) [103/1365.06]
|   |   |   |   |   |   |   |   |   |   |   |   PM10 >= 153.04 : 164.57 (43/783.46) [10/323.24]
|   |   |   |   |   |   |   |   |   |   |   CO >= 2.4
|   |   |   |   |   |   |   |   |   |   |   |   NO < 20.5
|   |   |   |   |   |   |   |   |   |   |   |   |   PM2.5 < 68.63 : 195 (4/756.5) [0/0]
|   |   |   |   |   |   |   |   |   |   |   |   |   PM2.5 >= 68.63
|   |   |   |   |   |   |   |   |   |   |   |   |   |   NO < 10.64 : 160 (6/163.58) [3/494.92]
|   |   |   |   |   |   |   |   |   |   |   |   |   |   NO >= 10.64 : 119.25 (2/1) [2/62.5]
|   |   |   |   |   |   |   |   |   |   |   |   NO >= 20.5 : 241.67 (3/254.89) [0/0]
|   |   |   |   |   |   |   |   |   |   O3 >= 52.3 : 170.6 (78/790.1) [44/1149.65]
|   |   |   |   |   |   |   |   NOx >= 109.41 : 196.5 (15/976.62) [5/931.78]
|   |   |   |   |   |   |   PM10 >= 187.57
|   |   |   |   |   |   |   |   NH3 < 33.55 : 180.27 (38/797.39) [17/1111.18]
|   |   |   |   |   |   |   |   NH3 >= 33.55 : 208.5 (15/1216.11) [5/663.52]
|   |   |   |   |   |   PM2.5 >= 75.81 : 174.59 (547/1586.24) [297/1124.09]
|   |   |   |   |   CO >= 5.86 : 272.89 (33/7427.33) [24/9545.63]
|   |   |   PM10 >= 233.17
|   |   |   |   PM10 < 368.6
|   |   |   |   |   Toluene < 3.73
|   |   |   |   |   |   Toluene < 1.47 : 128.33 (6/175.56) [6/4067.89]
|   |   |   |   |   |   Toluene >= 1.47
|   |   |   |   |   |   |   NOx < 36.83 : 176.8 (15/557.09) [0/0]
|   |   |   |   |   |   |   NOx >= 36.83 : 261.89 (4/681.5) [5/5717.2]
|   |   |   |   |   Toluene >= 3.73
|   |   |   |   |   |   PM10 < 290.4
|   |   |   |   |   |   |   O3 < 48.32
|   |   |   |   |   |   |   |   NO2 < 7.52
|   |   |   |   |   |   |   |   |   SO2 < 26.09 : 230.83 (5/240.16) [7/1895.9]
|   |   |   |   |   |   |   |   |   SO2 >= 26.09 : 288.5 (2/12.25) [0/0]
|   |   |   |   |   |   |   |   NO2 >= 7.52 : 203.49 (46/1165.03) [15/1298.34]
|   |   |   |   |   |   |   O3 >= 48.32
|   |   |   |   |   |   |   |   PM2.5 < 60.66 : 272 (4/601.25) [1/8556.25]
|   |   |   |   |   |   |   |   PM2.5 >= 60.66
|   |   |   |   |   |   |   |   |   NO2 < 35.96 : 209 (7/527.92) [6/822.94]
|   |   |   |   |   |   |   |   |   NO2 >= 35.96 : 256.46 (17/692.09) [11/2841.81]
|   |   |   |   |   |   PM10 >= 290.4
|   |   |   |   |   |   |   PM10 < 319.8 : 247.86 (16/1601.68) [12/705.14]
|   |   |   |   |   |   |   PM10 >= 319.8 : 294.26 (22/1804.5) [12/5016.49]
|   |   |   |   PM10 >= 368.6
|   |   |   |   |   PM10 < 441.38 : 347.5 (16/3107.37) [4/2085.29]
|   |   |   |   |   PM10 >= 441.38 : 476.43 (14/3819.27) [7/7432.18]
|   CO >= 10.29
|   |   NO < 19.39
|   |   |   SO2 < 28.99
|   |   |   |   NOx < 19.4
|   |   |   |   |   Benzene < 3.22 : 215.38 (22/1874.02) [10/7746.33]
|   |   |   |   |   Benzene >= 3.22 : 160.59 (25/2944.39) [12/3343.12]
|   |   |   |   NOx >= 19.4 : 305.67 (51/3784.84) [16/3998.3]
|   |   |   SO2 >= 28.99
|   |   |   |   NO < 10.62 : 487.29 (5/28935.04) [2/5593.76]
|   |   |   |   NO >= 10.62
|   |   |   |   |   NO < 17.16
|   |   |   |   |   |   PM2.5 < 75.37 : 343.08 (71/3541.95) [27/6952.84]
|   |   |   |   |   |   PM2.5 >= 75.37 : 469.42 (10/24683.25) [2/51591.25]
|   |   |   |   |   NO >= 17.16
|   |   |   |   |   |   Xylene < 12.86 : 428.52 (21/4486.56) [10/15301.32]
|   |   |   |   |   |   Xylene >= 12.86 : 595.6 (3/28144.67) [2/56418.5]
|   |   NO >= 19.39
|   |   |   CO < 41.97
|   |   |   |   NOx < 26 : 239.57 (7/14821.67) [0/0]
|   |   |   |   NOx >= 26
|   |   |   |   |   NO < 31.55 : 477.3 (121/10434.98) [66/6747.7]
|   |   |   |   |   NO >= 31.55
|   |   |   |   |   |   Xylene < 1.9
|   |   |   |   |   |   |   Toluene < 31.55
|   |   |   |   |   |   |   |   NO2 < 79.19 : 559.88 (13/2032.75) [3/2346.33]
|   |   |   |   |   |   |   |   NO2 >= 79.19 : 669 (3/764.67) [0/0]
|   |   |   |   |   |   |   Toluene >= 31.55
|   |   |   |   |   |   |   |   NO < 35.92
|   |   |   |   |   |   |   |   |   NO < 33.08 : 466.8 (4/202.5) [1/196]
|   |   |   |   |   |   |   |   |   NO >= 33.08 : 501.29 (11/307.32) [3/2133.16]
|   |   |   |   |   |   |   |   NO >= 35.92 : 551.46 (15/1655.13) [9/8677.25]
|   |   |   |   |   |   Xylene >= 1.9 : 643.64 (13/13916.38) [15/34994.63]
|   |   |   CO >= 41.97 : 774.43 (35/81401.57) [19/34484.75]
PM2.5 >= 83.65
|   CO < 33.89
|   |   PM2.5 < 144.96
|   |   |   CO < 11.86
|   |   |   |   PM2.5 < 109.52
|   |   |   |   |   PM10 < 277.58
|   |   |   |   |   |   CO < 6.72
|   |   |   |   |   |   |   PM2.5 < 95.59
|   |   |   |   |   |   |   |   PM10 < 244.46
|   |   |   |   |   |   |   |   |   PM2.5 < 85.75
|   |   |   |   |   |   |   |   |   |   PM10 < 96.69
|   |   |   |   |   |   |   |   |   |   |   SO2 < 4.71 : 116 (3/34.67) [0/0]
|   |   |   |   |   |   |   |   |   |   |   SO2 >= 4.71 : 156.33 (2/81) [1/2401]
|   |   |   |   |   |   |   |   |   |   PM10 >= 96.69
|   |   |   |   |   |   |   |   |   |   |   NH3 < 21.15 : 174.3 (45/668.07) [29/936.03]
|   |   |   |   |   |   |   |   |   |   |   NH3 >= 21.15
|   |   |   |   |   |   |   |   |   |   |   |   NO < 3.9 : 299.75 (3/869.56) [1/23613.44]
|   |   |   |   |   |   |   |   |   |   |   |   NO >= 3.9 : 190.25 (76/1041.22) [41/1150.05]
|   |   |   |   |   |   |   |   |   PM2.5 >= 85.75
|   |   |   |   |   |   |   |   |   |   PM10 < 117.06
|   |   |   |   |   |   |   |   |   |   |   CO < 1.37
|   |   |   |   |   |   |   |   |   |   |   |   NO < 9.59 : 179.67 (4/136.25) [2/1810.25]
|   |   |   |   |   |   |   |   |   |   |   |   NO >= 9.59 : 132.89 (4/208.69) [5/5296.86]
|   |   |   |   |   |   |   |   |   |   |   CO >= 1.37 : 203.83 (4/308.69) [2/1345.06]
|   |   |   |   |   |   |   |   |   |   PM10 >= 117.06
|   |   |   |   |   |   |   |   |   |   |   CO < 0.89
|   |   |   |   |   |   |   |   |   |   |   |   NO < 2.27 : 157.5 (4/929.19) [2/3371.06]
|   |   |   |   |   |   |   |   |   |   |   |   NO >= 2.27 : 197.2 (133/1084.19) [58/2212.36]
|   |   |   |   |   |   |   |   |   |   |   CO >= 0.89
|   |   |   |   |   |   |   |   |   |   |   |   O3 < 5.19 : 169.25 (2/420.25) [2/6600.25]
|   |   |   |   |   |   |   |   |   |   |   |   O3 >= 5.19
|   |   |   |   |   |   |   |   |   |   |   |   |   O3 < 70.11
|   |   |   |   |   |   |   |   |   |   |   |   |   |   PM2.5 < 88.62 : 190.5 (72/1006.16) [36/1088.98]
|   |   |   |   |   |   |   |   |   |   |   |   |   |   PM2.5 >= 88.62 : 211.75 (200/1541.33) [96/5813.6]
|   |   |   |   |   |   |   |   |   |   |   |   |   O3 >= 70.11 : 219.11 (37/784.18) [20/1686.96]
|   |   |   |   |   |   |   |   PM10 >= 244.46 : 235.78 (26/1617.97) [14/2052.3]
|   |   |   |   |   |   |   PM2.5 >= 95.59
|   |   |   |   |   |   |   |   PM10 < 96.97
|   |   |   |   |   |   |   |   |   Benzene < 2.61 : 155.67 (6/921.81) [3/2072.47]
|   |   |   |   |   |   |   |   |   Benzene >= 2.61 : 90.75 (2/841) [2/380.5]
|   |   |   |   |   |   |   |   PM10 >= 96.97
|   |   |   |   |   |   |   |   |   PM2.5 < 102.66 : 225.93 (294/1545.11) [128/1915.26]
|   |   |   |   |   |   |   |   |   PM2.5 >= 102.66 : 246.14 (220/1552.17) [115/1375.53]
|   |   |   |   |   |   CO >= 6.72
|   |   |   |   |   |   |   SO2 < 10.31
|   |   |   |   |   |   |   |   NOx < 13.87 : 165 (2/676) [0/0]
|   |   |   |   |   |   |   |   NOx >= 13.87 : 246.91 (5/538.96) [6/3465.64]
|   |   |   |   |   |   |   SO2 >= 10.31 : 342.9 (26/7693.54) [14/5095.86]
|   |   |   |   |   PM10 >= 277.58
|   |   |   |   |   |   PM10 < 366.84
|   |   |   |   |   |   |   O3 < 67.77
|   |   |   |   |   |   |   |   Benzene < 2.54 : 247.74 (21/1971) [6/1361.67]
|   |   |   |   |   |   |   |   Benzene >= 2.54
|   |   |   |   |   |   |   |   |   Benzene < 2.88 : 337.25 (2/9) [2/2258.5]
|   |   |   |   |   |   |   |   |   Benzene >= 2.88
|   |   |   |   |   |   |   |   |   |   PM10 < 308.95 : 262.79 (15/519.4) [4/805.92]
|   |   |   |   |   |   |   |   |   |   PM10 >= 308.95 : 295.06 (13/1012.37) [3/3319.3]
|   |   |   |   |   |   |   O3 >= 67.77
|   |   |   |   |   |   |   |   CO < 5.76 : 312.6 (11/2118.63) [4/1859.21]
|   |   |   |   |   |   |   |   CO >= 5.76 : 369.86 (5/158.96) [2/224.74]
|   |   |   |   |   |   PM10 >= 366.84 : 378.39 (16/2261.36) [12/6411.16]
|   |   |   |   PM2.5 >= 109.52
|   |   |   |   |   PM10 < 313.12
|   |   |   |   |   |   PM2.5 < 127.77
|   |   |   |   |   |   |   PM10 < 117.13
|   |   |   |   |   |   |   |   NO < 3.29 : 277.33 (2/400) [1/8836]
|   |   |   |   |   |   |   |   NO >= 3.29
|   |   |   |   |   |   |   |   |   CO < 0.89 : 156 (2/324) [3/3804.67]
|   |   |   |   |   |   |   |   |   CO >= 0.89
|   |   |   |   |   |   |   |   |   |   NO < 9.77 : 176.5 (2/6.25) [0/0]
|   |   |   |   |   |   |   |   |   |   NO >= 9.77 : 217.75 (2/20.25) [2/3721.25]
|   |   |   |   |   |   |   PM10 >= 117.13
|   |   |   |   |   |   |   |   CO < 5.17
|   |   |   |   |   |   |   |   |   SO2 < 20.04
|   |   |   |   |   |   |   |   |   |   O3 < 5.39
|   |   |   |   |   |   |   |   |   |   |   NO < 30.41 : 258.67 (2/121) [1/1444]
|   |   |   |   |   |   |   |   |   |   |   NO >= 30.41 : 155 (2/1) [0/0]
|   |   |   |   |   |   |   |   |   |   O3 >= 5.39
|   |   |   |   |   |   |   |   |   |   |   PM2.5 < 114.05
|   |   |   |   |   |   |   |   |   |   |   |   PM10 < 134.99 : 243.37 (50/2244.28) [29/1185.55]
|   |   |   |   |   |   |   |   |   |   |   |   PM10 >= 134.99 : 266.69 (72/738.89) [30/1302.69]
|   |   |   |   |   |   |   |   |   |   |   PM2.5 >= 114.05
|   |   |   |   |   |   |   |   |   |   |   |   O3 < 56.81
|   |   |   |   |   |   |   |   |   |   |   |   |   SO2 < 5.18
|   |   |   |   |   |   |   |   |   |   |   |   |   |   Toluene < 0.59 : 255.27 (9/649.8) [2/6596.86]
|   |   |   |   |   |   |   |   |   |   |   |   |   |   Toluene >= 0.59 : 303 (17/578.56) [9/1629.57]
|   |   |   |   |   |   |   |   |   |   |   |   |   SO2 >= 5.18 : 266.77 (201/1139) [93/1839.81]
|   |   |   |   |   |   |   |   |   |   |   |   O3 >= 56.81 : 280.1 (41/794.09) [18/1859.32]
|   |   |   |   |   |   |   |   |   SO2 >= 20.04 : 283.08 (71/1330.33) [53/2185.1]
|   |   |   |   |   |   |   |   CO >= 5.17 : 314.94 (9/1916.77) [9/7504.06]
|   |   |   |   |   |   PM2.5 >= 127.77 : 296.13 (345/1552.36) [143/1370.06]
|   |   |   |   |   PM10 >= 313.12
|   |   |   |   |   |   PM10 < 507.38 : 346.55 (50/3882.59) [41/2379.84]
|   |   |   |   |   |   PM10 >= 507.38 : 515.75 (3/398) [1/11025]
|   |   |   CO >= 11.86
|   |   |   |   NOx < 55.6 : 474.31 (61/18314.05) [24/24694.81]
|   |   |   |   NOx >= 55.6 : 667.51 (28/47372.74) [17/60439.02]
|   |   PM2.5 >= 144.96
|   |   |   PM2.5 < 261.2
|   |   |   |   PM2.5 < 194.75
|   |   |   |   |   CO < 14.57
|   |   |   |   |   |   PM10 < 400.21
|   |   |   |   |   |   |   PM10 < 115.9 : 200.92 (10/11671.84) [2/9719.86]
|   |   |   |   |   |   |   PM10 >= 115.9
|   |   |   |   |   |   |   |   PM2.5 < 170.06
|   |   |   |   |   |   |   |   |   PM10 < 316.25 : 321.97 (347/1135.26) [186/1538.6]
|   |   |   |   |   |   |   |   |   PM10 >= 316.25 : 350.71 (36/1760.41) [23/1600.5]
|   |   |   |   |   |   |   |   PM2.5 >= 170.06 : 345.94 (296/1420.81) [127/1127.6]
|   |   |   |   |   |   PM10 >= 400.21 : 404 (14/9470.84) [12/11768.4]
|   |   |   |   |   CO >= 14.57
|   |   |   |   |   |   PM2.5 < 168.53 : 558 (5/1684) [4/32031]
|   |   |   |   |   |   PM2.5 >= 168.53 : 396 (4/2385.69) [6/2936.98]
|   |   |   |   PM2.5 >= 194.75 : 381.14 (482/1835.64) [232/2301.17]
|   |   |   PM2.5 >= 261.2
|   |   |   |   PM2.5 < 410.75
|   |   |   |   |   CO < 1.04
|   |   |   |   |   |   O3 < 17.15
|   |   |   |   |   |   |   PM10 < 119.22 : 318.67 (8/2277.48) [1/4306.64]
|   |   |   |   |   |   |   PM10 >= 119.22 : 112.5 (2/20.25) [0/0]
|   |   |   |   |   |   O3 >= 17.15
|   |   |   |   |   |   |   NO2 < 23.88
|   |   |   |   |   |   |   |   Toluene < 3.57 : 376.13 (4/449.19) [4/3349.31]
|   |   |   |   |   |   |   |   Toluene >= 3.57 : 463 (2/552.25) [2/3793.25]
|   |   |   |   |   |   |   NO2 >= 23.88
|   |   |   |   |   |   |   |   PM2.5 < 350.73
|   |   |   |   |   |   |   |   |   NH3 < 28.03
|   |   |   |   |   |   |   |   |   |   NOx < 42.78 : 379.5 (2/196) [2/3769]
|   |   |   |   |   |   |   |   |   |   NOx >= 42.78 : 432 (2/1) [0/0]
|   |   |   |   |   |   |   |   |   NH3 >= 28.03 : 448.86 (6/1227.81) [1/1750.03]
|   |   |   |   |   |   |   |   PM2.5 >= 350.73 : 496 (3/1046) [0/0]
|   |   |   |   |   CO >= 1.04
|   |   |   |   |   |   PM2.5 < 305.45
|   |   |   |   |   |   |   CO < 11.07
|   |   |   |   |   |   |   |   PM10 < 437.61
|   |   |   |   |   |   |   |   |   O3 < 35.34 : 415.07 (63/703.37) [34/3715.31]
|   |   |   |   |   |   |   |   |   O3 >= 35.34 : 431.65 (45/898.46) [24/921.36]
|   |   |   |   |   |   |   |   PM10 >= 437.61 : 469.45 (22/1048.27) [11/15718.37]
|   |   |   |   |   |   |   CO >= 11.07 : 509.5 (3/17180.22) [1/10955.11]
|   |   |   |   |   |   PM2.5 >= 305.45 : 475.31 (100/2500.82) [52/2187.02]
|   |   |   |   PM2.5 >= 410.75
|   |   |   |   |   PM2.5 < 561.44 : 539.71 (45/4596.97) [20/7632.41]
|   |   |   |   |   PM2.5 >= 561.44
|   |   |   |   |   |   CO < 0.93 : 431.4 (4/535.69) [1/161403.06]
|   |   |   |   |   |   CO >= 0.93 : 679.8 (9/10113.56) [1/21.78]
|   CO >= 33.89
|   |   NO < 51.55
|   |   |   PM2.5 < 184.17
|   |   |   |   NO2 < 36.67 : 1150 (2/7225) [0/0]
|   |   |   |   NO2 >= 36.67
|   |   |   |   |   NOx < 114.81
|   |   |   |   |   |   NO2 < 121.16 : 825.5 (32/24051.37) [12/67470.76]
|   |   |   |   |   |   NO2 >= 121.16
|   |   |   |   |   |   |   Xylene < 11.05 : 912.67 (2/3136) [1/198916]
|   |   |   |   |   |   |   Xylene >= 11.05 : 563 (4/10869) [0/0]
|   |   |   |   |   NOx >= 114.81 : 983.64 (7/28473.96) [4/36131.86]
|   |   |   PM2.5 >= 184.17 : 406.5 (2/2756.25) [0/0]
|   |   NO >= 51.55
|   |   |   NO < 103.41 : 1176.64 (48/88033.06) [22/53057.47]
|   |   |   NO >= 103.41 : 1578.31 (9/26386.67) [4/166689]

Size of the tree : 975

Time taken to build model: 0.18 seconds

=== Cross-validation ===
=== Summary ===

Correlation coefficient                  0.9391
Mean absolute error                     24.1206
Root mean squared error                 48.388 
Relative absolute error                 25.0693 %
Root relative squared error             34.3892 %
Total Number of Instances            24850     
Ignored Class Unknown Instances               4681     

