=== Run information ===

Scheme:       weka.classifiers.trees.REPTree -M 2 -V 0.001 -N 3 -S 1 -L -1 -I 0.0
Relation:     Air Quality Data in India (2015 - 2020) - v4.3
Instances:    21092
Attributes:   13
              PM2.5
              PM10
              NO
              NO2
              NOx
              NH3
              CO
              SO2
              O3
              Benzene
              Toluene
              Xylene
              AQI
Test mode:    10-fold cross-validation

=== Classifier model (full training set) ===


REPTree
============

PM2.5 = '(57.925-77.22]'
|   PM10 = '(117.26-140.71]'
|   |   CO = '(0.522-1.044]' : 139.01 (287/931.61) [138/2685.94]
|   |   CO = '(1.566-2.088]' : 155.12 (46/1500.64) [19/1915.76]
|   |   CO = '(2.088-2.61]'
|   |   |   NO = '(-inf-5.179]' : 179.54 (10/712.44) [3/468.29]
|   |   |   NO = '(15.497-20.656]' : 111.05 (32/3643.1) [24/5913.68]
|   |   |   NO = '(5.179-10.338]' : 144.55 (14/729.35) [6/1052.87]
|   |   |   NO = '(10.338-15.497]' : 116.33 (4/9) [2/101]
|   |   |   NO = '(20.656-25.815]' : 130.17 (0/0) [0/0]
|   |   |   NO = '(25.815-30.974]' : 154.25 (3/102.89) [1/266.78]
|   |   |   NO = '(41.292-46.451]' : 258 (1/0) [0/0]
|   |   |   NO = '(46.451-inf)' : 130.17 (0/0) [0/0]
|   |   |   NO = '(36.133-41.292]' : 130.17 (0/0) [0/0]
|   |   |   NO = '(30.974-36.133]' : 130.17 (0/0) [0/0]
|   |   CO = '(1.044-1.566]' : 149.32 (202/1669.53) [93/1206.31]
|   |   CO = '(3.132-3.654]' : 146.43 (6/1116.33) [8/1104.75]
|   |   CO = '(3.654-4.176]'
|   |   |   NO = '(-inf-5.179]' : 161 (3/68.67) [0/0]
|   |   |   NO = '(15.497-20.656]' : 181.43 (0/0) [0/0]
|   |   |   NO = '(5.179-10.338]' : 241.5 (1/0) [1/49]
|   |   |   NO = '(10.338-15.497]' : 152 (2/784) [0/0]
|   |   |   NO = '(20.656-25.815]' : 181.43 (0/0) [0/0]
|   |   |   NO = '(25.815-30.974]' : 181.43 (0/0) [0/0]
|   |   |   NO = '(41.292-46.451]' : 181.43 (0/0) [0/0]
|   |   |   NO = '(46.451-inf)' : 181.43 (0/0) [0/0]
|   |   |   NO = '(36.133-41.292]' : 181.43 (0/0) [0/0]
|   |   |   NO = '(30.974-36.133]' : 181.43 (0/0) [0/0]
|   |   CO = '(4.176-4.698]' : 47 (1/0) [0/0]
|   |   CO = '(-inf-0.522]' : 136.49 (154/1891.7) [79/1410.97]
|   |   CO = '(4.698-inf)' : 190.2 (4/2199.19) [1/6440.06]
|   |   CO = '(2.61-3.132]' : 161.37 (6/1866.47) [13/1006.59]
|   PM10 = '(93.81-117.26]'
|   |   CO = '(0.522-1.044]'
|   |   |   NO = '(-inf-5.179]' : 122.47 (53/824.46) [35/436.11]
|   |   |   NO = '(15.497-20.656]'
|   |   |   |   NH3 = '(23.114-28.89]' : 99.33 (3/3.56) [0/0]
|   |   |   |   NH3 = '(28.89-34.666]' : 110.5 (0/0) [0/0]
|   |   |   |   NH3 = '(17.338-23.114]' : 113 (1/0) [0/0]
|   |   |   |   NH3 = '(11.562-17.338]' : 125.25 (2/12.25) [2/686.25]
|   |   |   |   NH3 = '(5.786-11.562]' : 108 (2/4) [1/144]
|   |   |   |   NH3 = '(-inf-5.786]' : 90 (1/0) [0/0]
|   |   |   |   NH3 = '(34.666-40.442]' : 110.5 (0/0) [0/0]
|   |   |   |   NH3 = '(40.442-46.218]' : 110.5 (0/0) [0/0]
|   |   |   |   NH3 = '(46.218-51.994]' : 110.5 (0/0) [0/0]
|   |   |   |   NH3 = '(51.994-inf)' : 110.5 (0/0) [0/0]
|   |   |   NO = '(5.179-10.338]'
|   |   |   |   Xylene = '(3.768-4.396]' : 129.32 (0/0) [0/0]
|   |   |   |   Xylene = '(0.628-1.256]' : 155.5 (5/1041.04) [3/1245.23]
|   |   |   |   Xylene = '(-inf-0.628]'
|   |   |   |   |   O3 = '(32.554-43.402]' : 152.33 (2/400) [1/25]
|   |   |   |   |   O3 = '(-inf-10.858]' : 107 (1/0) [0/0]
|   |   |   |   |   O3 = '(43.402-54.25]'
|   |   |   |   |   |   SO2 = '(23.872-27.844]' : 122.5 (0/0) [0/0]
|   |   |   |   |   |   SO2 = '(15.928-19.9]' : 122.5 (0/0) [0/0]
|   |   |   |   |   |   SO2 = '(7.984-11.956]' : 115.5 (2/6.25) [0/0]
|   |   |   |   |   |   SO2 = '(27.844-31.816]' : 122.5 (0/0) [0/0]
|   |   |   |   |   |   SO2 = '(35.788-inf)' : 122.5 (0/0) [0/0]
|   |   |   |   |   |   SO2 = '(31.816-35.788]' : 122.5 (0/0) [0/0]
|   |   |   |   |   |   SO2 = '(11.956-15.928]' : 122.5 (0/0) [0/0]
|   |   |   |   |   |   SO2 = '(19.9-23.872]' : 122.5 (0/0) [0/0]
|   |   |   |   |   |   SO2 = '(-inf-4.012]' : 121 (0/0) [1/3.06]
|   |   |   |   |   |   SO2 = '(4.012-7.984]' : 127.67 (2/1) [1/196]
|   |   |   |   |   O3 = '(54.25-65.098]' : 123.5 (2/2.25) [0/0]
|   |   |   |   |   O3 = '(65.098-75.946]' : 127.9 (0/0) [0/0]
|   |   |   |   |   O3 = '(21.706-32.554]' : 114.5 (2/72.25) [2/616.25]
|   |   |   |   |   O3 = '(10.858-21.706]' : 122.33 (2/42.25) [1/72.25]
|   |   |   |   |   O3 = '(86.794-97.642]' : 157.5 (1/0) [1/121]
|   |   |   |   |   O3 = '(75.946-86.794]' : 127.9 (0/0) [0/0]
|   |   |   |   |   O3 = '(97.642-inf)' : 127.9 (0/0) [0/0]
|   |   |   |   Xylene = '(1.256-1.884]' : 123.22 (5/183.76) [4/655.54]
|   |   |   |   Xylene = '(1.884-2.512]'
|   |   |   |   |   O3 = '(32.554-43.402]' : 160.5 (1/0) [1/225]
|   |   |   |   |   O3 = '(-inf-10.858]' : 126.25 (0/0) [0/0]
|   |   |   |   |   O3 = '(43.402-54.25]' : 126.25 (0/0) [0/0]
|   |   |   |   |   O3 = '(54.25-65.098]' : 144 (2/256) [0/0]
|   |   |   |   |   O3 = '(65.098-75.946]' : 126.25 (0/0) [0/0]
|   |   |   |   |   O3 = '(21.706-32.554]' : 96.67 (2/121) [1/100]
|   |   |   |   |   O3 = '(10.858-21.706]' : 111 (1/0) [0/0]
|   |   |   |   |   O3 = '(86.794-97.642]' : 126.25 (0/0) [0/0]
|   |   |   |   |   O3 = '(75.946-86.794]' : 126.25 (0/0) [0/0]
|   |   |   |   |   O3 = '(97.642-inf)' : 126.25 (0/0) [0/0]
|   |   |   |   Xylene = '(3.14-3.768]' : 87 (1/0) [0/0]
|   |   |   |   Xylene = '(2.512-3.14]' : 127.92 (29/492.07) [8/542.84]
|   |   |   |   Xylene = '(5.652-inf)' : 123 (1/0) [0/0]
|   |   |   |   Xylene = '(4.396-5.024]' : 129.32 (0/0) [0/0]
|   |   |   |   Xylene = '(5.024-5.652]' : 129.32 (0/0) [0/0]
|   |   |   NO = '(10.338-15.497]'
|   |   |   |   SO2 = '(23.872-27.844]' : 131.95 (0/0) [0/0]
|   |   |   |   SO2 = '(15.928-19.9]' : 142.8 (3/22.89) [2/4369.11]
|   |   |   |   SO2 = '(7.984-11.956]' : 169 (4/910.69) [2/3053.81]
|   |   |   |   SO2 = '(27.844-31.816]' : 129 (3/604.67) [0/0]
|   |   |   |   SO2 = '(35.788-inf)' : 111 (1/0) [0/0]
|   |   |   |   SO2 = '(31.816-35.788]' : 104 (1/0) [0/0]
|   |   |   |   SO2 = '(11.956-15.928]' : 116 (5/298.64) [2/761.06]
|   |   |   |   SO2 = '(19.9-23.872]' : 142 (1/0) [0/0]
|   |   |   |   SO2 = '(-inf-4.012]' : 131.95 (0/0) [0/0]
|   |   |   |   SO2 = '(4.012-7.984]'
|   |   |   |   |   Benzene = '(2.472-3.708]' : 110.5 (2/42.25) [0/0]
|   |   |   |   |   Benzene = '(3.708-4.944]' : 123.57 (0/0) [0/0]
|   |   |   |   |   Benzene = '(-inf-1.236]' : 125.2 (7/104.78) [3/246.84]
|   |   |   |   |   Benzene = '(4.944-6.18]' : 123.57 (0/0) [0/0]
|   |   |   |   |   Benzene = '(1.236-2.472]' : 108 (1/0) [0/0]
|   |   |   |   |   Benzene = '(6.18-7.416]' : 123.57 (0/0) [0/0]
|   |   |   |   |   Benzene = '(7.416-8.652]' : 149 (1/0) [0/0]
|   |   |   |   |   Benzene = '(11.124-inf)' : 123.57 (0/0) [0/0]
|   |   |   |   |   Benzene = '(8.652-9.888]' : 123.57 (0/0) [0/0]
|   |   |   |   |   Benzene = '(9.888-11.124]' : 123.57 (0/0) [0/0]
|   |   |   NO = '(20.656-25.815]'
|   |   |   |   SO2 = '(23.872-27.844]' : 117.3 (0/0) [0/0]
|   |   |   |   SO2 = '(15.928-19.9]' : 103.5 (2/6.25) [0/0]
|   |   |   |   SO2 = '(7.984-11.956]' : 108 (2/6.25) [2/61.25]
|   |   |   |   SO2 = '(27.844-31.816]' : 97 (0/0) [1/576]
|   |   |   |   SO2 = '(35.788-inf)' : 117.3 (0/0) [0/0]
|   |   |   |   SO2 = '(31.816-35.788]' : 117.3 (0/0) [0/0]
|   |   |   |   SO2 = '(11.956-15.928]' : 153 (1/0) [1/576]
|   |   |   |   SO2 = '(19.9-23.872]' : 117.3 (0/0) [0/0]
|   |   |   |   SO2 = '(-inf-4.012]' : 117.3 (0/0) [0/0]
|   |   |   |   SO2 = '(4.012-7.984]' : 131 (1/0) [0/0]
|   |   |   NO = '(25.815-30.974]' : 123.5 (0/0) [2/50.56]
|   |   |   NO = '(41.292-46.451]' : 155.67 (3/1550.89) [0/0]
|   |   |   NO = '(46.451-inf)' : 96 (0/0) [1/923.11]
|   |   |   NO = '(36.133-41.292]' : 126.29 (0/0) [0/0]
|   |   |   NO = '(30.974-36.133]' : 171.5 (1/0) [1/3481]
|   |   CO = '(1.566-2.088]' : 128.12 (10/1134) [7/627.71]
|   |   CO = '(2.088-2.61]' : 141.18 (18/1394.8) [4/878.09]
|   |   CO = '(1.044-1.566]'
|   |   |   Xylene = '(3.768-4.396]' : 155 (1/0) [1/100]
|   |   |   Xylene = '(0.628-1.256]' : 146.31 (14/803.78) [2/441.44]
|   |   |   Xylene = '(-inf-0.628]' : 135.67 (4/106.25) [2/13.25]
|   |   |   Xylene = '(1.256-1.884]' : 128.5 (3/228.67) [1/324]
|   |   |   Xylene = '(1.884-2.512]' : 128.71 (3/10.67) [4/235]
|   |   |   Xylene = '(3.14-3.768]' : 137 (2/81) [3/1057]
|   |   |   Xylene = '(2.512-3.14]'
|   |   |   |   NH3 = '(23.114-28.89]' : 114.55 (7/343.71) [4/175.5]
|   |   |   |   NH3 = '(28.89-34.666]' : 122.17 (0/0) [0/0]
|   |   |   |   NH3 = '(17.338-23.114]' : 157 (3/228.22) [2/124.28]
|   |   |   |   NH3 = '(11.562-17.338]'
|   |   |   |   |   O3 = '(32.554-43.402]' : 107.67 (2/16) [1/361]
|   |   |   |   |   O3 = '(-inf-10.858]' : 117.5 (0/0) [0/0]
|   |   |   |   |   O3 = '(43.402-54.25]' : 121 (1/0) [0/0]
|   |   |   |   |   O3 = '(54.25-65.098]' : 131 (2/25) [0/0]
|   |   |   |   |   O3 = '(65.098-75.946]' : 117.5 (0/0) [0/0]
|   |   |   |   |   O3 = '(21.706-32.554]' : 117.5 (0/0) [0/0]
|   |   |   |   |   O3 = '(10.858-21.706]' : 117.5 (0/0) [0/0]
|   |   |   |   |   O3 = '(86.794-97.642]' : 117 (1/0) [1/400]
|   |   |   |   |   O3 = '(75.946-86.794]' : 117.5 (0/0) [0/0]
|   |   |   |   |   O3 = '(97.642-inf)' : 117.5 (0/0) [0/0]
|   |   |   |   NH3 = '(5.786-11.562]'
|   |   |   |   |   NOx = '(9.999-19.998]' : 113.33 (2/16) [1/64]
|   |   |   |   |   NOx = '(-inf-9.999]' : 133.63 (5/122.64) [3/819.69]
|   |   |   |   |   NOx = '(19.998-29.997]' : 121 (1/0) [0/0]
|   |   |   |   |   NOx = '(29.997-39.996]' : 116 (1/0) [0/0]
|   |   |   |   |   NOx = '(39.996-49.995]' : 113 (1/0) [1/256]
|   |   |   |   |   NOx = '(69.993-79.992]' : 122.06 (0/0) [0/0]
|   |   |   |   |   NOx = '(49.995-59.994]' : 105.5 (1/0) [1/25]
|   |   |   |   |   NOx = '(59.994-69.993]' : 114 (1/0) [0/0]
|   |   |   |   |   NOx = '(79.992-89.991]' : 122.06 (0/0) [0/0]
|   |   |   |   |   NOx = '(89.991-inf)' : 122.06 (0/0) [0/0]
|   |   |   |   NH3 = '(-inf-5.786]' : 111.5 (3/216.22) [5/124.98]
|   |   |   |   NH3 = '(34.666-40.442]' : 112 (1/0) [0/0]
|   |   |   |   NH3 = '(40.442-46.218]' : 164 (1/0) [0/0]
|   |   |   |   NH3 = '(46.218-51.994]' : 122.17 (0/0) [0/0]
|   |   |   |   NH3 = '(51.994-inf)' : 123.5 (1/0) [1/2025]
|   |   |   Xylene = '(5.652-inf)' : 190 (1/0) [0/0]
|   |   |   Xylene = '(4.396-5.024]' : 110 (1/0) [0/0]
|   |   |   Xylene = '(5.024-5.652]' : 129.81 (0/0) [0/0]
|   |   CO = '(3.132-3.654]' : 120.5 (0/0) [2/58.53]
|   |   CO = '(3.654-4.176]' : 174.4 (3/2755.56) [2/118.94]
|   |   CO = '(4.176-4.698]' : 161 (2/132.25) [1/506.25]
|   |   CO = '(-inf-0.522]' : 122.87 (92/582.9) [52/518.65]
|   |   CO = '(4.698-inf)' : 127.57 (0/0) [0/0]
|   |   CO = '(2.61-3.132]' : 143.56 (7/688.12) [2/1486.88]
|   PM10 = '(70.36-93.81]'
|   |   O3 = '(32.554-43.402]' : 112.95 (23/361.27) [14/1876.72]
|   |   O3 = '(-inf-10.858]' : 96.36 (14/237.39) [8/456.18]
|   |   O3 = '(43.402-54.25]'
|   |   |   NH3 = '(23.114-28.89]' : 126.33 (2/16) [1/2401]
|   |   |   NH3 = '(28.89-34.666]' : 116.04 (0/0) [0/0]
|   |   |   NH3 = '(17.338-23.114]' : 155.5 (1/0) [1/225]
|   |   |   NH3 = '(11.562-17.338]' : 106 (1/0) [2/242.5]
|   |   |   NH3 = '(5.786-11.562]'
|   |   |   |   NOx = '(9.999-19.998]' : 106 (1/0) [0/0]
|   |   |   |   NOx = '(-inf-9.999]' : 112.5 (2/42.25) [0/0]
|   |   |   |   NOx = '(19.998-29.997]' : 108.5 (1/0) [1/1]
|   |   |   |   NOx = '(29.997-39.996]' : 116.67 (3/1.56) [0/0]
|   |   |   |   NOx = '(39.996-49.995]' : 112.25 (0/0) [0/0]
|   |   |   |   NOx = '(69.993-79.992]' : 112.25 (0/0) [0/0]
|   |   |   |   NOx = '(49.995-59.994]' : 112.25 (0/0) [0/0]
|   |   |   |   NOx = '(59.994-69.993]' : 112.25 (0/0) [0/0]
|   |   |   |   NOx = '(79.992-89.991]' : 112.25 (0/0) [0/0]
|   |   |   |   NOx = '(89.991-inf)' : 112.25 (0/0) [0/0]
|   |   |   NH3 = '(-inf-5.786]' : 105.33 (6/341.14) [3/180.47]
|   |   |   NH3 = '(34.666-40.442]' : 116.04 (0/0) [0/0]
|   |   |   NH3 = '(40.442-46.218]' : 163 (1/0) [0/0]
|   |   |   NH3 = '(46.218-51.994]' : 116.04 (0/0) [0/0]
|   |   |   NH3 = '(51.994-inf)' : 116.04 (0/0) [0/0]
|   |   O3 = '(54.25-65.098]' : 115.63 (7/263.06) [9/373.86]
|   |   O3 = '(65.098-75.946]' : 130.5 (4/380.69) [2/392.06]
|   |   O3 = '(21.706-32.554]' : 116.43 (16/1871.56) [5/282.95]
|   |   O3 = '(10.858-21.706]' : 98.14 (8/62.73) [13/452.66]
|   |   O3 = '(86.794-97.642]' : 193 (2/100) [0/0]
|   |   O3 = '(75.946-86.794]' : 154 (0/0) [2/2345.43]
|   |   O3 = '(97.642-inf)' : 112.08 (0/0) [0/0]
|   PM10 = '(23.46-46.91]' : 83.18 (49/1722.2) [19/1253.78]
|   PM10 = '(46.91-70.36]' : 99.23 (48/1616.32) [29/1406.96]
|   PM10 = '(-inf-23.46]'
|   |   CO = '(0.522-1.044]' : 53.5 (2/6.25) [0/0]
|   |   CO = '(1.566-2.088]' : 106.71 (5/129.44) [2/25.16]
|   |   CO = '(2.088-2.61]' : 20.8 (10/190.8) [5/48.6]
|   |   CO = '(1.044-1.566]' : 95.2 (4/94.5) [1/36]
|   |   CO = '(3.132-3.654]' : 52.26 (0/0) [0/0]
|   |   CO = '(3.654-4.176]' : 52.26 (0/0) [0/0]
|   |   CO = '(4.176-4.698]' : 52.26 (0/0) [0/0]
|   |   CO = '(-inf-0.522]'
|   |   |   NO = '(-inf-5.179]' : 22.67 (4/7.5) [2/16]
|   |   |   NO = '(15.497-20.656]' : 48 (2/0) [0/0]
|   |   |   NO = '(5.179-10.338]' : 34 (1/0) [0/0]
|   |   |   NO = '(10.338-15.497]' : 29.56 (0/0) [0/0]
|   |   |   NO = '(20.656-25.815]' : 29.56 (0/0) [0/0]
|   |   |   NO = '(25.815-30.974]' : 29.56 (0/0) [0/0]
|   |   |   NO = '(41.292-46.451]' : 29.56 (0/0) [0/0]
|   |   |   NO = '(46.451-inf)' : 29.56 (0/0) [0/0]
|   |   |   NO = '(36.133-41.292]' : 29.56 (0/0) [0/0]
|   |   |   NO = '(30.974-36.133]' : 29.56 (0/0) [0/0]
|   |   CO = '(4.698-inf)' : 52.26 (0/0) [0/0]
|   |   CO = '(2.61-3.132]' : 130 (1/0) [0/0]
|   PM10 = '(164.16-187.61]'
|   |   NH3 = '(23.114-28.89]'
|   |   |   O3 = '(32.554-43.402]'
|   |   |   |   SO2 = '(23.872-27.844]' : 153.38 (0/0) [0/0]
|   |   |   |   SO2 = '(15.928-19.9]' : 153.38 (0/0) [0/0]
|   |   |   |   SO2 = '(7.984-11.956]' : 155 (1/0) [1/144]
|   |   |   |   SO2 = '(27.844-31.816]' : 153.38 (0/0) [0/0]
|   |   |   |   SO2 = '(35.788-inf)' : 153.38 (0/0) [0/0]
|   |   |   |   SO2 = '(31.816-35.788]' : 138 (1/0) [0/0]
|   |   |   |   SO2 = '(11.956-15.928]' : 150.5 (2/225) [2/293]
|   |   |   |   SO2 = '(19.9-23.872]' : 159 (1/0) [0/0]
|   |   |   |   SO2 = '(-inf-4.012]' : 130.67 (2/64) [1/64]
|   |   |   |   SO2 = '(4.012-7.984]' : 196.5 (1/0) [1/81]
|   |   |   O3 = '(-inf-10.858]' : 121 (1/0) [1/16]
|   |   |   O3 = '(43.402-54.25]' : 150 (7/245.71) [0/0]
|   |   |   O3 = '(54.25-65.098]' : 181.6 (4/1686.19) [1/430.56]
|   |   |   O3 = '(65.098-75.946]' : 195.67 (5/809.76) [1/1831.84]
|   |   |   O3 = '(21.706-32.554]' : 165.5 (6/1196) [2/1444]
|   |   |   O3 = '(10.858-21.706]' : 166.14 (5/823.36) [2/2371.24]
|   |   |   O3 = '(86.794-97.642]' : 165.1 (0/0) [0/0]
|   |   |   O3 = '(75.946-86.794]' : 200 (2/1) [0/0]
|   |   |   O3 = '(97.642-inf)' : 165.1 (0/0) [0/0]
|   |   NH3 = '(28.89-34.666]' : 173.88 (10/1148.76) [6/296.17]
|   |   NH3 = '(17.338-23.114]' : 160.9 (20/268.59) [9/343.43]
|   |   NH3 = '(11.562-17.338]' : 151.38 (18/707.1) [3/294.79]
|   |   NH3 = '(5.786-11.562]' : 152.77 (25/172.15) [10/528.3]
|   |   NH3 = '(-inf-5.786]' : 136.43 (4/144.5) [3/448.67]
|   |   NH3 = '(34.666-40.442]' : 182.13 (7/553.1) [1/808.18]
|   |   NH3 = '(40.442-46.218]' : 216.8 (7/2093.71) [3/5398]
|   |   NH3 = '(46.218-51.994]' : 169.2 (4/60.5) [1/2401]
|   |   NH3 = '(51.994-inf)' : 174.2 (4/78.19) [1/60.06]
|   PM10 = '(187.61-211.06]'
|   |   O3 = '(32.554-43.402]'
|   |   |   NOx = '(9.999-19.998]' : 162.25 (4/210.69) [0/0]
|   |   |   NOx = '(-inf-9.999]' : 200 (2/576) [0/0]
|   |   |   NOx = '(19.998-29.997]' : 159.75 (2/16) [2/272.5]
|   |   |   NOx = '(29.997-39.996]' : 166.83 (4/358.5) [2/90.5]
|   |   |   NOx = '(39.996-49.995]' : 152.4 (4/173.69) [1/203.06]
|   |   |   NOx = '(69.993-79.992]' : 165.69 (0/0) [0/0]
|   |   |   NOx = '(49.995-59.994]' : 175.75 (3/84.22) [1/136.11]
|   |   |   NOx = '(59.994-69.993]' : 165.69 (0/0) [0/0]
|   |   |   NOx = '(79.992-89.991]' : 165.69 (0/0) [0/0]
|   |   |   NOx = '(89.991-inf)' : 154 (1/0) [0/0]
|   |   O3 = '(-inf-10.858]' : 176 (1/0) [0/0]
|   |   O3 = '(43.402-54.25]' : 177.83 (9/1752.22) [9/1985]
|   |   O3 = '(54.25-65.098]'
|   |   |   NO2 = '(9.818-19.626]' : 146.5 (1/0) [1/9]
|   |   |   NO2 = '(-inf-9.818]' : 194.5 (2/132.25) [0/0]
|   |   |   NO2 = '(19.626-29.434]' : 197.71 (0/0) [0/0]
|   |   |   NO2 = '(29.434-39.242]' : 234.17 (5/2853.36) [1/1459.24]
|   |   |   NO2 = '(39.242-49.05]' : 181.67 (6/269.89) [0/0]
|   |   |   NO2 = '(49.05-58.858]' : 184 (1/0) [0/0]
|   |   |   NO2 = '(58.858-68.666]' : 197.71 (0/0) [0/0]
|   |   |   NO2 = '(78.474-88.282]' : 197.71 (0/0) [0/0]
|   |   |   NO2 = '(68.666-78.474]' : 197.71 (0/0) [0/0]
|   |   |   NO2 = '(88.282-inf)' : 197.71 (0/0) [0/0]
|   |   O3 = '(65.098-75.946]' : 181.92 (8/768.73) [4/237.89]
|   |   O3 = '(21.706-32.554]' : 150.58 (8/666.5) [4/271.25]
|   |   O3 = '(10.858-21.706]' : 162.4 (11/177.14) [4/408.9]
|   |   O3 = '(86.794-97.642]' : 174.5 (0/0) [2/210.26]
|   |   O3 = '(75.946-86.794]' : 170.38 (4/466.25) [4/621.75]
|   |   O3 = '(97.642-inf)' : 218 (0/0) [1/1883.1]
|   PM10 = '(140.71-164.16]'
|   |   O3 = '(32.554-43.402]'
|   |   |   NH3 = '(23.114-28.89]'
|   |   |   |   NO2 = '(9.818-19.626]' : 146.27 (0/0) [0/0]
|   |   |   |   NO2 = '(-inf-9.818]' : 151 (3/26) [0/0]
|   |   |   |   NO2 = '(19.626-29.434]' : 144.56 (7/474) [2/630.5]
|   |   |   |   NO2 = '(29.434-39.242]' : 129.5 (3/34.89) [1/2368.44]
|   |   |   |   NO2 = '(39.242-49.05]' : 164.2 (2/110.25) [3/362.25]
|   |   |   |   NO2 = '(49.05-58.858]' : 140.33 (2/400) [1/64]
|   |   |   |   NO2 = '(58.858-68.666]' : 131 (0/0) [1/87.48]
|   |   |   |   NO2 = '(78.474-88.282]' : 146.27 (0/0) [0/0]
|   |   |   |   NO2 = '(68.666-78.474]' : 158 (0/0) [1/311.42]
|   |   |   |   NO2 = '(88.282-inf)' : 146.27 (0/0) [0/0]
|   |   |   NH3 = '(28.89-34.666]' : 158.91 (7/406.2) [4/112.4]
|   |   |   NH3 = '(17.338-23.114]' : 148.55 (21/463.57) [8/134.89]
|   |   |   NH3 = '(11.562-17.338]' : 134.92 (12/123.24) [0/0]
|   |   |   NH3 = '(5.786-11.562]' : 135.67 (6/115) [3/121.67]
|   |   |   NH3 = '(-inf-5.786]' : 133.33 (2/169) [1/64]
|   |   |   NH3 = '(34.666-40.442]' : 160.2 (3/86) [2/840.5]
|   |   |   NH3 = '(40.442-46.218]' : 167.4 (4/624.5) [1/3844]
|   |   |   NH3 = '(46.218-51.994]' : 171 (4/809) [0/0]
|   |   |   NH3 = '(51.994-inf)' : 132.5 (2/12.25) [0/0]
|   |   O3 = '(-inf-10.858]'
|   |   |   CO = '(0.522-1.044]' : 129 (2/4) [0/0]
|   |   |   CO = '(1.566-2.088]' : 136.18 (0/0) [0/0]
|   |   |   CO = '(2.088-2.61]' : 135 (1/0) [0/0]
|   |   |   CO = '(1.044-1.566]' : 206 (0/0) [1/5163.45]
|   |   |   CO = '(3.132-3.654]' : 136.18 (0/0) [0/0]
|   |   |   CO = '(3.654-4.176]' : 184 (1/0) [0/0]
|   |   |   CO = '(4.176-4.698]' : 136.18 (0/0) [0/0]
|   |   |   CO = '(-inf-0.522]' : 119.4 (2/121) [3/53.67]
|   |   |   CO = '(4.698-inf)' : 136.18 (0/0) [0/0]
|   |   |   CO = '(2.61-3.132]' : 118 (1/0) [0/0]
|   |   O3 = '(43.402-54.25]' : 149.47 (52/579.09) [27/403.83]
|   |   O3 = '(54.25-65.098]'
|   |   |   NOx = '(9.999-19.998]' : 153.6 (6/141.47) [4/202.19]
|   |   |   NOx = '(-inf-9.999]' : 141 (2/16) [0/0]
|   |   |   NOx = '(19.998-29.997]'
|   |   |   |   Toluene = '(3.082-6.164]' : 190 (2/36) [0/0]
|   |   |   |   Toluene = '(9.246-12.328]' : 140 (1/0) [0/0]
|   |   |   |   Toluene = '(-inf-3.082]' : 145 (3/259.56) [1/44.44]
|   |   |   |   Toluene = '(6.164-9.246]' : 157.33 (3/149.56) [0/0]
|   |   |   |   Toluene = '(15.41-18.492]' : 196 (1/0) [0/0]
|   |   |   |   Toluene = '(21.574-24.656]' : 156.75 (0/0) [0/0]
|   |   |   |   Toluene = '(12.328-15.41]' : 157 (1/0) [0/0]
|   |   |   |   Toluene = '(18.492-21.574]' : 142.33 (2/6.25) [1/0.25]
|   |   |   |   Toluene = '(27.738-inf)' : 156 (1/0) [0/0]
|   |   |   |   Toluene = '(24.656-27.738]' : 156.75 (0/0) [0/0]
|   |   |   NOx = '(29.997-39.996]' : 155.11 (6/209.81) [3/160.92]
|   |   |   NOx = '(39.996-49.995]' : 135 (1/0) [0/0]
|   |   |   NOx = '(69.993-79.992]' : 195 (1/0) [0/0]
|   |   |   NOx = '(49.995-59.994]' : 156.33 (0/0) [0/0]
|   |   |   NOx = '(59.994-69.993]' : 157.6 (3/140.22) [2/393.11]
|   |   |   NOx = '(79.992-89.991]' : 195 (1/0) [0/0]
|   |   |   NOx = '(89.991-inf)' : 156.33 (0/0) [0/0]
|   |   O3 = '(65.098-75.946]'
|   |   |   NH3 = '(23.114-28.89]' : 195.5 (4/339.25) [0/0]
|   |   |   NH3 = '(28.89-34.666]' : 188 (0/0) [1/464.64]
|   |   |   NH3 = '(17.338-23.114]' : 132.75 (1/0) [3/352.33]
|   |   |   NH3 = '(11.562-17.338]' : 136.5 (1/0) [1/1]
|   |   |   NH3 = '(5.786-11.562]' : 170 (2/182.25) [1/2162.25]
|   |   |   NH3 = '(-inf-5.786]' : 161.35 (0/0) [0/0]
|   |   |   NH3 = '(34.666-40.442]' : 169 (0/0) [1/6.53]
|   |   |   NH3 = '(40.442-46.218]' : 161.35 (0/0) [0/0]
|   |   |   NH3 = '(46.218-51.994]' : 142 (0/0) [1/597.53]
|   |   |   NH3 = '(51.994-inf)' : 148 (1/0) [0/0]
|   |   O3 = '(21.706-32.554]' : 147.98 (39/451.42) [17/354.46]
|   |   O3 = '(10.858-21.706]' : 142.29 (24/563.65) [10/902.67]
|   |   O3 = '(86.794-97.642]' : 167.5 (3/340.22) [1/160.44]
|   |   O3 = '(75.946-86.794]' : 173.15 (11/414.74) [2/3180.12]
|   |   O3 = '(97.642-inf)' : 172.75 (4/957.69) [0/0]
|   PM10 = '(211.06-inf)'
|   |   CO = '(0.522-1.044]' : 189.29 (8/1151.86) [9/1816.07]
|   |   CO = '(1.566-2.088]' : 167 (2/0.25) [1/506.25]
|   |   CO = '(2.088-2.61]' : 167 (5/26) [0/0]
|   |   CO = '(1.044-1.566]' : 199.83 (4/533.19) [2/101.56]
|   |   CO = '(3.132-3.654]' : 254.5 (2/650.25) [0/0]
|   |   CO = '(3.654-4.176]' : 182.73 (0/0) [0/0]
|   |   CO = '(4.176-4.698]' : 182.73 (0/0) [0/0]
|   |   CO = '(-inf-0.522]'
|   |   |   NO = '(-inf-5.179]' : 163.42 (0/0) [0/0]
|   |   |   NO = '(15.497-20.656]' : 165.75 (3/309.56) [1/2.78]
|   |   |   NO = '(5.179-10.338]' : 201 (2/484) [0/0]
|   |   |   NO = '(10.338-15.497]' : 163 (3/392) [1/576]
|   |   |   NO = '(20.656-25.815]' : 163.42 (0/0) [0/0]
|   |   |   NO = '(25.815-30.974]' : 163.42 (0/0) [0/0]
|   |   |   NO = '(41.292-46.451]' : 163.42 (0/0) [0/0]
|   |   |   NO = '(46.451-inf)' : 122 (1/0) [1/3136]
|   |   |   NO = '(36.133-41.292]' : 163.42 (0/0) [0/0]
|   |   |   NO = '(30.974-36.133]' : 163.42 (0/0) [0/0]
|   |   CO = '(4.698-inf)' : 182.73 (0/0) [0/0]
|   |   CO = '(2.61-3.132]' : 182.73 (0/0) [0/0]
PM2.5 = '(77.22-96.515]'
|   PM10 = '(117.26-140.71]'
|   |   CO = '(0.522-1.044]'
|   |   |   NOx = '(9.999-19.998]' : 170.98 (29/1509.12) [17/1296.18]
|   |   |   NOx = '(-inf-9.999]'
|   |   |   |   SO2 = '(23.872-27.844]' : 191.82 (0/0) [0/0]
|   |   |   |   SO2 = '(15.928-19.9]' : 176.33 (3/157.56) [0/0]
|   |   |   |   SO2 = '(7.984-11.956]' : 182 (1/0) [0/0]
|   |   |   |   SO2 = '(27.844-31.816]' : 279 (1/0) [0/0]
|   |   |   |   SO2 = '(35.788-inf)' : 198 (0/0) [1/352.6]
|   |   |   |   SO2 = '(31.816-35.788]' : 191.82 (0/0) [0/0]
|   |   |   |   SO2 = '(11.956-15.928]' : 191.82 (0/0) [0/0]
|   |   |   |   SO2 = '(19.9-23.872]' : 168 (1/0) [0/0]
|   |   |   |   SO2 = '(-inf-4.012]' : 120 (2/16) [0/0]
|   |   |   |   SO2 = '(4.012-7.984]' : 257 (1/0) [1/7056]
|   |   |   NOx = '(19.998-29.997]' : 183.69 (37/1289.11) [21/1092.46]
|   |   |   NOx = '(29.997-39.996]'
|   |   |   |   NO2 = '(9.818-19.626]'
|   |   |   |   |   O3 = '(32.554-43.402]' : 292 (0/0) [1/10955.11]
|   |   |   |   |   O3 = '(-inf-10.858]' : 185 (0/0) [1/5.44]
|   |   |   |   |   O3 = '(43.402-54.25]' : 214.4 (3/1238) [2/842.5]
|   |   |   |   |   O3 = '(54.25-65.098]' : 267 (0/0) [1/6346.78]
|   |   |   |   |   O3 = '(65.098-75.946]' : 211.91 (0/0) [0/0]
|   |   |   |   |   O3 = '(21.706-32.554]' : 138 (2/225) [0/0]
|   |   |   |   |   O3 = '(10.858-21.706]' : 239 (1/0) [0/0]
|   |   |   |   |   O3 = '(86.794-97.642]' : 211.91 (0/0) [0/0]
|   |   |   |   |   O3 = '(75.946-86.794]' : 211.91 (0/0) [0/0]
|   |   |   |   |   O3 = '(97.642-inf)' : 211.91 (0/0) [0/0]
|   |   |   |   NO2 = '(-inf-9.818]' : 234.2 (1/0) [4/1776.75]
|   |   |   |   NO2 = '(19.626-29.434]' : 175.05 (10/236.61) [9/856.58]
|   |   |   |   NO2 = '(29.434-39.242]' : 210.83 (3/141.56) [3/448.11]
|   |   |   |   NO2 = '(39.242-49.05]' : 195.67 (1/0) [2/3438.5]
|   |   |   |   NO2 = '(49.05-58.858]' : 147 (1/0) [0/0]
|   |   |   |   NO2 = '(58.858-68.666]' : 126 (0/0) [1/4090.18]
|   |   |   |   NO2 = '(78.474-88.282]' : 194.63 (0/0) [0/0]
|   |   |   |   NO2 = '(68.666-78.474]' : 194.63 (0/0) [0/0]
|   |   |   |   NO2 = '(88.282-inf)' : 194.63 (0/0) [0/0]
|   |   |   NOx = '(39.996-49.995]' : 149.4 (4/1706.25) [1/2550.25]
|   |   |   NOx = '(69.993-79.992]' : 183.25 (0/0) [0/0]
|   |   |   NOx = '(49.995-59.994]' : 147.5 (2/506.25) [0/0]
|   |   |   NOx = '(59.994-69.993]' : 253 (2/5329) [0/0]
|   |   |   NOx = '(79.992-89.991]' : 205 (0/0) [1/609.38]
|   |   |   NOx = '(89.991-inf)' : 183.25 (0/0) [0/0]
|   |   CO = '(1.566-2.088]'
|   |   |   NO2 = '(9.818-19.626]' : 180.89 (11/736.93) [7/1453.59]
|   |   |   NO2 = '(-inf-9.818]' : 193 (1/0) [0/0]
|   |   |   NO2 = '(19.626-29.434]' : 216.6 (6/1220.47) [4/8974.19]
|   |   |   NO2 = '(29.434-39.242]' : 149 (4/3135.5) [0/0]
|   |   |   NO2 = '(39.242-49.05]' : 175 (4/326.25) [1/156.25]
|   |   |   NO2 = '(49.05-58.858]' : 225.33 (3/101.56) [0/0]
|   |   |   NO2 = '(58.858-68.666]' : 165.5 (1/0) [1/1681]
|   |   |   NO2 = '(78.474-88.282]' : 221 (0/0) [1/1110.39]
|   |   |   NO2 = '(68.666-78.474]' : 245 (1/0) [0/0]
|   |   |   NO2 = '(88.282-inf)' : 190.2 (0/0) [0/0]
|   |   CO = '(2.088-2.61]' : 211.32 (11/1598.99) [8/8862.02]
|   |   CO = '(1.044-1.566]' : 188.13 (105/1586.19) [69/1421.67]
|   |   CO = '(3.132-3.654]' : 224.4 (4/1155.69) [1/138.06]
|   |   CO = '(3.654-4.176]' : 232.5 (1/0) [1/5625]
|   |   CO = '(4.176-4.698]' : 186.74 (0/0) [0/0]
|   |   CO = '(-inf-0.522]' : 179.64 (77/1627.57) [33/1562.02]
|   |   CO = '(4.698-inf)' : 191.5 (2/1260.25) [0/0]
|   |   CO = '(2.61-3.132]' : 211.89 (5/645.76) [4/1140.69]
|   PM10 = '(93.81-117.26]' : 176.67 (38/1348.81) [29/1397.98]
|   PM10 = '(70.36-93.81]' : 137.57 (3/2178.67) [4/1142.75]
|   PM10 = '(23.46-46.91]' : 184 (1/0) [1/100]
|   PM10 = '(46.91-70.36]' : 117.43 (6/69.56) [1/1626.78]
|   PM10 = '(-inf-23.46]' : 188.19 (0/0) [0/0]
|   PM10 = '(164.16-187.61]' : 196.12 (117/1349.75) [55/1004.97]
|   PM10 = '(187.61-211.06]' : 198.24 (61/1337.36) [32/969.01]
|   PM10 = '(140.71-164.16]'
|   |   CO = '(0.522-1.044]' : 186.45 (68/1126.69) [31/1095.73]
|   |   CO = '(1.566-2.088]' : 167.8 (4/64.19) [6/1241.31]
|   |   CO = '(2.088-2.61]' : 173.64 (9/640.22) [2/986]
|   |   CO = '(1.044-1.566]' : 184.71 (30/776.25) [28/516.51]
|   |   CO = '(3.132-3.654]' : 240 (2/100) [1/8649]
|   |   CO = '(3.654-4.176]' : 175 (2/3025) [1/1521]
|   |   CO = '(4.176-4.698]' : 234 (1/0) [0/0]
|   |   CO = '(-inf-0.522]' : 191.95 (27/1387.72) [12/512.03]
|   |   CO = '(4.698-inf)' : 185.37 (0/0) [0/0]
|   |   CO = '(2.61-3.132]' : 151.83 (4/616.5) [2/3000.5]
|   PM10 = '(211.06-inf)' : 203.1 (34/1345.25) [17/1833.42]
PM2.5 = '(96.515-115.81]'
|   PM10 = '(117.26-140.71]'
|   |   NH3 = '(23.114-28.89]'
|   |   |   NOx = '(9.999-19.998]' : 230.96 (16/1579.12) [8/2768.47]
|   |   |   NOx = '(-inf-9.999]'
|   |   |   |   SO2 = '(23.872-27.844]' : 207 (1/0) [0/0]
|   |   |   |   SO2 = '(15.928-19.9]' : 225 (1/0) [0/0]
|   |   |   |   SO2 = '(7.984-11.956]' : 211.29 (4/1330.19) [3/559.23]
|   |   |   |   SO2 = '(27.844-31.816]' : 295.5 (2/42.25) [0/0]
|   |   |   |   SO2 = '(35.788-inf)' : 236 (1/0) [0/0]
|   |   |   |   SO2 = '(31.816-35.788]' : 263 (0/0) [1/753.5]
|   |   |   |   SO2 = '(11.956-15.928]' : 235.33 (0/0) [0/0]
|   |   |   |   SO2 = '(19.9-23.872]' : 254 (0/0) [1/340.4]
|   |   |   |   SO2 = '(-inf-4.012]'
|   |   |   |   |   O3 = '(32.554-43.402]' : 108 (1/0) [1/5776]
|   |   |   |   |   O3 = '(-inf-10.858]' : 205.73 (0/0) [0/0]
|   |   |   |   |   O3 = '(43.402-54.25]' : 230 (1/0) [0/0]
|   |   |   |   |   O3 = '(54.25-65.098]' : 205.73 (0/0) [0/0]
|   |   |   |   |   O3 = '(65.098-75.946]' : 205 (1/0) [0/0]
|   |   |   |   |   O3 = '(21.706-32.554]' : 231.33 (2/1521) [1/841]
|   |   |   |   |   O3 = '(10.858-21.706]' : 229.5 (2/132.25) [2/1656.25]
|   |   |   |   |   O3 = '(86.794-97.642]' : 205.73 (0/0) [0/0]
|   |   |   |   |   O3 = '(75.946-86.794]' : 205.73 (0/0) [0/0]
|   |   |   |   |   O3 = '(97.642-inf)' : 205.73 (0/0) [0/0]
|   |   |   |   SO2 = '(4.012-7.984]' : 245.77 (24/1143.66) [11/2689.51]
|   |   |   NOx = '(19.998-29.997]'
|   |   |   |   NO2 = '(9.818-19.626]' : 260.2 (2/2862.25) [3/1124.92]
|   |   |   |   NO2 = '(-inf-9.818]' : 242.81 (0/0) [0/0]
|   |   |   |   NO2 = '(19.626-29.434]'
|   |   |   |   |   Toluene = '(3.082-6.164]' : 256.5 (2/756.25) [0/0]
|   |   |   |   |   Toluene = '(9.246-12.328]' : 235.44 (0/0) [0/0]
|   |   |   |   |   Toluene = '(-inf-3.082]' : 229.2 (3/370.89) [2/681.11]
|   |   |   |   |   Toluene = '(6.164-9.246]' : 216 (1/0) [0/0]
|   |   |   |   |   Toluene = '(15.41-18.492]' : 244 (1/0) [0/0]
|   |   |   |   |   Toluene = '(21.574-24.656]' : 235.44 (0/0) [0/0]
|   |   |   |   |   Toluene = '(12.328-15.41]' : 235.44 (0/0) [0/0]
|   |   |   |   |   Toluene = '(18.492-21.574]' : 235.44 (0/0) [0/0]
|   |   |   |   |   Toluene = '(27.738-inf)' : 235.44 (0/0) [0/0]
|   |   |   |   |   Toluene = '(24.656-27.738]' : 235.44 (0/0) [0/0]
|   |   |   |   NO2 = '(29.434-39.242]' : 221.75 (8/462.44) [0/0]
|   |   |   |   NO2 = '(39.242-49.05]' : 291.67 (2/650.25) [1/870.25]
|   |   |   |   NO2 = '(49.05-58.858]' : 244 (1/0) [0/0]
|   |   |   |   NO2 = '(58.858-68.666]' : 242.81 (0/0) [0/0]
|   |   |   |   NO2 = '(78.474-88.282]' : 242.81 (0/0) [0/0]
|   |   |   |   NO2 = '(68.666-78.474]' : 242.81 (0/0) [0/0]
|   |   |   |   NO2 = '(88.282-inf)' : 242.81 (0/0) [0/0]
|   |   |   NOx = '(29.997-39.996]' : 257.02 (45/2754.71) [20/4368.58]
|   |   |   NOx = '(39.996-49.995]'
|   |   |   |   CO = '(0.522-1.044]' : 281.67 (2/49) [1/121]
|   |   |   |   CO = '(1.566-2.088]' : 264 (1/0) [0/0]
|   |   |   |   CO = '(2.088-2.61]' : 244.75 (0/0) [0/0]
|   |   |   |   CO = '(1.044-1.566]' : 212.25 (3/78) [1/225]
|   |   |   |   CO = '(3.132-3.654]' : 244.75 (0/0) [0/0]
|   |   |   |   CO = '(3.654-4.176]' : 244.75 (0/0) [0/0]
|   |   |   |   CO = '(4.176-4.698]' : 244.75 (0/0) [0/0]
|   |   |   |   CO = '(-inf-0.522]' : 244.75 (0/0) [0/0]
|   |   |   |   CO = '(4.698-inf)' : 244.75 (0/0) [0/0]
|   |   |   |   CO = '(2.61-3.132]' : 244.75 (0/0) [0/0]
|   |   |   NOx = '(69.993-79.992]' : 251.5 (1/0) [1/121]
|   |   |   NOx = '(49.995-59.994]' : 253.83 (5/2317.36) [1/13502.44]
|   |   |   NOx = '(59.994-69.993]' : 241.25 (3/850.89) [1/2669.44]
|   |   |   NOx = '(79.992-89.991]' : 336 (0/0) [1/8035.28]
|   |   |   NOx = '(89.991-inf)' : 244.73 (0/0) [0/0]
|   |   NH3 = '(28.89-34.666]'
|   |   |   NO2 = '(9.818-19.626]' : 112.5 (1/0) [1/441]
|   |   |   NO2 = '(-inf-9.818]' : 222.64 (0/0) [0/0]
|   |   |   NO2 = '(19.626-29.434]' : 216 (3/92.67) [1/16]
|   |   |   NO2 = '(29.434-39.242]' : 242.63 (6/2076.81) [2/224.36]
|   |   |   NO2 = '(39.242-49.05]' : 253.67 (2/182.25) [1/5550.25]
|   |   |   NO2 = '(49.05-58.858]' : 229.5 (1/0) [1/961]
|   |   |   NO2 = '(58.858-68.666]' : 201.5 (2/72.25) [0/0]
|   |   |   NO2 = '(78.474-88.282]' : 222.64 (0/0) [0/0]
|   |   |   NO2 = '(68.666-78.474]' : 245 (1/0) [0/0]
|   |   |   NO2 = '(88.282-inf)' : 222.64 (0/0) [0/0]
|   |   NH3 = '(17.338-23.114]' : 209.09 (6/2230.56) [5/339.18]
|   |   NH3 = '(11.562-17.338]'
|   |   |   SO2 = '(23.872-27.844]' : 216 (0/0) [0/0]
|   |   |   SO2 = '(15.928-19.9]' : 82 (1/0) [0/0]
|   |   |   SO2 = '(7.984-11.956]' : 224.88 (3/17.56) [5/471.84]
|   |   |   SO2 = '(27.844-31.816]' : 216 (0/0) [0/0]
|   |   |   SO2 = '(35.788-inf)' : 216 (0/0) [0/0]
|   |   |   SO2 = '(31.816-35.788]' : 216 (0/0) [0/0]
|   |   |   SO2 = '(11.956-15.928]' : 195 (1/0) [0/0]
|   |   |   SO2 = '(19.9-23.872]' : 216 (0/0) [0/0]
|   |   |   SO2 = '(-inf-4.012]' : 216 (0/0) [0/0]
|   |   |   SO2 = '(4.012-7.984]' : 237 (2/182.25) [2/45.25]
|   |   NH3 = '(5.786-11.562]' : 231.11 (6/784.89) [3/1906.67]
|   |   NH3 = '(-inf-5.786]' : 189 (8/6003.48) [2/460.77]
|   |   NH3 = '(34.666-40.442]'
|   |   |   SO2 = '(23.872-27.844]' : 238.2 (0/0) [0/0]
|   |   |   SO2 = '(15.928-19.9]' : 238.2 (0/0) [0/0]
|   |   |   SO2 = '(7.984-11.956]' : 234 (6/1242.67) [0/0]
|   |   |   SO2 = '(27.844-31.816]' : 238.2 (0/0) [0/0]
|   |   |   SO2 = '(35.788-inf)' : 238.2 (0/0) [0/0]
|   |   |   SO2 = '(31.816-35.788]' : 238.2 (0/0) [0/0]
|   |   |   SO2 = '(11.956-15.928]' : 167 (1/0) [0/0]
|   |   |   SO2 = '(19.9-23.872]' : 238.2 (0/0) [0/0]
|   |   |   SO2 = '(-inf-4.012]' : 134 (1/0) [0/0]
|   |   |   SO2 = '(4.012-7.984]' : 266.86 (3/1016) [4/646]
|   |   NH3 = '(40.442-46.218]' : 224.38 (10/536.04) [3/258.49]
|   |   NH3 = '(46.218-51.994]' : 243.4 (3/131.56) [2/4026.28]
|   |   NH3 = '(51.994-inf)' : 221 (4/426.19) [2/2288.81]
|   PM10 = '(93.81-117.26]'
|   |   O3 = '(32.554-43.402]' : 193.5 (2/132.25) [0/0]
|   |   O3 = '(-inf-10.858]' : 108 (1/0) [0/0]
|   |   O3 = '(43.402-54.25]' : 240 (2/12.25) [1/650.25]
|   |   O3 = '(54.25-65.098]' : 199.5 (2/2.25) [0/0]
|   |   O3 = '(65.098-75.946]' : 201.75 (0/0) [0/0]
|   |   O3 = '(21.706-32.554]' : 201.75 (0/0) [0/0]
|   |   O3 = '(10.858-21.706]' : 201.75 (0/0) [0/0]
|   |   O3 = '(86.794-97.642]' : 201.75 (0/0) [0/0]
|   |   O3 = '(75.946-86.794]' : 201.75 (0/0) [0/0]
|   |   O3 = '(97.642-inf)' : 201.75 (0/0) [0/0]
|   PM10 = '(70.36-93.81]' : 159.25 (3/1682.89) [1/1045.44]
|   PM10 = '(23.46-46.91]' : 149 (2/400) [0/0]
|   PM10 = '(46.91-70.36]' : 117.67 (1/0) [2/2682.5]
|   PM10 = '(-inf-23.46]' : 62 (0/0) [1/31310.2]
|   PM10 = '(164.16-187.61]' : 243.61 (74/1453.41) [34/910.09]
|   PM10 = '(187.61-211.06]'
|   |   Toluene = '(3.082-6.164]' : 269.44 (10/690.8) [8/1107]
|   |   Toluene = '(9.246-12.328]' : 310.33 (2/121) [1/784]
|   |   Toluene = '(-inf-3.082]' : 233.82 (7/3273.14) [4/2670.5]
|   |   Toluene = '(6.164-9.246]' : 234.5 (25/1590.72) [13/1341.92]
|   |   Toluene = '(15.41-18.492]' : 231.75 (1/0) [3/1427]
|   |   Toluene = '(21.574-24.656]' : 261 (2/342.25) [1/182.25]
|   |   Toluene = '(12.328-15.41]' : 233 (1/0) [0/0]
|   |   Toluene = '(18.492-21.574]' : 289.5 (2/306.25) [0/0]
|   |   Toluene = '(27.738-inf)' : 237 (3/134) [0/0]
|   |   Toluene = '(24.656-27.738]' : 238.67 (2/12.25) [1/702.25]
|   PM10 = '(140.71-164.16]' : 244.04 (39/1945.78) [17/1994.57]
|   PM10 = '(211.06-inf)' : 254.64 (45/1533.41) [13/1842.17]
PM2.5 = '(38.63-57.925]'
|   PM10 = '(117.26-140.71]'
|   |   CO = '(0.522-1.044]'
|   |   |   O3 = '(32.554-43.402]'
|   |   |   |   SO2 = '(23.872-27.844]' : 114.11 (0/0) [0/0]
|   |   |   |   SO2 = '(15.928-19.9]' : 121.75 (3/16.67) [1/289]
|   |   |   |   SO2 = '(7.984-11.956]' : 124.64 (23/1414.3) [16/663.24]
|   |   |   |   SO2 = '(27.844-31.816]' : 114.11 (0/0) [0/0]
|   |   |   |   SO2 = '(35.788-inf)' : 114.11 (0/0) [0/0]
|   |   |   |   SO2 = '(31.816-35.788]' : 114.11 (0/0) [0/0]
|   |   |   |   SO2 = '(11.956-15.928]' : 120.5 (10/324.69) [6/586.48]
|   |   |   |   SO2 = '(19.9-23.872]' : 108 (0/0) [1/87.27]
|   |   |   |   SO2 = '(-inf-4.012]' : 103.25 (6/174.81) [2/777.69]
|   |   |   |   SO2 = '(4.012-7.984]' : 106.21 (34/370.32) [23/571.55]
|   |   |   O3 = '(-inf-10.858]' : 99.56 (18/518.77) [7/636.16]
|   |   |   O3 = '(43.402-54.25]' : 117.86 (63/543.16) [36/550.19]
|   |   |   O3 = '(54.25-65.098]'
|   |   |   |   NOx = '(9.999-19.998]' : 120.8 (4/129.25) [6/432.58]
|   |   |   |   NOx = '(-inf-9.999]' : 107 (4/4.69) [2/47.81]
|   |   |   |   NOx = '(19.998-29.997]' : 136 (1/0) [0/0]
|   |   |   |   NOx = '(29.997-39.996]' : 127.56 (6/137.22) [3/90.11]
|   |   |   |   NOx = '(39.996-49.995]' : 142.5 (1/0) [3/222]
|   |   |   |   NOx = '(69.993-79.992]' : 123.47 (0/0) [0/0]
|   |   |   |   NOx = '(49.995-59.994]' : 123.47 (0/0) [0/0]
|   |   |   |   NOx = '(59.994-69.993]' : 123.47 (0/0) [0/0]
|   |   |   |   NOx = '(79.992-89.991]' : 123.47 (0/0) [0/0]
|   |   |   |   NOx = '(89.991-inf)' : 123.47 (0/0) [0/0]
|   |   |   O3 = '(65.098-75.946]'
|   |   |   |   NO = '(-inf-5.179]' : 127.13 (5/64.4) [3/269.67]
|   |   |   |   NO = '(15.497-20.656]' : 191 (2/289) [0/0]
|   |   |   |   NO = '(5.179-10.338]' : 138.82 (8/332.86) [3/726.43]
|   |   |   |   NO = '(10.338-15.497]' : 150.25 (3/14) [1/1089]
|   |   |   |   NO = '(20.656-25.815]' : 141.08 (0/0) [0/0]
|   |   |   |   NO = '(25.815-30.974]' : 141.08 (0/0) [0/0]
|   |   |   |   NO = '(41.292-46.451]' : 141.08 (0/0) [0/0]
|   |   |   |   NO = '(46.451-inf)' : 141.08 (0/0) [0/0]
|   |   |   |   NO = '(36.133-41.292]' : 141.08 (0/0) [0/0]
|   |   |   |   NO = '(30.974-36.133]' : 141.08 (0/0) [0/0]
|   |   |   O3 = '(21.706-32.554]'
|   |   |   |   Xylene = '(3.768-4.396]' : 112 (2/64) [0/0]
|   |   |   |   Xylene = '(0.628-1.256]' : 114 (3/38.89) [1/300.44]
|   |   |   |   Xylene = '(-inf-0.628]'
|   |   |   |   |   NO2 = '(9.818-19.626]' : 130 (1/0) [0/0]
|   |   |   |   |   NO2 = '(-inf-9.818]' : 236 (2/3481) [0/0]
|   |   |   |   |   NO2 = '(19.626-29.434]' : 125.33 (3/34.89) [3/858.44]
|   |   |   |   |   NO2 = '(29.434-39.242]' : 127.33 (0/0) [3/1005.58]
|   |   |   |   |   NO2 = '(39.242-49.05]' : 103 (0/0) [1/3043.36]
|   |   |   |   |   NO2 = '(49.05-58.858]' : 141.46 (0/0) [0/0]
|   |   |   |   |   NO2 = '(58.858-68.666]' : 141.46 (0/0) [0/0]
|   |   |   |   |   NO2 = '(78.474-88.282]' : 141.46 (0/0) [0/0]
|   |   |   |   |   NO2 = '(68.666-78.474]' : 141.46 (0/0) [0/0]
|   |   |   |   |   NO2 = '(88.282-inf)' : 141.46 (0/0) [0/0]
|   |   |   |   Xylene = '(1.256-1.884]' : 117 (4/175.69) [3/844.56]
|   |   |   |   Xylene = '(1.884-2.512]' : 100.5 (0/0) [2/168.78]
|   |   |   |   Xylene = '(3.14-3.768]' : 117 (0/0) [1/167.97]
|   |   |   |   Xylene = '(2.512-3.14]'
|   |   |   |   |   Benzene = '(2.472-3.708]' : 131.27 (6/515.14) [5/1221.76]
|   |   |   |   |   Benzene = '(3.708-4.944]' : 95 (3/218) [1/2704]
|   |   |   |   |   Benzene = '(-inf-1.236]' : 94.13 (54/426.94) [23/354.63]
|   |   |   |   |   Benzene = '(4.944-6.18]' : 110.17 (2/1) [4/566.25]
|   |   |   |   |   Benzene = '(1.236-2.472]' : 101.14 (10/820.65) [4/656.25]
|   |   |   |   |   Benzene = '(6.18-7.416]' : 124.75 (3/172.22) [1/18.78]
|   |   |   |   |   Benzene = '(7.416-8.652]' : 93 (0/0) [1/35.42]
|   |   |   |   |   Benzene = '(11.124-inf)' : 84.67 (3/57.56) [0/0]
|   |   |   |   |   Benzene = '(8.652-9.888]' : 74 (1/0) [0/0]
|   |   |   |   |   Benzene = '(9.888-11.124]' : 63.5 (1/0) [1/1]
|   |   |   |   Xylene = '(5.652-inf)' : 104.42 (0/0) [0/0]
|   |   |   |   Xylene = '(4.396-5.024]' : 120.5 (2/2.25) [0/0]
|   |   |   |   Xylene = '(5.024-5.652]' : 98.5 (1/0) [1/225]
|   |   |   O3 = '(10.858-21.706]'
|   |   |   |   Xylene = '(3.768-4.396]' : 116.4 (4/30.69) [1/370.56]
|   |   |   |   Xylene = '(0.628-1.256]' : 119.67 (6/54.89) [0/0]
|   |   |   |   Xylene = '(-inf-0.628]' : 113.33 (7/983.96) [5/2834.16]
|   |   |   |   Xylene = '(1.256-1.884]' : 112 (0/0) [1/64.89]
|   |   |   |   Xylene = '(1.884-2.512]' : 115.33 (2/4) [1/121]
|   |   |   |   Xylene = '(3.14-3.768]' : 113 (4/89.5) [0/0]
|   |   |   |   Xylene = '(2.512-3.14]' : 96.9 (44/520.06) [26/302.28]
|   |   |   |   Xylene = '(5.652-inf)' : 131 (3/28.67) [0/0]
|   |   |   |   Xylene = '(4.396-5.024]' : 107.5 (2/2.25) [0/0]
|   |   |   |   Xylene = '(5.024-5.652]' : 103.41 (0/0) [0/0]
|   |   |   O3 = '(86.794-97.642]' : 151 (1/0) [3/59.33]
|   |   |   O3 = '(75.946-86.794]'
|   |   |   |   SO2 = '(23.872-27.844]' : 146.31 (0/0) [0/0]
|   |   |   |   SO2 = '(15.928-19.9]' : 173 (2/1681) [0/0]
|   |   |   |   SO2 = '(7.984-11.956]' : 135 (3/107.56) [3/295.33]
|   |   |   |   SO2 = '(27.844-31.816]' : 146.31 (0/0) [0/0]
|   |   |   |   SO2 = '(35.788-inf)' : 146.31 (0/0) [0/0]
|   |   |   |   SO2 = '(31.816-35.788]' : 146.31 (0/0) [0/0]
|   |   |   |   SO2 = '(11.956-15.928]' : 168 (2/676) [0/0]
|   |   |   |   SO2 = '(19.9-23.872]' : 146.31 (0/0) [0/0]
|   |   |   |   SO2 = '(-inf-4.012]' : 165 (0/0) [1/252.46]
|   |   |   |   SO2 = '(4.012-7.984]' : 122.5 (2/42.25) [0/0]
|   |   |   O3 = '(97.642-inf)' : 145.5 (1/0) [1/81]
|   |   CO = '(1.566-2.088]' : 124.86 (49/789.41) [31/2046.79]
|   |   CO = '(2.088-2.61]' : 135.66 (41/9017.95) [32/1598.71]
|   |   CO = '(1.044-1.566]'
|   |   |   O3 = '(32.554-43.402]' : 108.19 (46/477.67) [24/377.11]
|   |   |   O3 = '(-inf-10.858]' : 111.11 (13/730.67) [6/2790.08]
|   |   |   O3 = '(43.402-54.25]' : 113.27 (27/824.05) [14/322.59]
|   |   |   O3 = '(54.25-65.098]'
|   |   |   |   NO2 = '(9.818-19.626]' : 124.8 (3/468.22) [2/689.44]
|   |   |   |   NO2 = '(-inf-9.818]' : 442 (1/0) [0/0]
|   |   |   |   NO2 = '(19.626-29.434]' : 159 (2/1849) [0/0]
|   |   |   |   NO2 = '(29.434-39.242]' : 140 (3/152.89) [1/2567.11]
|   |   |   |   NO2 = '(39.242-49.05]' : 132 (1/0) [1/36]
|   |   |   |   NO2 = '(49.05-58.858]' : 140 (1/0) [0/0]
|   |   |   |   NO2 = '(58.858-68.666]' : 156.53 (0/0) [0/0]
|   |   |   |   NO2 = '(78.474-88.282]' : 156.53 (0/0) [0/0]
|   |   |   |   NO2 = '(68.666-78.474]' : 156.53 (0/0) [0/0]
|   |   |   |   NO2 = '(88.282-inf)' : 156.53 (0/0) [0/0]
|   |   |   O3 = '(65.098-75.946]' : 159 (6/1156.47) [3/985.14]
|   |   |   O3 = '(21.706-32.554]' : 120.84 (42/996.3) [32/3789.19]
|   |   |   O3 = '(10.858-21.706]'
|   |   |   |   Xylene = '(3.768-4.396]' : 106.95 (0/0) [0/0]
|   |   |   |   Xylene = '(0.628-1.256]' : 106.95 (0/0) [0/0]
|   |   |   |   Xylene = '(-inf-0.628]' : 127.29 (13/351.61) [8/285.81]
|   |   |   |   Xylene = '(1.256-1.884]' : 106.95 (0/0) [0/0]
|   |   |   |   Xylene = '(1.884-2.512]' : 106.95 (0/0) [0/0]
|   |   |   |   Xylene = '(3.14-3.768]' : 144 (1/0) [0/0]
|   |   |   |   Xylene = '(2.512-3.14]'
|   |   |   |   |   NO = '(-inf-5.179]'
|   |   |   |   |   |   Toluene = '(3.082-6.164]' : 79 (0/0) [1/745.29]
|   |   |   |   |   |   Toluene = '(9.246-12.328]' : 101.93 (0/0) [0/0]
|   |   |   |   |   |   Toluene = '(-inf-3.082]' : 95.82 (8/756.86) [3/441.1]
|   |   |   |   |   |   Toluene = '(6.164-9.246]' : 132 (2/1681) [1/576]
|   |   |   |   |   |   Toluene = '(15.41-18.492]' : 101.93 (0/0) [0/0]
|   |   |   |   |   |   Toluene = '(21.574-24.656]' : 101.93 (0/0) [0/0]
|   |   |   |   |   |   Toluene = '(12.328-15.41]' : 101.93 (0/0) [0/0]
|   |   |   |   |   |   Toluene = '(18.492-21.574]' : 101.93 (0/0) [0/0]
|   |   |   |   |   |   Toluene = '(27.738-inf)' : 101.93 (0/0) [0/0]
|   |   |   |   |   |   Toluene = '(24.656-27.738]' : 101.93 (0/0) [0/0]
|   |   |   |   |   NO = '(15.497-20.656]' : 92.38 (4/268.5) [4/281.25]
|   |   |   |   |   NO = '(5.179-10.338]'
|   |   |   |   |   |   NO2 = '(9.818-19.626]'
|   |   |   |   |   |   |   Benzene = '(2.472-3.708]' : 110.88 (4/201) [4/779.25]
|   |   |   |   |   |   |   Benzene = '(3.708-4.944]' : 99.61 (0/0) [0/0]
|   |   |   |   |   |   |   Benzene = '(-inf-1.236]' : 101.25 (3/29.56) [1/312.11]
|   |   |   |   |   |   |   Benzene = '(4.944-6.18]' : 103 (2/9) [0/0]
|   |   |   |   |   |   |   Benzene = '(1.236-2.472]'
|   |   |   |   |   |   |   |   SO2 = '(23.872-27.844]' : 88.11 (0/0) [0/0]
|   |   |   |   |   |   |   |   SO2 = '(15.928-19.9]' : 88.11 (0/0) [0/0]
|   |   |   |   |   |   |   |   SO2 = '(7.984-11.956]' : 109 (1/0) [0/0]
|   |   |   |   |   |   |   |   SO2 = '(27.844-31.816]' : 88.11 (0/0) [0/0]
|   |   |   |   |   |   |   |   SO2 = '(35.788-inf)' : 88.11 (0/0) [0/0]
|   |   |   |   |   |   |   |   SO2 = '(31.816-35.788]' : 88.11 (0/0) [0/0]
|   |   |   |   |   |   |   |   SO2 = '(11.956-15.928]' : 88.11 (0/0) [0/0]
|   |   |   |   |   |   |   |   SO2 = '(19.9-23.872]' : 88.11 (0/0) [0/0]
|   |   |   |   |   |   |   |   SO2 = '(-inf-4.012]' : 88 (3/534.22) [1/860.44]
|   |   |   |   |   |   |   |   SO2 = '(4.012-7.984]' : 83 (2/2.25) [2/183.25]
|   |   |   |   |   |   |   Benzene = '(6.18-7.416]' : 99.61 (0/0) [0/0]
|   |   |   |   |   |   |   Benzene = '(7.416-8.652]' : 99.61 (0/0) [0/0]
|   |   |   |   |   |   |   Benzene = '(11.124-inf)' : 99.61 (0/0) [0/0]
|   |   |   |   |   |   |   Benzene = '(8.652-9.888]' : 99.61 (0/0) [0/0]
|   |   |   |   |   |   |   Benzene = '(9.888-11.124]' : 99.61 (0/0) [0/0]
|   |   |   |   |   |   NO2 = '(-inf-9.818]' : 82 (1/0) [0/0]
|   |   |   |   |   |   NO2 = '(19.626-29.434]' : 96.91 (6/271.33) [5/1326.2]
|   |   |   |   |   |   NO2 = '(29.434-39.242]' : 139 (1/0) [0/0]
|   |   |   |   |   |   NO2 = '(39.242-49.05]' : 99.14 (0/0) [0/0]
|   |   |   |   |   |   NO2 = '(49.05-58.858]' : 99.14 (0/0) [0/0]
|   |   |   |   |   |   NO2 = '(58.858-68.666]' : 99.14 (0/0) [0/0]
|   |   |   |   |   |   NO2 = '(78.474-88.282]' : 99.14 (0/0) [0/0]
|   |   |   |   |   |   NO2 = '(68.666-78.474]' : 90 (1/0) [0/0]
|   |   |   |   |   |   NO2 = '(88.282-inf)' : 99.14 (0/0) [0/0]
|   |   |   |   |   NO = '(10.338-15.497]' : 98.75 (9/310.22) [3/1913]
|   |   |   |   |   NO = '(20.656-25.815]' : 91 (1/0) [0/0]
|   |   |   |   |   NO = '(25.815-30.974]' : 133 (1/0) [0/0]
|   |   |   |   |   NO = '(41.292-46.451]' : 100.42 (0/0) [0/0]
|   |   |   |   |   NO = '(46.451-inf)' : 100.42 (0/0) [0/0]
|   |   |   |   |   NO = '(36.133-41.292]' : 100.42 (0/0) [0/0]
|   |   |   |   |   NO = '(30.974-36.133]' : 143.5 (1/0) [1/25]
|   |   |   |   Xylene = '(5.652-inf)' : 112 (1/0) [1/64]
|   |   |   |   Xylene = '(4.396-5.024]' : 118 (1/0) [0/0]
|   |   |   |   Xylene = '(5.024-5.652]' : 118 (1/0) [0/0]
|   |   |   O3 = '(86.794-97.642]' : 115.53 (0/0) [0/0]
|   |   |   O3 = '(75.946-86.794]' : 130.4 (4/379.25) [1/20.25]
|   |   |   O3 = '(97.642-inf)' : 162 (2/16) [0/0]
|   |   CO = '(3.132-3.654]' : 116.13 (7/2365.43) [1/289]
|   |   CO = '(3.654-4.176]' : 140.6 (1/0) [4/3526.5]
|   |   CO = '(4.176-4.698]' : 170.8 (3/2562.89) [2/2944.44]
|   |   CO = '(-inf-0.522]' : 98.53 (192/749.27) [84/962.46]
|   |   CO = '(4.698-inf)' : 164 (1/0) [1/4]
|   |   CO = '(2.61-3.132]' : 138.35 (15/1457.05) [5/782.43]
|   PM10 = '(93.81-117.26]'
|   |   O3 = '(32.554-43.402]'
|   |   |   NOx = '(9.999-19.998]' : 104.19 (16/127.62) [11/89.86]
|   |   |   NOx = '(-inf-9.999]' : 97.6 (15/486.56) [5/147.52]
|   |   |   NOx = '(19.998-29.997]'
|   |   |   |   Xylene = '(3.768-4.396]' : 107.61 (0/0) [0/0]
|   |   |   |   Xylene = '(0.628-1.256]' : 109 (4/12.5) [5/230.4]
|   |   |   |   Xylene = '(-inf-0.628]' : 119.8 (8/306.69) [2/105.06]
|   |   |   |   Xylene = '(1.256-1.884]' : 102.6 (4/15.5) [1/324]
|   |   |   |   Xylene = '(1.884-2.512]' : 100.6 (6/97) [4/176.5]
|   |   |   |   Xylene = '(3.14-3.768]' : 82 (0/0) [1/631.78]
|   |   |   |   Xylene = '(2.512-3.14]' : 105.76 (13/224.25) [4/185.33]
|   |   |   |   Xylene = '(5.652-inf)' : 116.67 (2/36) [1/676]
|   |   |   |   Xylene = '(4.396-5.024]' : 107 (0/0) [1/0.02]
|   |   |   |   Xylene = '(5.024-5.652]' : 99 (0/0) [1/66.18]
|   |   |   NOx = '(29.997-39.996]'
|   |   |   |   NH3 = '(23.114-28.89]' : 111.88 (6/129.58) [2/123.25]
|   |   |   |   NH3 = '(28.89-34.666]' : 113.14 (6/276.81) [1/0.03]
|   |   |   |   NH3 = '(17.338-23.114]' : 109.57 (12/91.25) [2/25.25]
|   |   |   |   NH3 = '(11.562-17.338]' : 100.57 (5/20.56) [2/49.54]
|   |   |   |   NH3 = '(5.786-11.562]' : 124.33 (1/0) [5/857.2]
|   |   |   |   NH3 = '(-inf-5.786]' : 102.75 (4/190.69) [0/0]
|   |   |   |   NH3 = '(34.666-40.442]' : 116.33 (2/49) [1/16]
|   |   |   |   NH3 = '(40.442-46.218]' : 108 (2/1) [0/0]
|   |   |   |   NH3 = '(46.218-51.994]' : 108 (1/0) [0/0]
|   |   |   |   NH3 = '(51.994-inf)' : 98.33 (1/0) [2/185]
|   |   |   NOx = '(39.996-49.995]'
|   |   |   |   NH3 = '(23.114-28.89]' : 116.4 (2/9) [3/181.67]
|   |   |   |   NH3 = '(28.89-34.666]' : 135 (1/0) [0/0]
|   |   |   |   NH3 = '(17.338-23.114]' : 104.25 (3/78) [1/1]
|   |   |   |   NH3 = '(11.562-17.338]' : 98 (1/0) [2/2.5]
|   |   |   |   NH3 = '(5.786-11.562]' : 134 (0/0) [1/228.01]
|   |   |   |   NH3 = '(-inf-5.786]' : 113 (1/0) [0/0]
|   |   |   |   NH3 = '(34.666-40.442]' : 148 (1/0) [0/0]
|   |   |   |   NH3 = '(40.442-46.218]' : 115.94 (0/0) [0/0]
|   |   |   |   NH3 = '(46.218-51.994]' : 148 (1/0) [0/0]
|   |   |   |   NH3 = '(51.994-inf)' : 115.94 (0/0) [0/0]
|   |   |   NOx = '(69.993-79.992]' : 142 (2/1296) [0/0]
|   |   |   NOx = '(49.995-59.994]' : 109 (11/55.42) [1/4.76]
|   |   |   NOx = '(59.994-69.993]' : 102 (2/12.25) [2/73.25]
|   |   |   NOx = '(79.992-89.991]' : 142 (0/0) [1/1164.64]
|   |   |   NOx = '(89.991-inf)' : 130 (1/0) [0/0]
|   |   O3 = '(-inf-10.858]' : 101.84 (33/193.04) [17/94.4]
|   |   O3 = '(43.402-54.25]' : 113.78 (134/301.31) [67/242.97]
|   |   O3 = '(54.25-65.098]' : 116.64 (72/202.83) [46/247.07]
|   |   O3 = '(65.098-75.946]'
|   |   |   NOx = '(9.999-19.998]' : 128.82 (7/355.55) [4/211.13]
|   |   |   NOx = '(-inf-9.999]'
|   |   |   |   NO2 = '(9.818-19.626]' : 105 (2/36) [0/0]
|   |   |   |   NO2 = '(-inf-9.818]' : 146 (2/0) [0/0]
|   |   |   |   NO2 = '(19.626-29.434]' : 116 (1/0) [0/0]
|   |   |   |   NO2 = '(29.434-39.242]' : 103 (2/9) [1/36]
|   |   |   |   NO2 = '(39.242-49.05]' : 117 (1/0) [0/0]
|   |   |   |   NO2 = '(49.05-58.858]' : 106 (1/0) [0/0]
|   |   |   |   NO2 = '(58.858-68.666]' : 137 (0/0) [1/408.94]
|   |   |   |   NO2 = '(78.474-88.282]' : 117 (0/0) [0/0]
|   |   |   |   NO2 = '(68.666-78.474]' : 117 (0/0) [0/0]
|   |   |   |   NO2 = '(88.282-inf)' : 117 (0/0) [0/0]
|   |   |   NOx = '(19.998-29.997]' : 115.27 (10/185.41) [1/127.69]
|   |   |   NOx = '(29.997-39.996]' : 119.38 (11/114.33) [5/137.27]
|   |   |   NOx = '(39.996-49.995]' : 115.33 (3/74.89) [3/101.11]
|   |   |   NOx = '(69.993-79.992]' : 123.33 (0/0) [0/0]
|   |   |   NOx = '(49.995-59.994]' : 147.33 (2/4) [1/4096]
|   |   |   NOx = '(59.994-69.993]' : 192 (1/0) [1/100]
|   |   |   NOx = '(79.992-89.991]' : 123.33 (0/0) [0/0]
|   |   |   NOx = '(89.991-inf)' : 123.33 (0/0) [0/0]
|   |   O3 = '(21.706-32.554]'
|   |   |   CO = '(0.522-1.044]' : 105.49 (73/285.47) [35/92.71]
|   |   |   CO = '(1.566-2.088]' : 114 (3/130.89) [4/345.44]
|   |   |   CO = '(2.088-2.61]' : 124.75 (5/863.2) [3/200.67]
|   |   |   CO = '(1.044-1.566]' : 114.14 (9/52.44) [12/246.11]
|   |   |   CO = '(3.132-3.654]' : 128.5 (3/233.56) [1/277.78]
|   |   |   CO = '(3.654-4.176]' : 107.02 (0/0) [0/0]
|   |   |   CO = '(4.176-4.698]' : 107.02 (0/0) [0/0]
|   |   |   CO = '(-inf-0.522]' : 98.92 (24/113.25) [12/145.32]
|   |   |   CO = '(4.698-inf)' : 107.02 (0/0) [0/0]
|   |   |   CO = '(2.61-3.132]' : 113 (2/0.25) [3/0.92]
|   |   O3 = '(10.858-21.706]'
|   |   |   CO = '(0.522-1.044]' : 106.39 (44/142.47) [18/70.48]
|   |   |   CO = '(1.566-2.088]' : 132.63 (5/309.04) [3/251.16]
|   |   |   CO = '(2.088-2.61]' : 111.31 (9/89.8) [4/698.14]
|   |   |   CO = '(1.044-1.566]'
|   |   |   |   Benzene = '(2.472-3.708]' : 97.67 (2/25) [1/25]
|   |   |   |   Benzene = '(3.708-4.944]' : 138.33 (3/70.22) [0/0]
|   |   |   |   Benzene = '(-inf-1.236]' : 96.5 (1/0) [1/729]
|   |   |   |   Benzene = '(4.944-6.18]' : 99.5 (2/6.25) [0/0]
|   |   |   |   Benzene = '(1.236-2.472]' : 110 (0/0) [0/0]
|   |   |   |   Benzene = '(6.18-7.416]' : 110 (0/0) [0/0]
|   |   |   |   Benzene = '(7.416-8.652]' : 110 (0/0) [0/0]
|   |   |   |   Benzene = '(11.124-inf)' : 110 (0/0) [0/0]
|   |   |   |   Benzene = '(8.652-9.888]' : 110 (0/0) [0/0]
|   |   |   |   Benzene = '(9.888-11.124]' : 110 (0/0) [0/0]
|   |   |   CO = '(3.132-3.654]' : 124 (2/0) [1/324]
|   |   |   CO = '(3.654-4.176]' : 108.67 (0/0) [0/0]
|   |   |   CO = '(4.176-4.698]' : 108.67 (0/0) [0/0]
|   |   |   CO = '(-inf-0.522]'
|   |   |   |   Toluene = '(3.082-6.164]' : 101 (1/0) [0/0]
|   |   |   |   Toluene = '(9.246-12.328]' : 117 (1/0) [0/0]
|   |   |   |   Toluene = '(-inf-3.082]'
|   |   |   |   |   NOx = '(9.999-19.998]' : 96.13 (0/0) [0/0]
|   |   |   |   |   NOx = '(-inf-9.999]' : 81 (2/0) [1/1521]
|   |   |   |   |   NOx = '(19.998-29.997]' : 112 (1/0) [1/100]
|   |   |   |   |   NOx = '(29.997-39.996]' : 101.5 (2/2.25) [0/0]
|   |   |   |   |   NOx = '(39.996-49.995]' : 99 (1/0) [0/0]
|   |   |   |   |   NOx = '(69.993-79.992]' : 96.13 (0/0) [0/0]
|   |   |   |   |   NOx = '(49.995-59.994]' : 96.13 (0/0) [0/0]
|   |   |   |   |   NOx = '(59.994-69.993]' : 96.13 (0/0) [0/0]
|   |   |   |   |   NOx = '(79.992-89.991]' : 96.13 (0/0) [0/0]
|   |   |   |   |   NOx = '(89.991-inf)' : 96.13 (0/0) [0/0]
|   |   |   |   Toluene = '(6.164-9.246]' : 101.57 (4/118.5) [3/279]
|   |   |   |   Toluene = '(15.41-18.492]' : 99.88 (0/0) [0/0]
|   |   |   |   Toluene = '(21.574-24.656]' : 99.88 (0/0) [0/0]
|   |   |   |   Toluene = '(12.328-15.41]' : 99.88 (0/0) [0/0]
|   |   |   |   Toluene = '(18.492-21.574]' : 99.88 (0/0) [0/0]
|   |   |   |   Toluene = '(27.738-inf)' : 99.88 (0/0) [0/0]
|   |   |   |   Toluene = '(24.656-27.738]' : 99.88 (0/0) [0/0]
|   |   |   CO = '(4.698-inf)' : 108.67 (0/0) [0/0]
|   |   |   CO = '(2.61-3.132]' : 114 (0/0) [1/24.01]
|   |   O3 = '(86.794-97.642]' : 122.8 (7/543.39) [3/20.8]
|   |   O3 = '(75.946-86.794]'
|   |   |   NH3 = '(23.114-28.89]' : 110.25 (1/0) [3/401]
|   |   |   NH3 = '(28.89-34.666]' : 116 (1/0) [1/0]
|   |   |   NH3 = '(17.338-23.114]' : 131 (2/64) [1/36]
|   |   |   NH3 = '(11.562-17.338]' : 123.38 (5/226.4) [3/53.67]
|   |   |   NH3 = '(5.786-11.562]' : 107.2 (2/9) [3/38.67]
|   |   |   NH3 = '(-inf-5.786]' : 129.17 (3/233.56) [3/460.78]
|   |   |   NH3 = '(34.666-40.442]' : 119.69 (0/0) [0/0]
|   |   |   NH3 = '(40.442-46.218]' : 107 (1/0) [0/0]
|   |   |   NH3 = '(46.218-51.994]' : 119.69 (0/0) [0/0]
|   |   |   NH3 = '(51.994-inf)' : 119.69 (0/0) [0/0]
|   |   O3 = '(97.642-inf)' : 133 (2/36) [0/0]
|   PM10 = '(70.36-93.81]'
|   |   O3 = '(32.554-43.402]' : 99.34 (103/460.43) [52/347.03]
|   |   O3 = '(-inf-10.858]'
|   |   |   NH3 = '(23.114-28.89]' : 77 (5/48.4) [0/0]
|   |   |   NH3 = '(28.89-34.666]' : 90 (3/60.67) [3/988]
|   |   |   NH3 = '(17.338-23.114]' : 93 (4/195.5) [0/0]
|   |   |   NH3 = '(11.562-17.338]' : 71.33 (1/0) [2/181]
|   |   |   NH3 = '(5.786-11.562]' : 93.56 (11/153.83) [5/44.18]
|   |   |   NH3 = '(-inf-5.786]' : 88.12 (14/391.55) [3/17.78]
|   |   |   NH3 = '(34.666-40.442]' : 116.5 (0/0) [2/966.25]
|   |   |   NH3 = '(40.442-46.218]'
|   |   |   |   CO = '(0.522-1.044]' : 82.5 (2/6.25) [0/0]
|   |   |   |   CO = '(1.566-2.088]' : 99.67 (2/0.25) [1/72.25]
|   |   |   |   CO = '(2.088-2.61]' : 100.57 (0/0) [0/0]
|   |   |   |   CO = '(1.044-1.566]' : 100.57 (0/0) [0/0]
|   |   |   |   CO = '(3.132-3.654]' : 100.57 (0/0) [0/0]
|   |   |   |   CO = '(3.654-4.176]' : 100.57 (0/0) [0/0]
|   |   |   |   CO = '(4.176-4.698]' : 100.57 (0/0) [0/0]
|   |   |   |   CO = '(-inf-0.522]' : 100.57 (0/0) [0/0]
|   |   |   |   CO = '(4.698-inf)' : 100.57 (0/0) [0/0]
|   |   |   |   CO = '(2.61-3.132]' : 120 (1/0) [1/144]
|   |   |   NH3 = '(46.218-51.994]' : 97.5 (2/210.25) [0/0]
|   |   |   NH3 = '(51.994-inf)' : 44 (1/0) [0/0]
|   |   O3 = '(43.402-54.25]'
|   |   |   NH3 = '(23.114-28.89]'
|   |   |   |   SO2 = '(23.872-27.844]' : 108.69 (0/0) [0/0]
|   |   |   |   SO2 = '(15.928-19.9]' : 108.69 (0/0) [0/0]
|   |   |   |   SO2 = '(7.984-11.956]' : 98.83 (5/34.16) [1/4.84]
|   |   |   |   SO2 = '(27.844-31.816]' : 108.69 (0/0) [0/0]
|   |   |   |   SO2 = '(35.788-inf)' : 108.69 (0/0) [0/0]
|   |   |   |   SO2 = '(31.816-35.788]' : 108.69 (0/0) [0/0]
|   |   |   |   SO2 = '(11.956-15.928]' : 104 (4/14) [0/0]
|   |   |   |   SO2 = '(19.9-23.872]' : 103 (0/0) [1/48.01]
|   |   |   |   SO2 = '(-inf-4.012]' : 99.67 (3/80.22) [0/0]
|   |   |   |   SO2 = '(4.012-7.984]' : 164 (2/841) [0/0]
|   |   |   NH3 = '(28.89-34.666]' : 103.17 (2/9) [4/99.75]
|   |   |   NH3 = '(17.338-23.114]' : 100 (19/303.4) [5/236.64]
|   |   |   NH3 = '(11.562-17.338]' : 98.57 (28/151.08) [9/183.64]
|   |   |   NH3 = '(5.786-11.562]' : 97.2 (17/151.83) [8/973.2]
|   |   |   NH3 = '(-inf-5.786]' : 93.08 (8/430.5) [5/78.4]
|   |   |   NH3 = '(34.666-40.442]' : 126.38 (5/702.64) [3/637.83]
|   |   |   NH3 = '(40.442-46.218]' : 84 (2/121) [0/0]
|   |   |   NH3 = '(46.218-51.994]' : 120 (1/0) [0/0]
|   |   |   NH3 = '(51.994-inf)' : 88.5 (1/0) [1/121]
|   |   O3 = '(54.25-65.098]'
|   |   |   NH3 = '(23.114-28.89]' : 109.89 (6/130.89) [3/1764.78]
|   |   |   NH3 = '(28.89-34.666]' : 105.5 (5/62.24) [1/29.16]
|   |   |   NH3 = '(17.338-23.114]'
|   |   |   |   Toluene = '(3.082-6.164]' : 123.2 (4/168.19) [1/3277.56]
|   |   |   |   Toluene = '(9.246-12.328]' : 117 (1/0) [0/0]
|   |   |   |   Toluene = '(-inf-3.082]' : 109 (2/0) [0/0]
|   |   |   |   Toluene = '(6.164-9.246]' : 104.5 (3/24) [1/36]
|   |   |   |   Toluene = '(15.41-18.492]' : 116 (0/0) [0/0]
|   |   |   |   Toluene = '(21.574-24.656]' : 116 (0/0) [0/0]
|   |   |   |   Toluene = '(12.328-15.41]' : 139 (1/0) [0/0]
|   |   |   |   Toluene = '(18.492-21.574]' : 116 (0/0) [0/0]
|   |   |   |   Toluene = '(27.738-inf)' : 116 (0/0) [0/0]
|   |   |   |   Toluene = '(24.656-27.738]' : 116 (0/0) [0/0]
|   |   |   NH3 = '(11.562-17.338]' : 102.54 (15/207.36) [13/74.75]
|   |   |   NH3 = '(5.786-11.562]'
|   |   |   |   Xylene = '(3.768-4.396]' : 101.74 (0/0) [0/0]
|   |   |   |   Xylene = '(0.628-1.256]' : 116.33 (2/0.25) [1/306.25]
|   |   |   |   Xylene = '(-inf-0.628]' : 97.5 (2/12.25) [0/0]
|   |   |   |   Xylene = '(1.256-1.884]' : 90 (1/0) [1/64]
|   |   |   |   Xylene = '(1.884-2.512]' : 121.67 (2/30.25) [1/306.25]
|   |   |   |   Xylene = '(3.14-3.768]' : 101.74 (0/0) [0/0]
|   |   |   |   Xylene = '(2.512-3.14]' : 92.75 (8/34.69) [0/0]
|   |   |   |   Xylene = '(5.652-inf)' : 102 (1/0) [0/0]
|   |   |   |   Xylene = '(4.396-5.024]' : 101.74 (0/0) [0/0]
|   |   |   |   Xylene = '(5.024-5.652]' : 101.74 (0/0) [0/0]
|   |   |   NH3 = '(-inf-5.786]' : 98.92 (8/286.5) [5/146.6]
|   |   |   NH3 = '(34.666-40.442]' : 158 (1/0) [0/0]
|   |   |   NH3 = '(40.442-46.218]' : 105.37 (0/0) [0/0]
|   |   |   NH3 = '(46.218-51.994]' : 105.37 (0/0) [0/0]
|   |   |   NH3 = '(51.994-inf)' : 105.37 (0/0) [0/0]
|   |   O3 = '(65.098-75.946]' : 114.16 (27/776.1) [18/208.35]
|   |   O3 = '(21.706-32.554]' : 96.32 (98/385.41) [57/480.44]
|   |   O3 = '(10.858-21.706]'
|   |   |   NH3 = '(23.114-28.89]' : 97.1 (5/168.24) [5/898.92]
|   |   |   NH3 = '(28.89-34.666]' : 100.25 (3/14) [1/25]
|   |   |   NH3 = '(17.338-23.114]' : 90.92 (10/142.09) [3/246.54]
|   |   |   NH3 = '(11.562-17.338]'
|   |   |   |   CO = '(0.522-1.044]'
|   |   |   |   |   Xylene = '(3.768-4.396]' : 83.77 (0/0) [0/0]
|   |   |   |   |   Xylene = '(0.628-1.256]' : 83.77 (0/0) [0/0]
|   |   |   |   |   Xylene = '(-inf-0.628]' : 68 (1/0) [1/196]
|   |   |   |   |   Xylene = '(1.256-1.884]' : 97 (2/4) [0/0]
|   |   |   |   |   Xylene = '(1.884-2.512]' : 79.5 (1/0) [1/225]
|   |   |   |   |   Xylene = '(3.14-3.768]' : 83.77 (0/0) [0/0]
|   |   |   |   |   Xylene = '(2.512-3.14]' : 85.71 (3/34.67) [4/187.5]
|   |   |   |   |   Xylene = '(5.652-inf)' : 83.77 (0/0) [0/0]
|   |   |   |   |   Xylene = '(4.396-5.024]' : 83.77 (0/0) [0/0]
|   |   |   |   |   Xylene = '(5.024-5.652]' : 83.77 (0/0) [0/0]
|   |   |   |   CO = '(1.566-2.088]' : 91 (1/0) [0/0]
|   |   |   |   CO = '(2.088-2.61]' : 106.67 (1/0) [2/4]
|   |   |   |   CO = '(1.044-1.566]' : 87 (0/0) [0/0]
|   |   |   |   CO = '(3.132-3.654]' : 87 (0/0) [0/0]
|   |   |   |   CO = '(3.654-4.176]' : 87 (0/0) [0/0]
|   |   |   |   CO = '(4.176-4.698]' : 87 (0/0) [0/0]
|   |   |   |   CO = '(-inf-0.522]' : 84.9 (4/10.5) [6/450.5]
|   |   |   |   CO = '(4.698-inf)' : 87 (0/0) [0/0]
|   |   |   |   CO = '(2.61-3.132]' : 87 (0/0) [0/0]
|   |   |   NH3 = '(5.786-11.562]' : 95.19 (25/577.29) [11/266.82]
|   |   |   NH3 = '(-inf-5.786]' : 88.06 (11/127.6) [7/112.33]
|   |   |   NH3 = '(34.666-40.442]' : 99.2 (4/99.5) [1/1]
|   |   |   NH3 = '(40.442-46.218]' : 126.6 (3/797.56) [2/634.78]
|   |   |   NH3 = '(46.218-51.994]' : 93.55 (0/0) [0/0]
|   |   |   NH3 = '(51.994-inf)' : 88 (1/0) [0/0]
|   |   O3 = '(86.794-97.642]' : 108.6 (4/107.5) [1/529]
|   |   O3 = '(75.946-86.794]' : 134.24 (11/338.08) [6/102.07]
|   |   O3 = '(97.642-inf)' : 99.75 (0/0) [0/0]
|   PM10 = '(23.46-46.91]' : 88.72 (14/983.78) [15/1775.64]
|   PM10 = '(46.91-70.36]'
|   |   O3 = '(32.554-43.402]' : 83.56 (41/233.12) [29/389.89]
|   |   O3 = '(-inf-10.858]'
|   |   |   CO = '(0.522-1.044]' : 62.33 (3/13.56) [0/0]
|   |   |   CO = '(1.566-2.088]' : 98 (2/0) [2/45]
|   |   |   CO = '(2.088-2.61]' : 71.25 (3/48.22) [1/152.11]
|   |   |   CO = '(1.044-1.566]' : 83.91 (8/44.73) [3/39.56]
|   |   |   CO = '(3.132-3.654]' : 78.36 (0/0) [0/0]
|   |   |   CO = '(3.654-4.176]' : 78.36 (0/0) [0/0]
|   |   |   CO = '(4.176-4.698]' : 78.36 (0/0) [0/0]
|   |   |   CO = '(-inf-0.522]' : 74.65 (13/108.52) [4/308.83]
|   |   |   CO = '(4.698-inf)' : 78.36 (0/0) [0/0]
|   |   |   CO = '(2.61-3.132]' : 78.36 (0/0) [0/0]
|   |   O3 = '(43.402-54.25]'
|   |   |   SO2 = '(23.872-27.844]' : 67 (0/0) [1/750.47]
|   |   |   SO2 = '(15.928-19.9]' : 133.5 (4/4256.75) [0/0]
|   |   |   SO2 = '(7.984-11.956]' : 95.53 (11/257.6) [4/52.99]
|   |   |   SO2 = '(27.844-31.816]' : 91.56 (0/0) [0/0]
|   |   |   SO2 = '(35.788-inf)' : 91.56 (0/0) [0/0]
|   |   |   SO2 = '(31.816-35.788]' : 91.56 (0/0) [0/0]
|   |   |   SO2 = '(11.956-15.928]' : 75.57 (5/17.84) [2/59.06]
|   |   |   SO2 = '(19.9-23.872]' : 76.8 (4/18.25) [1/72.25]
|   |   |   SO2 = '(-inf-4.012]' : 92.88 (5/576.56) [3/86.84]
|   |   |   SO2 = '(4.012-7.984]' : 89.73 (9/90.84) [6/135.33]
|   |   O3 = '(54.25-65.098]'
|   |   |   NH3 = '(23.114-28.89]'
|   |   |   |   SO2 = '(23.872-27.844]' : 97.58 (0/0) [0/0]
|   |   |   |   SO2 = '(15.928-19.9]' : 97.58 (0/0) [0/0]
|   |   |   |   SO2 = '(7.984-11.956]' : 90.6 (3/1.56) [2/899.61]
|   |   |   |   SO2 = '(27.844-31.816]' : 97.58 (0/0) [0/0]
|   |   |   |   SO2 = '(35.788-inf)' : 97.58 (0/0) [0/0]
|   |   |   |   SO2 = '(31.816-35.788]' : 97.58 (0/0) [0/0]
|   |   |   |   SO2 = '(11.956-15.928]' : 97.67 (2/6.25) [1/12.25]
|   |   |   |   SO2 = '(19.9-23.872]' : 97.58 (0/0) [0/0]
|   |   |   |   SO2 = '(-inf-4.012]' : 85 (1/0) [0/0]
|   |   |   |   SO2 = '(4.012-7.984]' : 113.33 (1/0) [2/1300]
|   |   |   NH3 = '(28.89-34.666]' : 94.32 (0/0) [0/0]
|   |   |   NH3 = '(17.338-23.114]' : 100.5 (2/0.25) [0/0]
|   |   |   NH3 = '(11.562-17.338]' : 82 (1/0) [0/0]
|   |   |   NH3 = '(5.786-11.562]' : 96.5 (2/25) [4/9.75]
|   |   |   NH3 = '(-inf-5.786]' : 83.33 (6/6.56) [0/0]
|   |   |   NH3 = '(34.666-40.442]' : 94.32 (0/0) [0/0]
|   |   |   NH3 = '(40.442-46.218]' : 108 (1/0) [0/0]
|   |   |   NH3 = '(46.218-51.994]' : 94.32 (0/0) [0/0]
|   |   |   NH3 = '(51.994-inf)' : 94.32 (0/0) [0/0]
|   |   O3 = '(65.098-75.946]' : 107.67 (6/669.33) [6/305.67]
|   |   O3 = '(21.706-32.554]' : 84.88 (44/1074.34) [13/1114.02]
|   |   O3 = '(10.858-21.706]'
|   |   |   NH3 = '(23.114-28.89]' : 73.5 (2/64) [2/229]
|   |   |   NH3 = '(28.89-34.666]' : 75 (2/25) [0/0]
|   |   |   NH3 = '(17.338-23.114]' : 99.5 (2/20.25) [0/0]
|   |   |   NH3 = '(11.562-17.338]' : 80.45 (8/24.36) [3/554.77]
|   |   |   NH3 = '(5.786-11.562]'
|   |   |   |   Toluene = '(3.082-6.164]' : 80.67 (3/24.22) [0/0]
|   |   |   |   Toluene = '(9.246-12.328]' : 82.2 (0/0) [0/0]
|   |   |   |   Toluene = '(-inf-3.082]' : 70.67 (6/92.22) [0/0]
|   |   |   |   Toluene = '(6.164-9.246]' : 98.8 (4/242.75) [1/132.25]
|   |   |   |   Toluene = '(15.41-18.492]' : 82.2 (0/0) [0/0]
|   |   |   |   Toluene = '(21.574-24.656]' : 82.2 (0/0) [0/0]
|   |   |   |   Toluene = '(12.328-15.41]' : 73 (1/0) [0/0]
|   |   |   |   Toluene = '(18.492-21.574]' : 82.2 (0/0) [0/0]
|   |   |   |   Toluene = '(27.738-inf)' : 82.2 (0/0) [0/0]
|   |   |   |   Toluene = '(24.656-27.738]' : 82.2 (0/0) [0/0]
|   |   |   NH3 = '(-inf-5.786]' : 70.38 (5/46.16) [3/577.51]
|   |   |   NH3 = '(34.666-40.442]' : 80.02 (0/0) [0/0]
|   |   |   NH3 = '(40.442-46.218]' : 117 (0/0) [1/1481.08]
|   |   |   NH3 = '(46.218-51.994]' : 80.02 (0/0) [0/0]
|   |   |   NH3 = '(51.994-inf)' : 80.02 (0/0) [0/0]
|   |   O3 = '(86.794-97.642]' : 113.5 (3/194.89) [1/4011.11]
|   |   O3 = '(75.946-86.794]' : 142.5 (2/506.25) [0/0]
|   |   O3 = '(97.642-inf)' : 86.75 (0/0) [0/0]
|   PM10 = '(-inf-23.46]' : 91.56 (7/574.57) [2/288.5]
|   PM10 = '(164.16-187.61]'
|   |   O3 = '(32.554-43.402]'
|   |   |   Benzene = '(2.472-3.708]' : 203.8 (2/100) [3/8782.67]
|   |   |   Benzene = '(3.708-4.944]' : 159.65 (0/0) [0/0]
|   |   |   Benzene = '(-inf-1.236]' : 141.57 (4/283.25) [3/108.92]
|   |   |   Benzene = '(4.944-6.18]' : 159.65 (0/0) [0/0]
|   |   |   Benzene = '(1.236-2.472]' : 152 (1/0) [1/16]
|   |   |   Benzene = '(6.18-7.416]' : 141.5 (1/0) [1/9]
|   |   |   Benzene = '(7.416-8.652]' : 117 (1/0) [0/0]
|   |   |   Benzene = '(11.124-inf)' : 159.65 (0/0) [0/0]
|   |   |   Benzene = '(8.652-9.888]' : 159.65 (0/0) [0/0]
|   |   |   Benzene = '(9.888-11.124]' : 159.65 (0/0) [0/0]
|   |   O3 = '(-inf-10.858]' : 157.5 (4/76.25) [4/2411.25]
|   |   O3 = '(43.402-54.25]'
|   |   |   NOx = '(9.999-19.998]' : 143 (1/0) [0/0]
|   |   |   NOx = '(-inf-9.999]' : 152.63 (0/0) [0/0]
|   |   |   NOx = '(19.998-29.997]' : 166 (1/0) [1/256]
|   |   |   NOx = '(29.997-39.996]' : 157.6 (3/12.67) [2/242.5]
|   |   |   NOx = '(39.996-49.995]' : 132.33 (3/27.56) [0/0]
|   |   |   NOx = '(69.993-79.992]' : 153.5 (2/20.25) [0/0]
|   |   |   NOx = '(49.995-59.994]' : 136 (1/0) [0/0]
|   |   |   NOx = '(59.994-69.993]' : 199 (0/0) [1/2713.46]
|   |   |   NOx = '(79.992-89.991]' : 140 (0/0) [1/47.74]
|   |   |   NOx = '(89.991-inf)' : 152.63 (0/0) [0/0]
|   |   O3 = '(54.25-65.098]' : 154.7 (7/144.12) [3/618.4]
|   |   O3 = '(65.098-75.946]' : 167.91 (5/285.04) [6/4051.46]
|   |   O3 = '(21.706-32.554]' : 145.78 (10/117.44) [8/2920.06]
|   |   O3 = '(10.858-21.706]' : 145.86 (6/650.92) [1/90.25]
|   |   O3 = '(86.794-97.642]' : 155.5 (2/110.25) [0/0]
|   |   O3 = '(75.946-86.794]' : 155.94 (0/0) [0/0]
|   |   O3 = '(97.642-inf)' : 269 (1/0) [0/0]
|   PM10 = '(187.61-211.06]'
|   |   NOx = '(9.999-19.998]' : 157.33 (5/306.4) [1/676]
|   |   NOx = '(-inf-9.999]' : 85 (1/0) [0/0]
|   |   NOx = '(19.998-29.997]' : 155.38 (6/521.25) [2/2108.25]
|   |   NOx = '(29.997-39.996]' : 165 (6/366.33) [1/784]
|   |   NOx = '(39.996-49.995]' : 138 (1/0) [2/74.5]
|   |   NOx = '(69.993-79.992]' : 224 (1/0) [1/256]
|   |   NOx = '(49.995-59.994]' : 170.33 (1/0) [2/13]
|   |   NOx = '(59.994-69.993]' : 242.5 (2/6.25) [0/0]
|   |   NOx = '(79.992-89.991]' : 132 (1/0) [0/0]
|   |   NOx = '(89.991-inf)' : 164.15 (0/0) [0/0]
|   PM10 = '(140.71-164.16]'
|   |   O3 = '(32.554-43.402]' : 131.13 (35/368.17) [18/133.66]
|   |   O3 = '(-inf-10.858]' : 112.5 (2/42.25) [0/0]
|   |   O3 = '(43.402-54.25]' : 136.04 (30/603.77) [16/291.19]
|   |   O3 = '(54.25-65.098]' : 151.96 (19/1312.64) [9/125.97]
|   |   O3 = '(65.098-75.946]' : 150.07 (11/303.7) [4/918.91]
|   |   O3 = '(21.706-32.554]' : 130.36 (20/300.05) [8/124.56]
|   |   O3 = '(10.858-21.706]' : 124.79 (18/219.25) [10/152.43]
|   |   O3 = '(86.794-97.642]' : 181 (0/0) [1/1932.28]
|   |   O3 = '(75.946-86.794]' : 145.9 (5/275.84) [5/395.64]
|   |   O3 = '(97.642-inf)' : 163.5 (2/870.25) [0/0]
|   PM10 = '(211.06-inf)'
|   |   SO2 = '(23.872-27.844]' : 172.17 (3/38) [3/61.67]
|   |   SO2 = '(15.928-19.9]' : 140 (1/0) [1/256]
|   |   SO2 = '(7.984-11.956]' : 192.8 (4/1567.25) [1/552.25]
|   |   SO2 = '(27.844-31.816]' : 161 (0/0) [1/1273.94]
|   |   SO2 = '(35.788-inf)' : 168 (0/0) [1/823.25]
|   |   SO2 = '(31.816-35.788]' : 117 (1/0) [0/0]
|   |   SO2 = '(11.956-15.928]' : 283.33 (2/2.25) [1/342.25]
|   |   SO2 = '(19.9-23.872]' : 210 (0/0) [1/177.09]
|   |   SO2 = '(-inf-4.012]' : 140 (0/0) [1/3214.02]
|   |   SO2 = '(4.012-7.984]' : 176.33 (2/272.25) [1/7656.25]
PM2.5 = '(154.4-173.695]' : 321.39 (124/2147.35) [57/2968.89]
PM2.5 = '(115.81-135.105]'
|   PM10 = '(117.26-140.71]' : 277.99 (131/2370.57) [68/1245.04]
|   PM10 = '(93.81-117.26]' : 210.63 (4/330.69) [4/3186.81]
|   PM10 = '(70.36-93.81]' : 248 (1/0) [1/33856]
|   PM10 = '(23.46-46.91]' : 272.13 (0/0) [0/0]
|   PM10 = '(46.91-70.36]' : 122.5 (2/6.25) [0/0]
|   PM10 = '(-inf-23.46]' : 174 (1/0) [0/0]
|   PM10 = '(164.16-187.61]' : 261.68 (14/544.49) [14/1824.68]
|   PM10 = '(187.61-211.06]' : 281.47 (37/1193.21) [12/746.07]
|   PM10 = '(140.71-164.16]' : 220.89 (6/2747.67) [3/627.67]
|   PM10 = '(211.06-inf)' : 273.47 (32/1356.94) [19/443.66]
PM2.5 = '(19.335-38.63]'
|   PM10 = '(117.26-140.71]'
|   |   CO = '(0.522-1.044]'
|   |   |   NO2 = '(9.818-19.626]'
|   |   |   |   NH3 = '(23.114-28.89]'
|   |   |   |   |   O3 = '(32.554-43.402]' : 107.63 (7/837.43) [1/25]
|   |   |   |   |   O3 = '(-inf-10.858]' : 102.22 (7/1253.84) [2/1765.88]
|   |   |   |   |   O3 = '(43.402-54.25]' : 138.33 (3/2074.89) [0/0]
|   |   |   |   |   O3 = '(54.25-65.098]' : 101.7 (0/0) [0/0]
|   |   |   |   |   O3 = '(65.098-75.946]' : 101.7 (0/0) [0/0]
|   |   |   |   |   O3 = '(21.706-32.554]' : 93.08 (8/254.69) [5/1156.86]
|   |   |   |   |   O3 = '(10.858-21.706]' : 100.35 (26/612.6) [11/367.64]
|   |   |   |   |   O3 = '(86.794-97.642]' : 101.7 (0/0) [0/0]
|   |   |   |   |   O3 = '(75.946-86.794]' : 101.7 (0/0) [0/0]
|   |   |   |   |   O3 = '(97.642-inf)' : 101.7 (0/0) [0/0]
|   |   |   |   NH3 = '(28.89-34.666]'
|   |   |   |   |   O3 = '(32.554-43.402]' : 71 (2/9) [0/0]
|   |   |   |   |   O3 = '(-inf-10.858]' : 82.15 (0/0) [0/0]
|   |   |   |   |   O3 = '(43.402-54.25]' : 82.15 (0/0) [0/0]
|   |   |   |   |   O3 = '(54.25-65.098]' : 82.15 (0/0) [0/0]
|   |   |   |   |   O3 = '(65.098-75.946]' : 82.15 (0/0) [0/0]
|   |   |   |   |   O3 = '(21.706-32.554]' : 73.29 (4/24.69) [3/12.06]
|   |   |   |   |   O3 = '(10.858-21.706]' : 103.25 (4/1179.69) [0/0]
|   |   |   |   |   O3 = '(86.794-97.642]' : 82.15 (0/0) [0/0]
|   |   |   |   |   O3 = '(75.946-86.794]' : 82.15 (0/0) [0/0]
|   |   |   |   |   O3 = '(97.642-inf)' : 82.15 (0/0) [0/0]
|   |   |   |   NH3 = '(17.338-23.114]' : 76.11 (6/513.81) [3/72.25]
|   |   |   |   NH3 = '(11.562-17.338]' : 79.6 (8/119.11) [2/7.14]
|   |   |   |   NH3 = '(5.786-11.562]'
|   |   |   |   |   NO = '(-inf-5.179]' : 104 (0/0) [0/0]
|   |   |   |   |   NO = '(15.497-20.656]' : 130 (5/526.4) [0/0]
|   |   |   |   |   NO = '(5.179-10.338]' : 73.6 (4/30.69) [1/33.06]
|   |   |   |   |   NO = '(10.338-15.497]' : 100.25 (0/0) [4/726.99]
|   |   |   |   |   NO = '(20.656-25.815]' : 104 (0/0) [0/0]
|   |   |   |   |   NO = '(25.815-30.974]' : 125.5 (0/0) [2/432.89]
|   |   |   |   |   NO = '(41.292-46.451]' : 104 (0/0) [0/0]
|   |   |   |   |   NO = '(46.451-inf)' : 104 (0/0) [0/0]
|   |   |   |   |   NO = '(36.133-41.292]' : 98 (1/0) [0/0]
|   |   |   |   |   NO = '(30.974-36.133]' : 104 (0/0) [0/0]
|   |   |   |   NH3 = '(-inf-5.786]' : 88.05 (16/432.03) [3/135.12]
|   |   |   |   NH3 = '(34.666-40.442]' : 78.38 (3/118.22) [5/472.11]
|   |   |   |   NH3 = '(40.442-46.218]' : 86 (5/84.16) [1/116.64]
|   |   |   |   NH3 = '(46.218-51.994]' : 73 (1/0) [1/196]
|   |   |   |   NH3 = '(51.994-inf)' : 78.33 (4/408.69) [2/851.31]
|   |   |   NO2 = '(-inf-9.818]'
|   |   |   |   NOx = '(9.999-19.998]' : 107.84 (32/2047.46) [11/1292.25]
|   |   |   |   NOx = '(-inf-9.999]' : 68.6 (4/62.5) [1/9]
|   |   |   |   NOx = '(19.998-29.997]' : 109.33 (4/286.75) [2/91.25]
|   |   |   |   NOx = '(29.997-39.996]' : 121 (1/0) [1/16]
|   |   |   |   NOx = '(39.996-49.995]' : 104.96 (0/0) [0/0]
|   |   |   |   NOx = '(69.993-79.992]' : 104.96 (0/0) [0/0]
|   |   |   |   NOx = '(49.995-59.994]' : 104.96 (0/0) [0/0]
|   |   |   |   NOx = '(59.994-69.993]' : 104.96 (0/0) [0/0]
|   |   |   |   NOx = '(79.992-89.991]' : 104.96 (0/0) [0/0]
|   |   |   |   NOx = '(89.991-inf)' : 104.96 (0/0) [0/0]
|   |   |   NO2 = '(19.626-29.434]' : 82.69 (56/372.25) [45/973.42]
|   |   |   NO2 = '(29.434-39.242]'
|   |   |   |   SO2 = '(23.872-27.844]' : 127 (1/0) [0/0]
|   |   |   |   SO2 = '(15.928-19.9]' : 106.5 (1/0) [1/4761]
|   |   |   |   SO2 = '(7.984-11.956]' : 109.88 (6/169.81) [2/519.69]
|   |   |   |   SO2 = '(27.844-31.816]' : 95.24 (0/0) [0/0]
|   |   |   |   SO2 = '(35.788-inf)' : 95.24 (0/0) [0/0]
|   |   |   |   SO2 = '(31.816-35.788]' : 95.24 (0/0) [0/0]
|   |   |   |   SO2 = '(11.956-15.928]' : 120 (3/78) [2/546.5]
|   |   |   |   SO2 = '(19.9-23.872]' : 95.24 (0/0) [0/0]
|   |   |   |   SO2 = '(-inf-4.012]' : 92 (1/0) [0/0]
|   |   |   |   SO2 = '(4.012-7.984]'
|   |   |   |   |   NH3 = '(23.114-28.89]'
|   |   |   |   |   |   O3 = '(32.554-43.402]' : 93 (1/0) [1/16]
|   |   |   |   |   |   O3 = '(-inf-10.858]' : 57 (0/0) [1/240.25]
|   |   |   |   |   |   O3 = '(43.402-54.25]' : 66 (1/0) [0/0]
|   |   |   |   |   |   O3 = '(54.25-65.098]' : 71 (0/0) [0/0]
|   |   |   |   |   |   O3 = '(65.098-75.946]' : 71 (0/0) [0/0]
|   |   |   |   |   |   O3 = '(21.706-32.554]' : 72.75 (2/12.25) [2/111.25]
|   |   |   |   |   |   O3 = '(10.858-21.706]' : 63 (2/6.25) [2/21.25]
|   |   |   |   |   |   O3 = '(86.794-97.642]' : 71 (0/0) [0/0]
|   |   |   |   |   |   O3 = '(75.946-86.794]' : 71 (0/0) [0/0]
|   |   |   |   |   |   O3 = '(97.642-inf)' : 71 (0/0) [0/0]
|   |   |   |   |   NH3 = '(28.89-34.666]' : 82.5 (2/132.25) [0/0]
|   |   |   |   |   NH3 = '(17.338-23.114]' : 80.65 (0/0) [0/0]
|   |   |   |   |   NH3 = '(11.562-17.338]' : 107.33 (1/0) [2/420.5]
|   |   |   |   |   NH3 = '(5.786-11.562]' : 55 (1/0) [0/0]
|   |   |   |   |   NH3 = '(-inf-5.786]' : 120 (0/0) [1/1666.12]
|   |   |   |   |   NH3 = '(34.666-40.442]' : 99 (1/0) [0/0]
|   |   |   |   |   NH3 = '(40.442-46.218]' : 80.65 (0/0) [0/0]
|   |   |   |   |   NH3 = '(46.218-51.994]' : 80.65 (0/0) [0/0]
|   |   |   |   |   NH3 = '(51.994-inf)' : 80.65 (0/0) [0/0]
|   |   |   NO2 = '(39.242-49.05]'
|   |   |   |   NH3 = '(23.114-28.89]' : 76.75 (6/122.67) [2/125]
|   |   |   |   NH3 = '(28.89-34.666]' : 86 (1/0) [1/144]
|   |   |   |   NH3 = '(17.338-23.114]' : 95.1 (0/0) [0/0]
|   |   |   |   NH3 = '(11.562-17.338]' : 103.5 (1/0) [1/9]
|   |   |   |   NH3 = '(5.786-11.562]' : 115.25 (3/88.67) [1/225]
|   |   |   |   NH3 = '(-inf-5.786]' : 120.75 (1/0) [3/116.33]
|   |   |   |   NH3 = '(34.666-40.442]' : 60 (1/0) [0/0]
|   |   |   |   NH3 = '(40.442-46.218]' : 95.1 (0/0) [0/0]
|   |   |   |   NH3 = '(46.218-51.994]' : 95.1 (0/0) [0/0]
|   |   |   |   NH3 = '(51.994-inf)' : 95.1 (0/0) [0/0]
|   |   |   NO2 = '(49.05-58.858]' : 107.43 (6/259.14) [1/367.36]
|   |   |   NO2 = '(58.858-68.666]' : 125 (1/0) [0/0]
|   |   |   NO2 = '(78.474-88.282]' : 92.67 (0/0) [0/0]
|   |   |   NO2 = '(68.666-78.474]' : 90 (0/0) [1/20.46]
|   |   |   NO2 = '(88.282-inf)' : 92.67 (0/0) [0/0]
|   |   CO = '(1.566-2.088]' : 108.45 (51/4906.9) [26/625.52]
|   |   CO = '(2.088-2.61]'
|   |   |   NOx = '(9.999-19.998]' : 113.05 (13/2621.41) [6/1174.98]
|   |   |   NOx = '(-inf-9.999]' : 106.87 (20/537.95) [10/1461.25]
|   |   |   NOx = '(19.998-29.997]' : 133.8 (3/1322.89) [2/905.11]
|   |   |   NOx = '(29.997-39.996]' : 109.67 (3/1682.89) [0/0]
|   |   |   NOx = '(39.996-49.995]' : 114.59 (0/0) [0/0]
|   |   |   NOx = '(69.993-79.992]' : 114.59 (0/0) [0/0]
|   |   |   NOx = '(49.995-59.994]' : 294 (1/0) [0/0]
|   |   |   NOx = '(59.994-69.993]' : 114.59 (0/0) [0/0]
|   |   |   NOx = '(79.992-89.991]' : 114.59 (0/0) [0/0]
|   |   |   NOx = '(89.991-inf)' : 114.59 (0/0) [0/0]
|   |   CO = '(1.044-1.566]'
|   |   |   Xylene = '(3.768-4.396]' : 89.54 (0/0) [0/0]
|   |   |   Xylene = '(0.628-1.256]' : 63 (1/0) [0/0]
|   |   |   Xylene = '(-inf-0.628]'
|   |   |   |   NO2 = '(9.818-19.626]'
|   |   |   |   |   NO = '(-inf-5.179]' : 117 (1/0) [0/0]
|   |   |   |   |   NO = '(15.497-20.656]' : 122.5 (3/42.89) [1/75.11]
|   |   |   |   |   NO = '(5.179-10.338]' : 136.75 (4/143.69) [0/0]
|   |   |   |   |   NO = '(10.338-15.497]' : 116.67 (2/30.25) [1/30.25]
|   |   |   |   |   NO = '(20.656-25.815]' : 123.27 (0/0) [0/0]
|   |   |   |   |   NO = '(25.815-30.974]' : 120 (0/0) [2/38.75]
|   |   |   |   |   NO = '(41.292-46.451]' : 123.27 (0/0) [0/0]
|   |   |   |   |   NO = '(46.451-inf)' : 123.27 (0/0) [0/0]
|   |   |   |   |   NO = '(36.133-41.292]' : 123.27 (0/0) [0/0]
|   |   |   |   |   NO = '(30.974-36.133]' : 105 (1/0) [0/0]
|   |   |   |   NO2 = '(-inf-9.818]' : 181.5 (2/4970.25) [0/0]
|   |   |   |   NO2 = '(19.626-29.434]' : 111 (2/256) [0/0]
|   |   |   |   NO2 = '(29.434-39.242]' : 128.11 (0/0) [0/0]
|   |   |   |   NO2 = '(39.242-49.05]' : 128.11 (0/0) [0/0]
|   |   |   |   NO2 = '(49.05-58.858]' : 128.11 (0/0) [0/0]
|   |   |   |   NO2 = '(58.858-68.666]' : 128.11 (0/0) [0/0]
|   |   |   |   NO2 = '(78.474-88.282]' : 128.11 (0/0) [0/0]
|   |   |   |   NO2 = '(68.666-78.474]' : 128.11 (0/0) [0/0]
|   |   |   |   NO2 = '(88.282-inf)' : 128.11 (0/0) [0/0]
|   |   |   Xylene = '(1.256-1.884]' : 89.54 (0/0) [0/0]
|   |   |   Xylene = '(1.884-2.512]' : 89.54 (0/0) [0/0]
|   |   |   Xylene = '(3.14-3.768]' : 89.54 (0/0) [0/0]
|   |   |   Xylene = '(2.512-3.14]'
|   |   |   |   SO2 = '(23.872-27.844]' : 117.75 (6/980.67) [2/1037]
|   |   |   |   SO2 = '(15.928-19.9]' : 101.2 (1/0) [4/1357.5]
|   |   |   |   SO2 = '(7.984-11.956]' : 85.09 (7/40.49) [4/339.87]
|   |   |   |   SO2 = '(27.844-31.816]' : 85.4 (0/0) [0/0]
|   |   |   |   SO2 = '(35.788-inf)' : 85.4 (0/0) [0/0]
|   |   |   |   SO2 = '(31.816-35.788]' : 144 (0/0) [1/3399.56]
|   |   |   |   SO2 = '(11.956-15.928]' : 86.67 (5/29.44) [4/156.71]
|   |   |   |   SO2 = '(19.9-23.872]' : 91.25 (1/0) [3/1548.33]
|   |   |   |   SO2 = '(-inf-4.012]'
|   |   |   |   |   NOx = '(9.999-19.998]' : 85.82 (13/539.62) [4/586.15]
|   |   |   |   |   NOx = '(-inf-9.999]' : 56.9 (9/123.56) [1/361]
|   |   |   |   |   NOx = '(19.998-29.997]' : 86.67 (6/34.14) [3/543.81]
|   |   |   |   |   NOx = '(29.997-39.996]'
|   |   |   |   |   |   O3 = '(32.554-43.402]' : 88.5 (1/0) [1/49]
|   |   |   |   |   |   O3 = '(-inf-10.858]' : 68.85 (0/0) [0/0]
|   |   |   |   |   |   O3 = '(43.402-54.25]' : 68.85 (0/0) [0/0]
|   |   |   |   |   |   O3 = '(54.25-65.098]' : 68.85 (0/0) [0/0]
|   |   |   |   |   |   O3 = '(65.098-75.946]' : 68.85 (0/0) [0/0]
|   |   |   |   |   |   O3 = '(21.706-32.554]' : 64.75 (2/1) [2/162.5]
|   |   |   |   |   |   O3 = '(10.858-21.706]' : 65.57 (4/75.69) [3/764.06]
|   |   |   |   |   |   O3 = '(86.794-97.642]' : 68.85 (0/0) [0/0]
|   |   |   |   |   |   O3 = '(75.946-86.794]' : 68.85 (0/0) [0/0]
|   |   |   |   |   |   O3 = '(97.642-inf)' : 68.85 (0/0) [0/0]
|   |   |   |   |   NOx = '(39.996-49.995]' : 75.57 (0/0) [0/0]
|   |   |   |   |   NOx = '(69.993-79.992]' : 75.57 (0/0) [0/0]
|   |   |   |   |   NOx = '(49.995-59.994]' : 75.57 (0/0) [0/0]
|   |   |   |   |   NOx = '(59.994-69.993]' : 75.57 (0/0) [0/0]
|   |   |   |   |   NOx = '(79.992-89.991]' : 75.57 (0/0) [0/0]
|   |   |   |   |   NOx = '(89.991-inf)' : 75.57 (0/0) [0/0]
|   |   |   |   SO2 = '(4.012-7.984]'
|   |   |   |   |   NH3 = '(23.114-28.89]'
|   |   |   |   |   |   NOx = '(9.999-19.998]' : 132.67 (8/2087.25) [1/56.25]
|   |   |   |   |   |   NOx = '(-inf-9.999]' : 86.57 (3/818.67) [4/1195.5]
|   |   |   |   |   |   NOx = '(19.998-29.997]' : 83.75 (2/2.25) [2/335.25]
|   |   |   |   |   |   NOx = '(29.997-39.996]'
|   |   |   |   |   |   |   O3 = '(32.554-43.402]' : 74 (0/0) [0/0]
|   |   |   |   |   |   |   O3 = '(-inf-10.858]' : 63 (2/12.25) [1/56.25]
|   |   |   |   |   |   |   O3 = '(43.402-54.25]' : 74 (0/0) [0/0]
|   |   |   |   |   |   |   O3 = '(54.25-65.098]' : 74 (0/0) [0/0]
|   |   |   |   |   |   |   O3 = '(65.098-75.946]' : 74 (0/0) [0/0]
|   |   |   |   |   |   |   O3 = '(21.706-32.554]' : 158 (1/0) [0/0]
|   |   |   |   |   |   |   O3 = '(10.858-21.706]' : 64.78 (6/79.14) [3/343.58]
|   |   |   |   |   |   |   O3 = '(86.794-97.642]' : 74 (0/0) [0/0]
|   |   |   |   |   |   |   O3 = '(75.946-86.794]' : 106 (1/0) [0/0]
|   |   |   |   |   |   |   O3 = '(97.642-inf)' : 74 (0/0) [0/0]
|   |   |   |   |   |   NOx = '(39.996-49.995]' : 93.26 (0/0) [0/0]
|   |   |   |   |   |   NOx = '(69.993-79.992]' : 93.26 (0/0) [0/0]
|   |   |   |   |   |   NOx = '(49.995-59.994]' : 93.26 (0/0) [0/0]
|   |   |   |   |   |   NOx = '(59.994-69.993]' : 93.26 (0/0) [0/0]
|   |   |   |   |   |   NOx = '(79.992-89.991]' : 93.26 (0/0) [0/0]
|   |   |   |   |   |   NOx = '(89.991-inf)' : 93.26 (0/0) [0/0]
|   |   |   |   |   NH3 = '(28.89-34.666]'
|   |   |   |   |   |   O3 = '(32.554-43.402]' : 75 (1/0) [1/64]
|   |   |   |   |   |   O3 = '(-inf-10.858]' : 76 (1/0) [0/0]
|   |   |   |   |   |   O3 = '(43.402-54.25]' : 79.08 (0/0) [0/0]
|   |   |   |   |   |   O3 = '(54.25-65.098]' : 81 (1/0) [0/0]
|   |   |   |   |   |   O3 = '(65.098-75.946]' : 79.08 (0/0) [0/0]
|   |   |   |   |   |   O3 = '(21.706-32.554]' : 77 (2/256) [1/36]
|   |   |   |   |   |   O3 = '(10.858-21.706]' : 81.67 (4/3.69) [2/49.81]
|   |   |   |   |   |   O3 = '(86.794-97.642]' : 79.08 (0/0) [0/0]
|   |   |   |   |   |   O3 = '(75.946-86.794]' : 79.08 (0/0) [0/0]
|   |   |   |   |   |   O3 = '(97.642-inf)' : 79.08 (0/0) [0/0]
|   |   |   |   |   NH3 = '(17.338-23.114]' : 89.67 (1/0) [2/73]
|   |   |   |   |   NH3 = '(11.562-17.338]' : 76.9 (6/62.47) [4/466.86]
|   |   |   |   |   NH3 = '(5.786-11.562]'
|   |   |   |   |   |   O3 = '(32.554-43.402]' : 104 (2/1) [0/0]
|   |   |   |   |   |   O3 = '(-inf-10.858]' : 87.14 (0/0) [0/0]
|   |   |   |   |   |   O3 = '(43.402-54.25]' : 108 (1/0) [0/0]
|   |   |   |   |   |   O3 = '(54.25-65.098]' : 87.14 (0/0) [0/0]
|   |   |   |   |   |   O3 = '(65.098-75.946]' : 87.14 (0/0) [0/0]
|   |   |   |   |   |   O3 = '(21.706-32.554]'
|   |   |   |   |   |   |   NO2 = '(9.818-19.626]' : 87 (2/6.25) [1/110.25]
|   |   |   |   |   |   |   NO2 = '(-inf-9.818]' : 81 (0/0) [0/0]
|   |   |   |   |   |   |   NO2 = '(19.626-29.434]' : 75 (2/2.25) [1/20.25]
|   |   |   |   |   |   |   NO2 = '(29.434-39.242]' : 81 (0/0) [0/0]
|   |   |   |   |   |   |   NO2 = '(39.242-49.05]' : 81 (0/0) [0/0]
|   |   |   |   |   |   |   NO2 = '(49.05-58.858]' : 81 (0/0) [0/0]
|   |   |   |   |   |   |   NO2 = '(58.858-68.666]' : 81 (0/0) [0/0]
|   |   |   |   |   |   |   NO2 = '(78.474-88.282]' : 81 (0/0) [0/0]
|   |   |   |   |   |   |   NO2 = '(68.666-78.474]' : 81 (0/0) [0/0]
|   |   |   |   |   |   |   NO2 = '(88.282-inf)' : 81 (0/0) [0/0]
|   |   |   |   |   |   O3 = '(10.858-21.706]' : 83.6 (3/220.22) [2/230.44]
|   |   |   |   |   |   O3 = '(86.794-97.642]' : 87.14 (0/0) [0/0]
|   |   |   |   |   |   O3 = '(75.946-86.794]' : 87.14 (0/0) [0/0]
|   |   |   |   |   |   O3 = '(97.642-inf)' : 87.14 (0/0) [0/0]
|   |   |   |   |   NH3 = '(-inf-5.786]' : 80.05 (10/76.2) [10/56.7]
|   |   |   |   |   NH3 = '(34.666-40.442]' : 88.8 (4/626.69) [1/95.06]
|   |   |   |   |   NH3 = '(40.442-46.218]' : 96.5 (2/240.25) [0/0]
|   |   |   |   |   NH3 = '(46.218-51.994]' : 70 (1/0) [0/0]
|   |   |   |   |   NH3 = '(51.994-inf)' : 85.93 (0/0) [0/0]
|   |   |   Xylene = '(5.652-inf)' : 101 (1/0) [0/0]
|   |   |   Xylene = '(4.396-5.024]' : 89.54 (0/0) [0/0]
|   |   |   Xylene = '(5.024-5.652]' : 111.33 (3/372.22) [0/0]
|   |   CO = '(3.132-3.654]' : 160.2 (6/4256.33) [4/3492.5]
|   |   CO = '(3.654-4.176]' : 149.5 (3/140.67) [1/2500]
|   |   CO = '(4.176-4.698]' : 127.5 (4/328.25) [2/380.25]
|   |   CO = '(-inf-0.522]' : 76.63 (148/2814.41) [68/811.41]
|   |   CO = '(4.698-inf)' : 145.7 (9/2532.25) [1/508.75]
|   |   CO = '(2.61-3.132]'
|   |   |   NOx = '(9.999-19.998]' : 194.13 (7/2247.35) [1/515.94]
|   |   |   NOx = '(-inf-9.999]' : 140.4 (7/1867.84) [3/1067.69]
|   |   |   NOx = '(19.998-29.997]' : 128.5 (0/0) [2/550.09]
|   |   |   NOx = '(29.997-39.996]' : 84.67 (3/130.89) [0/0]
|   |   |   NOx = '(39.996-49.995]' : 150.78 (0/0) [0/0]
|   |   |   NOx = '(69.993-79.992]' : 150.78 (0/0) [0/0]
|   |   |   NOx = '(49.995-59.994]' : 150.78 (0/0) [0/0]
|   |   |   NOx = '(59.994-69.993]' : 150.78 (0/0) [0/0]
|   |   |   NOx = '(79.992-89.991]' : 150.78 (0/0) [0/0]
|   |   |   NOx = '(89.991-inf)' : 150.78 (0/0) [0/0]
|   PM10 = '(93.81-117.26]'
|   |   CO = '(0.522-1.044]'
|   |   |   O3 = '(32.554-43.402]' : 98.9 (30/607.65) [12/158.08]
|   |   |   O3 = '(-inf-10.858]' : 98.72 (18/188.11) [7/94.73]
|   |   |   O3 = '(43.402-54.25]'
|   |   |   |   Toluene = '(3.082-6.164]' : 94.25 (4/17.19) [0/0]
|   |   |   |   Toluene = '(9.246-12.328]' : 108.4 (3/112.67) [2/48.5]
|   |   |   |   Toluene = '(-inf-3.082]'
|   |   |   |   |   NO = '(-inf-5.179]' : 99.33 (4/3.5) [2/928]
|   |   |   |   |   NO = '(15.497-20.656]' : 82 (1/0) [0/0]
|   |   |   |   |   NO = '(5.179-10.338]' : 92.2 (3/60.22) [2/76.94]
|   |   |   |   |   NO = '(10.338-15.497]' : 70 (1/0) [1/16]
|   |   |   |   |   NO = '(20.656-25.815]' : 91.36 (0/0) [0/0]
|   |   |   |   |   NO = '(25.815-30.974]' : 91.36 (0/0) [0/0]
|   |   |   |   |   NO = '(41.292-46.451]' : 91.36 (0/0) [0/0]
|   |   |   |   |   NO = '(46.451-inf)' : 91.36 (0/0) [0/0]
|   |   |   |   |   NO = '(36.133-41.292]' : 91.36 (0/0) [0/0]
|   |   |   |   |   NO = '(30.974-36.133]' : 91.36 (0/0) [0/0]
|   |   |   |   Toluene = '(6.164-9.246]' : 103.63 (5/92.56) [3/38.04]
|   |   |   |   Toluene = '(15.41-18.492]' : 97.78 (0/0) [0/0]
|   |   |   |   Toluene = '(21.574-24.656]' : 97.78 (0/0) [0/0]
|   |   |   |   Toluene = '(12.328-15.41]' : 102 (0/0) [1/34.87]
|   |   |   |   Toluene = '(18.492-21.574]' : 97.78 (0/0) [0/0]
|   |   |   |   Toluene = '(27.738-inf)' : 97.78 (0/0) [0/0]
|   |   |   |   Toluene = '(24.656-27.738]' : 97.78 (0/0) [0/0]
|   |   |   O3 = '(54.25-65.098]'
|   |   |   |   NH3 = '(23.114-28.89]' : 102 (5/220) [1/0]
|   |   |   |   NH3 = '(28.89-34.666]' : 127 (1/0) [0/0]
|   |   |   |   NH3 = '(17.338-23.114]' : 100 (1/0) [0/0]
|   |   |   |   NH3 = '(11.562-17.338]' : 104.17 (6/59.81) [0/0]
|   |   |   |   NH3 = '(5.786-11.562]' : 105.4 (0/0) [0/0]
|   |   |   |   NH3 = '(-inf-5.786]' : 105.4 (0/0) [0/0]
|   |   |   |   NH3 = '(34.666-40.442]' : 117 (1/0) [0/0]
|   |   |   |   NH3 = '(40.442-46.218]' : 105.4 (0/0) [0/0]
|   |   |   |   NH3 = '(46.218-51.994]' : 105.4 (0/0) [0/0]
|   |   |   |   NH3 = '(51.994-inf)' : 105.4 (0/0) [0/0]
|   |   |   O3 = '(65.098-75.946]' : 110 (8/84.44) [1/248.06]
|   |   |   O3 = '(21.706-32.554]'
|   |   |   |   NOx = '(9.999-19.998]'
|   |   |   |   |   NO2 = '(9.818-19.626]' : 103.83 (6/23.14) [0/0]
|   |   |   |   |   NO2 = '(-inf-9.818]' : 95.5 (2/6.25) [0/0]
|   |   |   |   |   NO2 = '(19.626-29.434]' : 100 (1/0) [1/0]
|   |   |   |   |   NO2 = '(29.434-39.242]' : 97 (1/0) [0/0]
|   |   |   |   |   NO2 = '(39.242-49.05]' : 101 (0/0) [0/0]
|   |   |   |   |   NO2 = '(49.05-58.858]' : 101 (0/0) [0/0]
|   |   |   |   |   NO2 = '(58.858-68.666]' : 101 (0/0) [0/0]
|   |   |   |   |   NO2 = '(78.474-88.282]' : 101 (0/0) [0/0]
|   |   |   |   |   NO2 = '(68.666-78.474]' : 101 (0/0) [0/0]
|   |   |   |   |   NO2 = '(88.282-inf)' : 101 (0/0) [0/0]
|   |   |   |   NOx = '(-inf-9.999]' : 86.17 (4/6.5) [2/392.5]
|   |   |   |   NOx = '(19.998-29.997]'
|   |   |   |   |   SO2 = '(23.872-27.844]' : 97.55 (0/0) [0/0]
|   |   |   |   |   SO2 = '(15.928-19.9]' : 111 (1/0) [0/0]
|   |   |   |   |   SO2 = '(7.984-11.956]' : 100.73 (6/46.89) [5/254.11]
|   |   |   |   |   SO2 = '(27.844-31.816]' : 97.55 (0/0) [0/0]
|   |   |   |   |   SO2 = '(35.788-inf)' : 97.55 (0/0) [0/0]
|   |   |   |   |   SO2 = '(31.816-35.788]' : 97.55 (0/0) [0/0]
|   |   |   |   |   SO2 = '(11.956-15.928]' : 97.55 (0/0) [0/0]
|   |   |   |   |   SO2 = '(19.9-23.872]' : 96 (1/0) [0/0]
|   |   |   |   |   SO2 = '(-inf-4.012]' : 88 (1/0) [1/0]
|   |   |   |   |   SO2 = '(4.012-7.984]' : 92 (2/9) [3/111]
|   |   |   |   NOx = '(29.997-39.996]'
|   |   |   |   |   SO2 = '(23.872-27.844]' : 94 (0/0) [1/12.64]
|   |   |   |   |   SO2 = '(15.928-19.9]' : 98.36 (0/0) [0/0]
|   |   |   |   |   SO2 = '(7.984-11.956]' : 105.2 (2/6.25) [3/56.25]
|   |   |   |   |   SO2 = '(27.844-31.816]' : 98.36 (0/0) [0/0]
|   |   |   |   |   SO2 = '(35.788-inf)' : 98.36 (0/0) [0/0]
|   |   |   |   |   SO2 = '(31.816-35.788]' : 90 (0/0) [1/57.09]
|   |   |   |   |   SO2 = '(11.956-15.928]' : 97.5 (2/2.25) [0/0]
|   |   |   |   |   SO2 = '(19.9-23.872]' : 98.36 (0/0) [0/0]
|   |   |   |   |   SO2 = '(-inf-4.012]' : 98 (1/0) [0/0]
|   |   |   |   |   SO2 = '(4.012-7.984]' : 93.5 (4/4.75) [0/0]
|   |   |   |   NOx = '(39.996-49.995]' : 106.5 (2/42.25) [0/0]
|   |   |   |   NOx = '(69.993-79.992]' : 97.53 (0/0) [0/0]
|   |   |   |   NOx = '(49.995-59.994]' : 97.53 (0/0) [0/0]
|   |   |   |   NOx = '(59.994-69.993]' : 97.53 (0/0) [0/0]
|   |   |   |   NOx = '(79.992-89.991]' : 97.53 (0/0) [0/0]
|   |   |   |   NOx = '(89.991-inf)' : 97.53 (0/0) [0/0]
|   |   |   O3 = '(10.858-21.706]'
|   |   |   |   NH3 = '(23.114-28.89]' : 62.25 (4/148.19) [0/0]
|   |   |   |   NH3 = '(28.89-34.666]' : 94.74 (0/0) [0/0]
|   |   |   |   NH3 = '(17.338-23.114]' : 82.75 (3/14.22) [1/1133.44]
|   |   |   |   NH3 = '(11.562-17.338]' : 91 (5/248.56) [1/51.84]
|   |   |   |   NH3 = '(5.786-11.562]' : 99.77 (12/138.58) [10/154.17]
|   |   |   |   NH3 = '(-inf-5.786]' : 106.78 (5/27.44) [4/130.71]
|   |   |   |   NH3 = '(34.666-40.442]' : 88 (1/0) [0/0]
|   |   |   |   NH3 = '(40.442-46.218]' : 83 (1/0) [0/0]
|   |   |   |   NH3 = '(46.218-51.994]' : 94.74 (0/0) [0/0]
|   |   |   |   NH3 = '(51.994-inf)' : 94.74 (0/0) [0/0]
|   |   |   O3 = '(86.794-97.642]' : 98.75 (0/0) [0/0]
|   |   |   O3 = '(75.946-86.794]' : 118 (3/12.67) [1/144]
|   |   |   O3 = '(97.642-inf)' : 98.75 (0/0) [0/0]
|   |   CO = '(1.566-2.088]' : 110 (13/200.75) [8/146.65]
|   |   CO = '(2.088-2.61]' : 115.86 (4/67.25) [3/1110.25]
|   |   CO = '(1.044-1.566]'
|   |   |   NO = '(-inf-5.179]' : 104 (5/168.4) [0/0]
|   |   |   NO = '(15.497-20.656]' : 105.88 (3/11.56) [5/483.31]
|   |   |   NO = '(5.179-10.338]' : 95.4 (4/256.25) [1/650.25]
|   |   |   NO = '(10.338-15.497]' : 123.57 (5/467.2) [2/160]
|   |   |   NO = '(20.656-25.815]' : 103.63 (4/228.75) [4/135.25]
|   |   |   NO = '(25.815-30.974]' : 90.5 (2/2.25) [2/784.25]
|   |   |   NO = '(41.292-46.451]' : 108 (2/144) [0/0]
|   |   |   NO = '(46.451-inf)' : 90 (1/0) [0/0]
|   |   |   NO = '(36.133-41.292]' : 112.5 (1/0) [1/169]
|   |   |   NO = '(30.974-36.133]' : 94.5 (4/54.25) [0/0]
|   |   CO = '(3.132-3.654]' : 38 (1/0) [0/0]
|   |   CO = '(3.654-4.176]' : 166.67 (2/56.25) [1/1806.25]
|   |   CO = '(4.176-4.698]' : 101.08 (0/0) [0/0]
|   |   CO = '(-inf-0.522]'
|   |   |   O3 = '(32.554-43.402]'
|   |   |   |   NO = '(-inf-5.179]' : 102.8 (7/20.24) [3/130.71]
|   |   |   |   NO = '(15.497-20.656]' : 111 (2/0.25) [1/20.25]
|   |   |   |   NO = '(5.179-10.338]' : 98.67 (3/116.67) [3/135.33]
|   |   |   |   NO = '(10.338-15.497]' : 84 (1/0) [0/0]
|   |   |   |   NO = '(20.656-25.815]' : 58 (1/0) [0/0]
|   |   |   |   NO = '(25.815-30.974]' : 99.76 (0/0) [0/0]
|   |   |   |   NO = '(41.292-46.451]' : 99.76 (0/0) [0/0]
|   |   |   |   NO = '(46.451-inf)' : 99.76 (0/0) [0/0]
|   |   |   |   NO = '(36.133-41.292]' : 99.76 (0/0) [0/0]
|   |   |   |   NO = '(30.974-36.133]' : 99.76 (0/0) [0/0]
|   |   |   O3 = '(-inf-10.858]' : 93.5 (2/552.25) [0/0]
|   |   |   O3 = '(43.402-54.25]'
|   |   |   |   NH3 = '(23.114-28.89]' : 93 (2/81) [0/0]
|   |   |   |   NH3 = '(28.89-34.666]' : 99.86 (0/0) [0/0]
|   |   |   |   NH3 = '(17.338-23.114]' : 93 (1/0) [0/0]
|   |   |   |   NH3 = '(11.562-17.338]' : 106.5 (1/0) [1/49]
|   |   |   |   NH3 = '(5.786-11.562]' : 103.5 (2/0.25) [0/0]
|   |   |   |   NH3 = '(-inf-5.786]' : 99.86 (0/0) [0/0]
|   |   |   |   NH3 = '(34.666-40.442]' : 99.86 (0/0) [0/0]
|   |   |   |   NH3 = '(40.442-46.218]' : 99.86 (0/0) [0/0]
|   |   |   |   NH3 = '(46.218-51.994]' : 99.86 (0/0) [0/0]
|   |   |   |   NH3 = '(51.994-inf)' : 99.86 (0/0) [0/0]
|   |   |   O3 = '(54.25-65.098]' : 122.4 (4/185.25) [1/380.25]
|   |   |   O3 = '(65.098-75.946]' : 106.67 (3/21.56) [0/0]
|   |   |   O3 = '(21.706-32.554]' : 95.83 (7/68.41) [5/434.79]
|   |   |   O3 = '(10.858-21.706]' : 94.08 (10/160.16) [3/497.51]
|   |   |   O3 = '(86.794-97.642]' : 128 (1/0) [0/0]
|   |   |   O3 = '(75.946-86.794]' : 103 (0/0) [1/6.85]
|   |   |   O3 = '(97.642-inf)' : 100.26 (0/0) [0/0]
|   |   CO = '(4.698-inf)' : 101.08 (0/0) [0/0]
|   |   CO = '(2.61-3.132]' : 101.08 (0/0) [0/0]
|   PM10 = '(70.36-93.81]'
|   |   O3 = '(32.554-43.402]'
|   |   |   CO = '(0.522-1.044]'
|   |   |   |   SO2 = '(23.872-27.844]' : 95.67 (3/112.89) [0/0]
|   |   |   |   SO2 = '(15.928-19.9]' : 71.33 (2/9) [1/121]
|   |   |   |   SO2 = '(7.984-11.956]'
|   |   |   |   |   Toluene = '(3.082-6.164]' : 86.67 (4/91.25) [2/39.25]
|   |   |   |   |   Toluene = '(9.246-12.328]' : 99 (4/279.69) [1/76.56]
|   |   |   |   |   Toluene = '(-inf-3.082]'
|   |   |   |   |   |   NO2 = '(9.818-19.626]' : 76.4 (4/57.19) [1/85.56]
|   |   |   |   |   |   NO2 = '(-inf-9.818]' : 74 (1/0) [0/0]
|   |   |   |   |   |   NO2 = '(19.626-29.434]' : 99 (2/256) [0/0]
|   |   |   |   |   |   NO2 = '(29.434-39.242]' : 77 (0/0) [1/23.77]
|   |   |   |   |   |   NO2 = '(39.242-49.05]' : 74.5 (1/0) [1/81]
|   |   |   |   |   |   NO2 = '(49.05-58.858]' : 80 (0/0) [0/0]
|   |   |   |   |   |   NO2 = '(58.858-68.666]' : 80 (0/0) [0/0]
|   |   |   |   |   |   NO2 = '(78.474-88.282]' : 80 (0/0) [0/0]
|   |   |   |   |   |   NO2 = '(68.666-78.474]' : 80 (0/0) [0/0]
|   |   |   |   |   |   NO2 = '(88.282-inf)' : 80 (0/0) [0/0]
|   |   |   |   |   Toluene = '(6.164-9.246]' : 92.5 (0/0) [2/136.16]
|   |   |   |   |   Toluene = '(15.41-18.492]' : 99 (2/0) [0/0]
|   |   |   |   |   Toluene = '(21.574-24.656]' : 89.37 (0/0) [0/0]
|   |   |   |   |   Toluene = '(12.328-15.41]' : 94.5 (2/30.25) [0/0]
|   |   |   |   |   Toluene = '(18.492-21.574]' : 102 (1/0) [0/0]
|   |   |   |   |   Toluene = '(27.738-inf)' : 89.37 (0/0) [0/0]
|   |   |   |   |   Toluene = '(24.656-27.738]' : 112 (0/0) [1/461.23]
|   |   |   |   SO2 = '(27.844-31.816]' : 87 (1/0) [0/0]
|   |   |   |   SO2 = '(35.788-inf)' : 87.33 (1/0) [2/254.5]
|   |   |   |   SO2 = '(31.816-35.788]' : 101 (1/0) [0/0]
|   |   |   |   SO2 = '(11.956-15.928]' : 93.25 (7/199.67) [5/160.93]
|   |   |   |   SO2 = '(19.9-23.872]' : 93.67 (1/0) [2/330.5]
|   |   |   |   SO2 = '(-inf-4.012]' : 76.67 (7/169.55) [2/48.95]
|   |   |   |   SO2 = '(4.012-7.984]' : 85.65 (33/126.97) [21/146.79]
|   |   |   CO = '(1.566-2.088]' : 104.82 (7/226.2) [4/188.72]
|   |   |   CO = '(2.088-2.61]' : 95 (1/0) [1/16]
|   |   |   CO = '(1.044-1.566]' : 83.3 (19/109.58) [11/55.69]
|   |   |   CO = '(3.132-3.654]' : 87.27 (0/0) [0/0]
|   |   |   CO = '(3.654-4.176]' : 87.27 (0/0) [0/0]
|   |   |   CO = '(4.176-4.698]' : 159 (2/12.25) [1/56.25]
|   |   |   CO = '(-inf-0.522]' : 81.19 (43/151.61) [14/319.73]
|   |   |   CO = '(4.698-inf)' : 87.27 (0/0) [0/0]
|   |   |   CO = '(2.61-3.132]' : 127.5 (1/0) [1/25]
|   |   O3 = '(-inf-10.858]'
|   |   |   CO = '(0.522-1.044]'
|   |   |   |   NH3 = '(23.114-28.89]' : 54 (2/506.25) [2/37.25]
|   |   |   |   NH3 = '(28.89-34.666]' : 75.5 (0/0) [2/54.1]
|   |   |   |   NH3 = '(17.338-23.114]' : 87 (1/0) [0/0]
|   |   |   |   NH3 = '(11.562-17.338]' : 84 (1/0) [0/0]
|   |   |   |   NH3 = '(5.786-11.562]' : 85 (9/189.36) [5/548.51]
|   |   |   |   NH3 = '(-inf-5.786]' : 83.38 (7/103.1) [1/0.18]
|   |   |   |   NH3 = '(34.666-40.442]' : 96 (1/0) [0/0]
|   |   |   |   NH3 = '(40.442-46.218]' : 79.91 (0/0) [0/0]
|   |   |   |   NH3 = '(46.218-51.994]' : 66 (1/0) [0/0]
|   |   |   |   NH3 = '(51.994-inf)' : 79.91 (0/0) [0/0]
|   |   |   CO = '(1.566-2.088]'
|   |   |   |   NOx = '(9.999-19.998]' : 100.33 (4/0.5) [2/113]
|   |   |   |   NOx = '(-inf-9.999]' : 103 (2/0) [1/0]
|   |   |   |   NOx = '(19.998-29.997]' : 120 (2/324) [1/144]
|   |   |   |   NOx = '(29.997-39.996]' : 91.75 (4/23.19) [0/0]
|   |   |   |   NOx = '(39.996-49.995]' : 102.38 (0/0) [0/0]
|   |   |   |   NOx = '(69.993-79.992]' : 102.38 (0/0) [0/0]
|   |   |   |   NOx = '(49.995-59.994]' : 102.38 (0/0) [0/0]
|   |   |   |   NOx = '(59.994-69.993]' : 102.38 (0/0) [0/0]
|   |   |   |   NOx = '(79.992-89.991]' : 102.38 (0/0) [0/0]
|   |   |   |   NOx = '(89.991-inf)' : 102.38 (0/0) [0/0]
|   |   |   CO = '(2.088-2.61]' : 103.5 (3/0.67) [1/4]
|   |   |   CO = '(1.044-1.566]' : 90.4 (4/16.25) [6/243.58]
|   |   |   CO = '(3.132-3.654]' : 87.57 (0/0) [0/0]
|   |   |   CO = '(3.654-4.176]' : 156 (1/0) [0/0]
|   |   |   CO = '(4.176-4.698]' : 87.57 (0/0) [0/0]
|   |   |   CO = '(-inf-0.522]'
|   |   |   |   NOx = '(9.999-19.998]' : 79.95 (0/0) [0/0]
|   |   |   |   NOx = '(-inf-9.999]' : 56.5 (2/16) [2/314]
|   |   |   |   NOx = '(19.998-29.997]' : 63.5 (2/20.25) [0/0]
|   |   |   |   NOx = '(29.997-39.996]' : 90.25 (8/320.75) [4/157.75]
|   |   |   |   NOx = '(39.996-49.995]' : 81.5 (2/2.25) [0/0]
|   |   |   |   NOx = '(69.993-79.992]' : 79.95 (0/0) [0/0]
|   |   |   |   NOx = '(49.995-59.994]' : 79.95 (0/0) [0/0]
|   |   |   |   NOx = '(59.994-69.993]' : 79.95 (0/0) [0/0]
|   |   |   |   NOx = '(79.992-89.991]' : 79.95 (0/0) [0/0]
|   |   |   |   NOx = '(89.991-inf)' : 79.95 (0/0) [0/0]
|   |   |   CO = '(4.698-inf)' : 87.57 (0/0) [0/0]
|   |   |   CO = '(2.61-3.132]' : 87.57 (0/0) [0/0]
|   |   O3 = '(43.402-54.25]' : 94.15 (91/213.02) [51/368.53]
|   |   O3 = '(54.25-65.098]'
|   |   |   CO = '(0.522-1.044]'
|   |   |   |   Xylene = '(3.768-4.396]' : 101.74 (0/0) [0/0]
|   |   |   |   Xylene = '(0.628-1.256]' : 124.5 (1/0) [1/9]
|   |   |   |   Xylene = '(-inf-0.628]' : 98.5 (2/225) [2/725]
|   |   |   |   Xylene = '(1.256-1.884]' : 132 (4/108.5) [0/0]
|   |   |   |   Xylene = '(1.884-2.512]' : 132 (0/0) [1/860.44]
|   |   |   |   Xylene = '(3.14-3.768]' : 101.74 (0/0) [0/0]
|   |   |   |   Xylene = '(2.512-3.14]' : 95.09 (25/228.01) [10/58.67]
|   |   |   |   Xylene = '(5.652-inf)' : 151 (1/0) [0/0]
|   |   |   |   Xylene = '(4.396-5.024]' : 101.74 (0/0) [0/0]
|   |   |   |   Xylene = '(5.024-5.652]' : 101.74 (0/0) [0/0]
|   |   |   CO = '(1.566-2.088]' : 110 (3/242.67) [0/0]
|   |   |   CO = '(2.088-2.61]' : 98 (0/0) [1/96.83]
|   |   |   CO = '(1.044-1.566]' : 114.57 (3/146) [4/110.25]
|   |   |   CO = '(3.132-3.654]' : 105.13 (0/0) [0/0]
|   |   |   CO = '(3.654-4.176]' : 105.13 (0/0) [0/0]
|   |   |   CO = '(4.176-4.698]' : 105.13 (0/0) [0/0]
|   |   |   CO = '(-inf-0.522]' : 102.44 (9/202.77) [9/159.95]
|   |   |   CO = '(4.698-inf)' : 168 (1/0) [0/0]
|   |   |   CO = '(2.61-3.132]' : 176 (1/0) [0/0]
|   |   O3 = '(65.098-75.946]' : 102.61 (23/246.46) [15/170.59]
|   |   O3 = '(21.706-32.554]' : 85.59 (179/224.09) [94/173.14]
|   |   O3 = '(10.858-21.706]'
|   |   |   CO = '(0.522-1.044]' : 81.97 (93/388.92) [41/224.41]
|   |   |   CO = '(1.566-2.088]'
|   |   |   |   Benzene = '(2.472-3.708]' : 229 (1/0) [0/0]
|   |   |   |   Benzene = '(3.708-4.944]' : 102 (1/0) [0/0]
|   |   |   |   Benzene = '(-inf-1.236]' : 103.67 (2/0.25) [4/230.25]
|   |   |   |   Benzene = '(4.944-6.18]' : 86 (0/0) [1/860.44]
|   |   |   |   Benzene = '(1.236-2.472]' : 83 (2/1) [2/4]
|   |   |   |   Benzene = '(6.18-7.416]' : 105.46 (0/0) [0/0]
|   |   |   |   Benzene = '(7.416-8.652]' : 105.46 (0/0) [0/0]
|   |   |   |   Benzene = '(11.124-inf)' : 105.46 (0/0) [0/0]
|   |   |   |   Benzene = '(8.652-9.888]' : 105.46 (0/0) [0/0]
|   |   |   |   Benzene = '(9.888-11.124]' : 105.46 (0/0) [0/0]
|   |   |   CO = '(2.088-2.61]' : 122.67 (2/4) [1/2401]
|   |   |   CO = '(1.044-1.566]'
|   |   |   |   SO2 = '(23.872-27.844]' : 96.47 (0/0) [0/0]
|   |   |   |   SO2 = '(15.928-19.9]' : 96.47 (0/0) [0/0]
|   |   |   |   SO2 = '(7.984-11.956]' : 103 (2/6.25) [1/812.25]
|   |   |   |   SO2 = '(27.844-31.816]' : 94 (2/30.25) [2/191.25]
|   |   |   |   SO2 = '(35.788-inf)' : 96.47 (0/0) [0/0]
|   |   |   |   SO2 = '(31.816-35.788]' : 150 (2/5776) [0/0]
|   |   |   |   SO2 = '(11.956-15.928]' : 89 (0/0) [1/124.69]
|   |   |   |   SO2 = '(19.9-23.872]' : 121 (1/0) [0/0]
|   |   |   |   SO2 = '(-inf-4.012]' : 72.5 (2/156.25) [0/0]
|   |   |   |   SO2 = '(4.012-7.984]' : 82.17 (3/108.67) [3/131]
|   |   |   CO = '(3.132-3.654]' : 83.8 (0/0) [0/0]
|   |   |   CO = '(3.654-4.176]' : 83.8 (0/0) [0/0]
|   |   |   CO = '(4.176-4.698]' : 83.8 (0/0) [0/0]
|   |   |   CO = '(-inf-0.522]' : 77.74 (45/195.68) [25/133.37]
|   |   |   CO = '(4.698-inf)' : 83.8 (0/0) [0/0]
|   |   |   CO = '(2.61-3.132]' : 115 (1/0) [0/0]
|   |   O3 = '(86.794-97.642]' : 130.83 (3/434.89) [3/399.22]
|   |   O3 = '(75.946-86.794]' : 105.82 (6/186.56) [5/396.04]
|   |   O3 = '(97.642-inf)' : 151 (3/182) [0/0]
|   PM10 = '(23.46-46.91]'
|   |   CO = '(0.522-1.044]'
